~o
<STREAMINFO> 1 39
<VECSIZE> 39<NULLD><MFCC_E_D_A_Z><DIAGC>
~s "silst"
<NUMMIXES> 27
<MIXTURE> 1 7.400313e-02
<MEAN> 39
 5.079980e+00 5.432731e+00 6.226498e+00 -1.426509e+00 -4.030525e+00 -1.388521e+00 -5.103848e+00 -2.367654e+00 8.571021e-02 -1.940542e+00 -1.429701e+00 -1.632009e+00 7.695572e-01 -1.619035e+00 8.441175e-01 1.185809e+00 3.278706e+00 2.483532e+00 1.742733e+00 5.147907e-01 1.164207e+00 -7.162221e-01 7.050613e-01 7.425936e-01 5.575333e-01 -8.736696e-02 -9.451901e-01 -1.026826e+00 -6.846037e-01 4.067857e-01 4.694831e-01 5.782102e-01 1.131229e+00 7.446793e-01 1.446186e-01 4.237413e-01 3.440532e-01 2.185440e-01 -2.978744e-02
<VARIANCE> 39
 1.561735e+01 2.102698e+01 1.602665e+01 2.187570e+01 2.262011e+01 3.267345e+01 4.074529e+01 3.160422e+01 4.380054e+01 4.565258e+01 4.396279e+01 4.543860e+01 8.046481e-03 2.997089e+00 2.272102e+00 2.045618e+00 2.790101e+00 3.639805e+00 3.992702e+00 4.874439e+00 4.798834e+00 4.520495e+00 5.048036e+00 4.051956e+00 3.750547e+00 8.172570e-04 2.519961e-01 2.618181e-01 3.698240e-01 5.929447e-01 4.708453e-01 6.438766e-01 6.897417e-01 7.554199e-01 9.802614e-01 6.862187e-01 6.934495e-01 6.838538e-01 7.809285e-05
<GCONST> 9.902161e+01
<MIXTURE> 2 6.714009e-02
<MEAN> 39
 2.225847e+00 6.142503e+00 7.061897e+00 3.747164e+00 3.694451e-01 -2.531379e+00 -6.445225e+00 -3.517211e+00 -4.091868e+00 -2.934904e-01 7.545031e-01 5.049256e-01 6.082686e-01 -3.225494e+00 -1.630349e+00 2.808972e-01 2.431190e+00 2.074184e+00 3.211302e+00 2.787404e+00 2.490360e+00 1.750735e+00 2.274227e+00 9.462255e-01 5.540755e-01 -1.451230e-01 -5.515825e-01 -5.331370e-01 -7.274358e-01 -3.759872e-01 7.821982e-02 4.933762e-01 9.314768e-01 8.746902e-01 7.022929e-01 1.488184e-01 7.640165e-02 -7.243899e-02 -1.070277e-02
<VARIANCE> 39
 2.005489e+01 3.461068e+01 1.790438e+01 2.451010e+01 1.969527e+01 3.049790e+01 2.572140e+01 3.344109e+01 2.954219e+01 2.543252e+01 3.213213e+01 3.570802e+01 1.674910e-02 1.554449e+00 1.675509e+00 2.167159e+00 2.680883e+00 2.135296e+00 3.062768e+00 2.967738e+00 3.862384e+00 3.160856e+00 3.398917e+00 2.655370e+00 2.987657e+00 8.606701e-04 3.596607e-01 3.514801e-01 3.356906e-01 4.130805e-01 4.750979e-01 5.727372e-01 5.353894e-01 6.811691e-01 6.514540e-01 5.168709e-01 5.398179e-01 6.666644e-01 2.618779e-04
<GCONST> 9.474590e+01
<MIXTURE> 3 4.914635e-02
<MEAN> 39
 -2.222290e+00 -3.368035e+00 4.674060e+00 6.072232e+00 7.248063e+00 7.604536e+00 4.459790e+00 5.041543e+00 6.732590e+00 5.868424e+00 2.925497e+00 1.535150e+00 2.430069e-01 -1.481425e+00 -9.040141e-01 2.042783e-01 8.201077e-01 1.084702e+00 1.127554e+00 1.000313e+00 1.103548e+00 8.268975e-01 4.470645e-01 2.499161e-01 -1.496875e-01 -8.158784e-02 4.126267e-01 2.079921e-01 -2.747079e-01 -3.521399e-01 -6.054485e-01 -6.203536e-01 -3.728061e-01 -5.539770e-01 -7.214762e-01 -5.784125e-01 -1.592520e-01 -2.994614e-02 2.541089e-02
<VARIANCE> 39
 2.338645e+01 4.321062e+01 5.221426e+01 3.409317e+01 3.863251e+01 4.437783e+01 4.444780e+01 4.234973e+01 3.883408e+01 3.265145e+01 4.359391e+01 3.142183e+01 5.229698e-02 1.979832e+00 2.374386e+00 2.611292e+00 2.661324e+00 3.331017e+00 3.417910e+00 4.211083e+00 4.687743e+00 3.657673e+00 3.741809e+00 3.197070e+00 3.231908e+00 3.056463e-03 3.390237e-01 4.267464e-01 5.132188e-01 4.381830e-01 6.264687e-01 5.657170e-01 6.409882e-01 5.511929e-01 4.925584e-01 6.574913e-01 7.817407e-01 6.181567e-01 5.052183e-04
<GCONST> 1.055980e+02
<MIXTURE> 4 1.335804e-04
<MEAN> 39
 5.416697e+00 2.341126e+00 5.332117e+00 3.267303e+00 1.769644e+00 3.847122e-02 4.678908e+00 6.048517e-01 3.077925e+00 -6.909766e+00 1.034120e+00 4.017369e+00 6.569502e-01 -4.395046e+00 -2.089120e+00 -1.883279e-01 -1.093172e+00 2.896495e+00 -2.678255e+00 2.646402e-01 -4.059973e-02 8.614178e-01 -7.882548e-03 2.091147e-01 -1.309332e-01 3.189155e-02 -7.016843e-01 9.108139e-01 -2.464676e-01 -4.804471e-01 -2.280379e-01 -5.625151e-01 -1.207424e+00 1.340520e-01 -3.797481e-01 1.055825e+00 -1.064592e-01 -8.040668e-01 7.219376e-03
<VARIANCE> 39
 4.872062e-01 8.793837e-01 4.467798e-01 5.986336e-01 4.655360e-01 5.547998e-01 5.233105e-01 5.238746e-01 4.623669e-01 4.285940e-01 4.554257e-01 4.065517e-01 8.178990e-04 2.131718e-02 2.467502e-02 2.295796e-02 3.262999e-02 2.705514e-02 3.277762e-02 3.157425e-02 3.330884e-02 3.002590e-02 2.830696e-02 2.829967e-02 2.573834e-02 3.754082e-05 3.006852e-03 3.204699e-03 3.548019e-03 5.152391e-03 4.554175e-03 5.507924e-03 5.410464e-03 5.677051e-03 5.208372e-03 4.984414e-03 4.887287e-03 4.422382e-03 3.730629e-06
<GCONST> -7.391186e+01
<MIXTURE> 5 5.343115e-04
<MEAN> 39
 -3.067071e+00 5.137933e+00 5.049732e+00 5.584554e+00 1.151333e+00 4.510542e+00 5.635990e+00 2.426293e+00 3.219820e+00 1.996908e+00 7.237077e+00 -5.871402e-03 -2.248824e-02 2.191014e-04 -4.537879e-01 -1.305202e-02 -1.589822e-01 2.168001e-02 1.165133e+00 2.453708e-01 3.646995e-01 1.391829e+00 4.171077e-01 -1.023746e-01 3.187664e-01 -2.095509e-03 -4.630098e-01 1.186973e-01 -1.123157e-01 -2.227768e-01 4.403741e-01 -2.343925e-01 -1.946381e-01 9.607276e-02 3.781137e-01 4.352765e-02 -2.173292e-01 4.051598e-02 1.894010e-03
<VARIANCE> 39
 1.445601e+01 1.714965e+00 7.883714e-01 3.406349e+01 3.962377e+01 1.217962e+01 6.227615e+01 1.859684e+00 9.888234e+00 4.430715e+00 1.212455e+01 4.065517e-01 8.178990e-04 1.486150e-01 2.674341e-02 1.721444e-01 4.209301e-01 4.692942e-01 2.439433e+00 5.749215e-01 3.330884e-02 8.373789e-02 1.133176e+00 2.594657e-01 8.267007e-02 7.079520e-05 4.913312e-02 5.227382e-02 5.599746e-02 5.591553e-02 1.387327e-01 1.707514e-01 1.739874e-01 2.370902e-01 1.188983e-01 1.955675e-01 3.145581e-02 5.734126e-02 1.755300e-05
<GCONST> 1.995887e+01
<MIXTURE> 6 7.108524e-03
<MEAN> 39
 3.742128e+00 2.649402e+00 6.602742e+00 4.281415e+00 4.872079e+00 5.101584e+00 5.396945e-01 -2.308626e+00 4.433469e+00 -8.405815e-01 -3.782512e+00 -2.317284e+00 4.547959e-01 -1.193934e+00 -8.675549e-01 -8.591777e-01 -1.810145e-01 -2.692915e-01 2.946628e-01 4.352440e-01 3.250755e-01 2.504917e-01 2.743497e-01 4.945608e-01 3.492420e-01 -8.341823e-02 -2.645843e-01 -3.096220e-01 -3.878508e-01 -3.442678e-01 -2.768120e-01 -2.663596e-01 -2.593067e-02 3.214473e-02 -5.440734e-02 1.475985e-01 4.154488e-01 3.060823e-01 -1.376432e-02
<VARIANCE> 39
 1.217592e+01 2.392528e+01 3.260487e+01 2.694919e+01 3.550808e+01 5.158737e+01 6.282425e+01 4.086261e+01 2.498124e+01 2.687960e+01 2.091435e+01 1.890104e+01 1.230857e-02 9.567550e-01 9.496310e-01 1.891844e+00 9.607145e-01 1.426653e+00 2.481550e+00 1.725795e+00 1.671180e+00 1.896264e+00 1.711278e+00 1.885269e+00 2.361748e+00 1.695194e-03 9.062436e-02 1.076381e-01 1.789986e-01 1.965810e-01 2.355974e-01 2.695733e-01 3.331651e-01 3.070566e-01 4.086051e-01 2.700586e-01 2.521699e-01 3.281885e-01 1.020829e-04
<GCONST> 7.980183e+01
<MIXTURE> 7 5.410363e-02
<MEAN> 39
 -2.045757e+00 -6.559197e+00 -3.536791e-01 3.270074e+00 3.876816e+00 2.035488e+00 4.075102e-01 -1.584904e+00 1.704172e+00 1.642038e+00 1.774831e+00 1.095637e+00 6.496067e-02 -2.555909e-01 1.731226e-01 1.467222e-01 -4.640286e-02 -4.195732e-02 1.331742e-01 -1.865218e-02 1.242723e-01 -2.313845e-03 -2.048343e-01 -5.651049e-02 -2.850990e-01 -3.664092e-02 2.952597e-01 3.642505e-01 3.155978e-01 1.758567e-01 1.017203e-01 1.520493e-01 1.585380e-01 2.237286e-01 1.239798e-01 -9.278118e-02 -1.214614e-01 -1.720859e-02 2.188557e-02
<VARIANCE> 39
 9.737214e+00 3.452018e+01 2.382850e+01 2.862699e+01 2.489203e+01 2.701770e+01 3.507187e+01 4.158978e+01 3.844632e+01 3.639194e+01 3.765150e+01 1.924783e+01 1.704735e-02 3.709458e-01 5.563532e-01 8.890974e-01 1.398265e+00 1.873544e+00 2.171110e+00 1.899074e+00 2.560449e+00 2.378721e+00 2.288795e+00 2.404156e+00 1.981344e+00 9.703953e-04 7.526170e-02 1.458018e-01 1.944859e-01 2.899879e-01 3.659290e-01 3.971719e-01 4.333994e-01 5.579334e-01 6.338204e-01 5.017343e-01 5.205815e-01 3.644698e-01 2.072900e-04
<GCONST> 8.349075e+01
<MIXTURE> 8 2.191453e-02
<MEAN> 39
 7.949697e+00 -3.579476e+00 -1.280493e+01 -2.437423e-01 5.188408e+00 -2.270406e+00 -3.393884e+00 -6.140209e-01 2.125514e+00 3.120121e+00 -3.676623e+00 -4.369836e+00 8.700056e-01 9.355178e-01 1.194272e+00 5.830966e-02 -1.085467e+00 -4.833000e-01 9.336499e-01 3.350979e-01 -1.130276e+00 -5.373410e-01 1.475100e+00 1.784436e+00 1.964595e-01 -1.230899e-02 -1.108562e-01 -9.834391e-02 3.055062e-01 1.193708e-01 -2.774069e-01 -9.868450e-02 3.506738e-01 2.742175e-01 -5.406734e-01 -5.250299e-01 2.348413e-01 5.697995e-01 3.759963e-04
<VARIANCE> 39
 1.124646e+01 2.907415e+01 3.143997e+01 2.321415e+01 2.249781e+01 3.168126e+01 2.526067e+01 3.329035e+01 3.284104e+01 2.950617e+01 2.924653e+01 2.085975e+01 5.369346e-03 3.162328e-01 4.580345e-01 1.056006e+00 1.176406e+00 1.782064e+00 1.349392e+00 2.050652e+00 1.820923e+00 1.930167e+00 2.249631e+00 2.236261e+00 2.434542e+00 1.758757e-04 4.559753e-02 6.067350e-02 1.563221e-01 1.643366e-01 1.814562e-01 2.483099e-01 2.836292e-01 3.373741e-01 3.578752e-01 3.578055e-01 3.605259e-01 2.230764e-01 1.088766e-05
<GCONST> 6.942148e+01
<MIXTURE> 9 4.007570e-04
<MEAN> 39
 -2.544754e+00 9.396152e+00 4.283236e+00 -5.679748e+00 -5.854423e-02 -5.152407e+00 -2.108351e+00 3.731382e+00 2.116593e+00 1.881735e+00 -3.929887e-01 8.434227e-01 8.627558e-01 -1.143993e+00 1.318306e+00 -1.296512e+00 2.128028e-01 4.277426e-01 -3.907482e-01 -1.732167e+00 1.050932e+00 -7.801027e-01 -1.108850e+00 8.776742e-02 6.934201e-02 1.085363e-02 2.090680e-01 -3.441792e-01 1.231311e-01 3.206628e-01 -3.604229e-01 1.007409e-01 2.473378e-02 -4.771592e-02 -3.056254e-01 1.034595e-02 -4.608793e-01 2.214828e-01 4.238892e-03
<VARIANCE> 39
 1.086221e+01 4.125826e+00 1.036773e+01 4.790931e+00 9.549451e+00 6.783045e+00 1.115896e+01 1.781116e+00 9.102697e+00 1.530602e+01 5.874050e-01 7.635778e-01 8.178990e-04 9.361952e-01 1.332488e-01 4.687616e-01 1.947608e+00 2.705514e-02 2.238258e-01 2.486428e-01 3.330884e-02 9.157258e-02 3.333229e+00 1.279682e+00 1.074527e-01 1.988513e-04 3.233744e-02 3.291511e-03 2.821963e-01 4.618216e-02 9.643825e-02 2.218205e-02 4.561247e-02 2.770335e-02 5.208372e-03 2.657237e-01 3.390125e-02 1.041271e-02 8.383819e-06
<GCONST> 7.274797e+00
<MIXTURE> 10 1.335729e-04
<MEAN> 39
 5.723043e+00 -5.681602e-01 8.623987e+00 9.502792e-01 6.166173e+00 1.156937e+01 -9.343097e+00 -3.380717e+00 3.326082e+00 -4.703999e+00 3.284237e+00 -3.235376e+00 5.898735e-01 2.168931e+00 1.247854e+00 2.129009e+00 5.992929e+00 1.225466e+00 -2.742731e+00 -3.627095e+00 -1.775486e+00 7.775100e-02 -4.516454e-01 -3.291580e+00 -1.471228e+00 5.249245e-02 -5.036614e-02 3.512394e-01 -3.925321e-01 -5.525678e-01 -2.540780e-01 -7.212720e-01 2.654485e-01 4.099179e-01 -8.240087e-01 -4.197680e-01 9.927750e-01 3.611296e-01 5.686948e-03
<VARIANCE> 39
 4.872062e-01 8.793837e-01 4.467798e-01 5.986336e-01 4.655360e-01 5.547998e-01 5.233105e-01 5.238746e-01 4.623669e-01 4.285940e-01 4.554257e-01 4.065517e-01 8.178990e-04 2.131718e-02 2.467502e-02 2.295796e-02 3.262999e-02 2.705514e-02 3.277762e-02 3.157425e-02 3.330884e-02 3.002590e-02 2.830696e-02 2.829967e-02 2.573834e-02 3.754082e-05 3.006852e-03 3.204699e-03 3.548019e-03 5.152391e-03 4.554175e-03 5.507924e-03 5.410464e-03 5.677051e-03 5.208372e-03 4.984414e-03 4.887287e-03 4.422382e-03 3.730629e-06
<GCONST> -7.391186e+01
<MIXTURE> 11 7.108524e-03
<MEAN> 39
 3.742128e+00 2.649402e+00 6.602742e+00 4.281415e+00 4.872079e+00 5.101584e+00 5.396945e-01 -2.308626e+00 4.433469e+00 -8.405815e-01 -3.782512e+00 -2.317284e+00 4.547959e-01 -1.193934e+00 -8.675549e-01 -8.591777e-01 -1.810145e-01 -2.692915e-01 2.946628e-01 4.352440e-01 3.250755e-01 2.504917e-01 2.743497e-01 4.945608e-01 3.492420e-01 -8.341823e-02 -2.645843e-01 -3.096220e-01 -3.878508e-01 -3.442678e-01 -2.768120e-01 -2.663596e-01 -2.593067e-02 3.214473e-02 -5.440734e-02 1.475985e-01 4.154488e-01 3.060823e-01 -1.376432e-02
<VARIANCE> 39
 1.217592e+01 2.392528e+01 3.260487e+01 2.694919e+01 3.550808e+01 5.158737e+01 6.282425e+01 4.086261e+01 2.498124e+01 2.687960e+01 2.091435e+01 1.890104e+01 1.230857e-02 9.567550e-01 9.496310e-01 1.891844e+00 9.607145e-01 1.426653e+00 2.481550e+00 1.725795e+00 1.671180e+00 1.896264e+00 1.711278e+00 1.885269e+00 2.361748e+00 1.695194e-03 9.062436e-02 1.076381e-01 1.789986e-01 1.965810e-01 2.355974e-01 2.695733e-01 3.331651e-01 3.070566e-01 4.086051e-01 2.700586e-01 2.521699e-01 3.281885e-01 1.020829e-04
<GCONST> 7.980183e+01
<MIXTURE> 12 5.765497e-02
<MEAN> 39
 5.991269e-01 6.163111e+00 7.130447e+00 6.308861e+00 9.993669e-02 5.596269e+00 4.146026e-01 1.124060e+00 3.734938e+00 8.889433e-01 -1.466283e+00 -5.467997e-01 6.895564e-01 -3.380217e+00 -1.670682e-01 -3.430331e-01 2.110890e+00 2.117075e+00 2.319499e+00 3.367130e-02 1.841613e+00 5.090025e-01 -3.104721e-01 1.665090e+00 6.140897e-01 -1.045560e-01 -5.595226e-01 -1.132613e+00 -9.502606e-01 -7.366217e-01 -2.173062e-01 -6.478760e-01 1.774025e-01 1.259876e-01 -1.603492e-01 7.682106e-02 2.637300e-01 3.370224e-01 -2.093442e-02
<VARIANCE> 39
 1.592300e+01 2.231482e+01 1.472626e+01 2.109982e+01 2.580344e+01 2.317767e+01 2.544273e+01 3.408758e+01 2.127287e+01 2.281524e+01 2.162736e+01 1.824702e+01 6.567086e-03 1.321651e+00 1.893498e+00 2.220869e+00 2.716974e+00 2.711864e+00 3.502711e+00 4.506218e+00 3.543595e+00 3.490486e+00 3.797751e+00 3.223821e+00 2.524482e+00 7.382942e-04 1.928694e-01 2.178911e-01 2.123824e-01 3.549227e-01 4.159835e-01 4.721860e-01 4.374992e-01 5.844762e-01 4.582925e-01 4.863284e-01 4.237691e-01 4.415337e-01 1.134135e-04
<GCONST> 8.778409e+01
<MIXTURE> 13 4.231569e-02
<MEAN> 39
 -2.333101e+00 -1.538857e+00 1.141056e+00 1.749299e+00 2.332398e+00 2.272979e+00 4.156405e-02 1.554524e+00 3.248778e+00 -3.797328e-01 9.161951e-01 5.102172e-01 -7.991743e-02 5.504023e-02 1.018890e-01 8.452276e-02 4.452924e-02 1.807993e-02 -1.457624e-02 -2.672665e-02 6.934205e-02 2.701697e-02 1.245126e-01 -1.946542e-02 -4.578916e-02 -1.933674e-03 3.993462e-03 -7.539694e-03 7.655607e-03 -5.113766e-03 -5.088567e-03 2.583985e-02 2.786728e-02 -3.084504e-02 -6.726196e-03 6.961872e-02 2.969803e-02 -1.954006e-02 3.472494e-03
<VARIANCE> 39
 7.197566e+00 2.853057e+01 1.383682e+01 1.483731e+01 1.246233e+01 2.046503e+01 1.745971e+01 1.874031e+01 1.594104e+01 2.024557e+01 1.934035e+01 1.801819e+01 5.887497e-03 2.223110e-01 6.655391e-01 6.059864e-01 6.583092e-01 8.795363e-01 1.058913e+00 1.358669e+00 1.335413e+00 1.221434e+00 1.223001e+00 1.150174e+00 1.093970e+00 5.018423e-05 4.540496e-02 1.045756e-01 9.391212e-02 1.280822e-01 1.722294e-01 2.346449e-01 2.912125e-01 2.652728e-01 2.653980e-01 2.445628e-01 2.535996e-01 2.770332e-01 3.215327e-05
<GCONST> 5.730477e+01
<MIXTURE> 14 2.267446e-02
<MEAN> 39
 -2.292982e+00 -2.143936e+00 3.195020e+00 6.204670e+00 6.031288e+00 4.063231e+00 2.371778e+00 6.850390e-01 -5.160063e-01 -8.590503e-01 -8.879533e-01 -1.742818e+00 2.484400e-01 -1.977628e+00 -2.172214e+00 -1.557656e+00 -1.055786e+00 -3.669533e-01 5.844596e-01 9.865450e-01 1.503704e+00 2.017015e+00 1.630396e+00 1.766968e+00 1.539582e+00 -1.355769e-01 3.705618e-01 2.426454e-01 -5.915896e-02 -3.255038e-01 -3.185422e-01 -3.447842e-01 -2.718786e-01 -2.099071e-02 1.664046e-01 1.292959e-01 2.759253e-01 2.053660e-01 1.443873e-02
<VARIANCE> 39
 1.323032e+01 3.469384e+01 1.517494e+01 2.481819e+01 2.838254e+01 3.503859e+01 3.503756e+01 3.164065e+01 3.118059e+01 2.768635e+01 3.182688e+01 2.296660e+01 1.904674e-02 4.608490e-01 8.374135e-01 1.118703e+00 1.523053e+00 2.081837e+00 2.008224e+00 1.723439e+00 2.359498e+00 2.196071e+00 2.241789e+00 1.929097e+00 2.179298e+00 9.778588e-04 7.591709e-02 1.462786e-01 1.614808e-01 2.702834e-01 3.759263e-01 3.397441e-01 4.067267e-01 5.914610e-01 4.138853e-01 4.679085e-01 4.317511e-01 3.913206e-01 1.274810e-04
<GCONST> 8.205668e+01
<MIXTURE> 15 1.335804e-04
<MEAN> 39
 2.230922e+00 1.958045e+00 4.105136e+00 -3.871265e+00 4.138356e+00 5.072894e+00 -4.440278e+00 2.798500e+00 8.304157e-01 1.601793e+00 -6.498097e+00 5.846947e+00 6.770504e-02 -3.633451e-01 -2.611154e-01 -9.093130e-01 -4.367809e-02 1.033696e-01 -1.163684e+00 6.713452e-01 -1.993411e+00 2.925113e-01 -9.395861e-01 4.224764e-01 -1.265162e+00 2.692719e-03 8.984967e-02 8.468144e-02 3.350809e-02 2.642107e-01 -2.980882e-01 5.200062e-01 -9.279118e-02 2.071294e-01 -1.984937e-01 -2.073619e-01 3.292005e-01 -1.282981e-02 -1.093832e-03
<VARIANCE> 39
 4.872062e-01 8.793837e-01 4.467798e-01 5.986336e-01 4.655360e-01 5.547998e-01 5.233105e-01 5.238746e-01 4.623669e-01 4.285940e-01 4.554257e-01 4.065517e-01 8.178990e-04 2.131718e-02 2.467502e-02 2.295796e-02 3.262999e-02 2.705514e-02 3.277762e-02 3.157425e-02 3.330884e-02 3.002590e-02 2.830696e-02 2.829967e-02 2.573834e-02 3.754082e-05 3.006852e-03 3.204699e-03 3.548019e-03 5.152391e-03 4.554175e-03 5.507924e-03 5.410464e-03 5.677051e-03 5.208372e-03 4.984414e-03 4.887287e-03 4.422382e-03 3.730629e-06
<GCONST> -7.391186e+01
<MIXTURE> 16 5.630049e-02
<MEAN> 39
 2.189535e+00 -6.687394e-01 1.187024e+01 -5.827483e+00 -6.006608e+00 -3.213854e-01 7.221127e-01 -4.626833e+00 3.494217e+00 2.862830e+00 -3.954360e+00 5.530789e-01 7.916128e-01 -8.176854e-01 2.598992e+00 -4.632734e-01 -5.335346e-01 6.993780e-01 9.763367e-02 -2.256332e+00 5.518492e-01 9.950393e-01 -1.201629e+00 3.263192e-01 1.031211e+00 -5.400503e-03 -2.654959e-01 1.086582e-01 -1.435996e+00 1.253062e-01 3.777166e-01 -2.631273e-01 3.806395e-01 8.968367e-01 -3.852933e-01 -5.432652e-01 5.928060e-01 -4.017929e-01 8.484881e-03
<VARIANCE> 39
 1.396673e+01 3.026877e+01 3.529598e+01 4.587101e+01 2.974879e+01 3.503766e+01 3.999995e+01 4.316291e+01 5.081535e+01 3.771797e+01 2.982607e+01 3.354041e+01 6.248728e-03 1.074968e+00 2.324072e+00 3.173507e+00 4.841155e+00 2.827408e+00 4.290349e+00 3.790028e+00 5.586114e+00 4.137211e+00 3.267216e+00 3.283543e+00 2.332150e+00 2.820041e-04 2.086208e-01 2.432068e-01 5.707946e-01 1.347812e+00 6.525429e-01 9.855005e-01 8.353413e-01 8.933899e-01 1.173424e+00 7.755522e-01 5.203227e-01 6.472077e-01 6.707802e-05
<GCONST> 9.980010e+01
<MIXTURE> 17 3.291856e-02
<MEAN> 39
 1.649166e+00 8.879060e-01 -4.658353e-01 -6.137975e+00 -3.944951e+00 8.963953e-01 5.713896e+00 4.208161e+00 3.529816e+00 1.897141e+00 1.198464e+00 1.574743e+00 6.225699e-01 -6.447945e-01 -6.545342e-01 -6.226900e-01 6.861527e-01 9.641563e-01 1.143401e+00 8.590147e-01 4.352470e-01 -1.355569e-01 1.033050e-02 6.025656e-01 6.676499e-01 -4.902841e-02 -2.367618e-01 -3.597305e-02 -1.110867e-01 4.367877e-01 5.101094e-01 -2.585204e-01 -6.372448e-01 -5.006022e-01 -3.536399e-01 -2.889272e-02 -3.304707e-02 -8.192357e-02 -3.194335e-04
<VARIANCE> 39
 2.273545e+01 4.901770e+01 4.217007e+01 6.288222e+01 4.800040e+01 7.607346e+01 7.103391e+01 6.576116e+01 6.154557e+01 7.126923e+01 9.148985e+01 7.418355e+01 3.434598e-02 2.619217e+00 6.322184e+00 2.917290e+00 4.985316e+00 4.860104e+00 9.041862e+00 7.133655e+00 5.349502e+00 5.627269e+00 5.781247e+00 5.952160e+00 5.933699e+00 2.855573e-03 3.765006e-01 5.728724e-01 6.310079e-01 1.107953e+00 9.022956e-01 1.149493e+00 1.107990e+00 1.008476e+00 1.148206e+00 1.000632e+00 1.427259e+00 1.305948e+00 4.780930e-04
<GCONST> 1.225346e+02
<MIXTURE> 18 7.856551e-02
<MEAN> 39
 6.323177e+00 5.914180e+00 8.310131e+00 3.439692e+00 3.513851e-01 -2.170138e-01 -2.493024e+00 -4.362064e+00 -3.249848e+00 -3.018347e+00 -2.497133e+00 -3.841012e-01 6.358062e-01 -1.385439e+00 -5.595760e-01 5.136321e-01 2.193318e+00 1.458118e+00 1.407101e+00 6.894610e-01 3.052481e-01 -6.230872e-01 -7.617673e-02 3.159245e-01 2.488723e-01 -1.024326e-01 -1.027556e+00 -8.951743e-01 -1.170516e+00 -6.432475e-01 -2.748800e-01 1.876328e-01 5.895039e-01 9.199643e-01 8.728853e-01 6.583901e-01 3.698077e-01 1.561000e-02 -1.366712e-02
<VARIANCE> 39
 1.153901e+01 3.947048e+01 2.236859e+01 2.992423e+01 2.899760e+01 3.068398e+01 3.982027e+01 3.629404e+01 4.090572e+01 4.097306e+01 2.455654e+01 3.633217e+01 9.739642e-03 1.412138e+00 1.466468e+00 2.474288e+00 2.757998e+00 2.329344e+00 2.840548e+00 2.720806e+00 3.696158e+00 3.909098e+00 3.723409e+00 3.419195e+00 2.941487e+00 1.036393e-03 2.465757e-01 2.518386e-01 3.609585e-01 3.918748e-01 4.023422e-01 5.430248e-01 5.831734e-01 5.818767e-01 6.308687e-01 5.697306e-01 4.418535e-01 5.645574e-01 2.502704e-04
<GCONST> 9.487723e+01
<MIXTURE> 19 6.160054e-02
<MEAN> 39
 2.731114e+00 5.724149e+00 6.866978e+00 -4.587201e+00 -1.294825e+00 -8.319159e-01 -4.887212e+00 -2.920710e+00 1.294694e+00 -5.307915e+00 7.957479e-02 -1.828797e+00 7.552333e-01 -8.423405e-01 7.648803e-01 -1.099245e+00 -9.874446e-02 4.716208e-01 -5.554823e-01 3.585280e-01 1.449870e+00 -2.304716e-01 6.631510e-01 4.303640e-01 -4.356140e-01 1.719623e-03 -4.242875e-01 -2.030843e-01 -9.670050e-01 -5.229440e-01 -1.809455e-01 -3.887881e-01 5.697703e-01 4.363167e-01 2.780714e-02 5.409912e-01 -1.545358e-01 -8.243541e-02 1.558743e-02
<VARIANCE> 39
 1.803670e+01 2.943603e+01 2.462786e+01 3.642619e+01 2.554470e+01 3.236162e+01 3.169453e+01 4.614308e+01 3.912123e+01 3.602090e+01 3.259566e+01 3.635764e+01 1.044441e-02 1.682693e+00 2.670854e+00 2.913553e+00 4.169618e+00 3.107527e+00 3.178450e+00 4.817587e+00 5.420224e+00 4.314777e+00 3.978019e+00 3.687224e+00 3.208850e+00 5.349555e-04 2.459307e-01 3.250024e-01 5.210685e-01 7.116101e-01 5.507459e-01 6.919087e-01 8.043473e-01 1.006098e+00 7.746498e-01 7.033501e-01 6.851137e-01 7.163870e-01 1.331131e-04
<GCONST> 1.009175e+02
<MIXTURE> 20 7.206389e-02
<MEAN> 39
 -4.126519e-02 5.215781e+00 6.978081e+00 7.915624e+00 4.766359e+00 4.032472e+00 2.420001e-01 5.818654e-01 -1.198581e+00 -1.652059e+00 3.069516e-01 -1.130464e+00 5.538025e-01 -2.980756e+00 -2.390237e+00 -1.425381e+00 1.175439e+00 9.463685e-01 1.381334e+00 1.276420e+00 1.217871e+00 5.298810e-01 9.101163e-01 1.325547e+00 1.149341e+00 -1.347675e-01 -3.884016e-01 -6.189525e-01 -8.586955e-01 -1.086599e+00 -7.033932e-01 -5.546108e-01 -1.133145e-01 6.860210e-02 4.099094e-01 3.322808e-01 1.417076e-01 1.883376e-01 -4.298286e-03
<VARIANCE> 39
 2.436378e+01 5.016584e+01 1.620652e+01 2.485940e+01 2.018463e+01 3.031365e+01 3.534377e+01 2.990284e+01 3.292154e+01 3.187353e+01 2.842088e+01 2.389375e+01 1.056214e-02 1.431692e+00 1.953161e+00 2.135889e+00 2.914774e+00 2.689395e+00 2.589036e+00 2.578603e+00 2.692002e+00 3.048796e+00 3.635200e+00 3.436118e+00 2.771038e+00 9.643109e-04 3.359654e-01 3.526697e-01 2.686724e-01 3.579531e-01 3.419124e-01 5.142250e-01 4.977861e-01 4.738796e-01 5.558483e-01 5.546721e-01 5.431834e-01 4.525461e-01 2.073620e-04
<GCONST> 9.282193e+01
<MIXTURE> 21 4.141434e-02
<MEAN> 39
 -2.788749e+00 -5.407308e+00 1.648574e+00 3.938501e+00 4.442667e+00 3.551094e+00 3.752839e+00 3.262758e-01 6.496503e-01 1.620884e+00 2.245306e+00 2.726033e+00 2.250898e-01 1.147559e-01 6.275648e-01 5.007320e-01 -1.109969e-01 -2.821057e-01 -2.509254e-01 -5.195642e-01 -3.633740e-01 -1.932700e-01 -3.630390e-01 -4.357673e-01 -2.673827e-01 1.842097e-02 6.851863e-01 4.614186e-01 -4.701855e-02 -3.871607e-01 -3.516279e-01 -2.408994e-01 -3.588170e-01 -7.134569e-03 -4.668355e-02 -8.215115e-02 -2.861238e-01 -1.818882e-01 3.474509e-02
<VARIANCE> 39
 1.969732e+01 5.015078e+01 4.226019e+01 3.612184e+01 3.411478e+01 5.644047e+01 3.832302e+01 3.599294e+01 4.267847e+01 3.655205e+01 4.091989e+01 2.586860e+01 5.481489e-02 2.976308e+00 3.170094e+00 3.144882e+00 3.460174e+00 3.300938e+00 3.309482e+00 3.586164e+00 3.390110e+00 4.713356e+00 3.532661e+00 3.366122e+00 3.057085e+00 5.778080e-03 4.574776e-01 5.348377e-01 6.133447e-01 5.892231e-01 6.667163e-01 7.801921e-01 6.315459e-01 6.095820e-01 8.146445e-01 6.229273e-01 6.623352e-01 6.005819e-01 7.099641e-04
<GCONST> 1.087353e+02
<MIXTURE> 22 5.460222e-02
<MEAN> 39
 7.086869e-01 2.774376e+00 3.945525e+00 3.064376e+00 1.638388e+00 -5.814295e-02 -2.546205e+00 -1.458016e+00 -5.184869e-01 3.071731e+00 4.671100e+00 4.631509e+00 4.003135e-01 -2.328550e+00 -1.502904e+00 -9.152491e-02 9.144687e-01 1.043962e+00 1.846897e+00 1.576386e+00 1.568516e+00 1.115857e+00 8.274983e-01 3.433408e-01 -2.963102e-01 -1.186609e-01 -9.511410e-02 -1.025042e-01 -3.334988e-01 -2.638847e-01 -9.045533e-02 4.801506e-02 4.140340e-01 4.082839e-01 2.340690e-01 -7.424294e-02 -3.958282e-01 -4.415855e-01 1.649356e-02
<VARIANCE> 39
 1.797062e+01 6.250131e+01 3.104507e+01 3.421353e+01 2.671502e+01 3.090248e+01 3.436134e+01 2.931084e+01 3.285005e+01 3.431913e+01 3.065140e+01 3.192312e+01 2.456843e-02 1.466994e+00 2.008326e+00 2.480447e+00 2.247478e+00 2.757259e+00 2.997937e+00 3.856920e+00 3.259522e+00 3.242482e+00 3.557659e+00 4.373316e+00 3.758315e+00 2.206549e-03 3.206163e-01 4.559064e-01 4.393704e-01 4.346035e-01 4.426017e-01 4.800254e-01 5.853782e-01 4.954788e-01 4.821836e-01 6.403934e-01 5.645038e-01 4.579387e-01 4.937854e-04
<GCONST> 9.957172e+01
<MIXTURE> 23 4.348780e-02
<MEAN> 39
 2.790184e+00 6.164952e-01 -1.068588e+00 -5.521492e-01 -4.547063e-01 -8.559779e-01 -5.754473e-01 -9.102967e-02 -9.347945e-01 -6.060427e-01 7.836801e-01 2.461369e-01 7.267373e-01 2.992882e-02 7.992821e-02 1.951938e-02 -1.541941e-01 -1.724411e-02 8.111230e-02 9.847669e-02 -9.101992e-02 -7.996803e-02 1.760724e-01 2.124450e-01 -2.794716e-02 -4.093424e-03 -1.160339e-01 -3.808840e-02 -5.533207e-02 -1.383993e-01 -1.466802e-01 -1.411311e-01 -1.655722e-01 -1.229309e-01 -1.173927e-01 -1.024483e-01 -6.839258e-02 -9.956983e-02 6.573400e-03
<VARIANCE> 39
 1.778279e+01 1.083859e+02 3.551761e+01 4.014838e+01 2.935139e+01 3.438318e+01 5.341951e+01 5.103805e+01 5.349924e+01 3.487365e+01 4.384352e+01 3.090195e+01 2.702459e-02 4.487947e-01 5.164227e-01 4.357819e-01 7.116704e-01 1.147877e+00 1.195010e+00 1.373520e+00 1.559448e+00 1.629115e+00 1.155434e+00 1.829256e+00 1.348118e+00 6.275081e-04 7.957268e-02 1.126486e-01 1.011980e-01 1.417486e-01 1.608367e-01 2.119009e-01 2.141385e-01 2.180153e-01 2.935536e-01 2.504087e-01 2.789852e-01 2.684877e-01 7.772178e-05
<GCONST> 7.500308e+01
<MIXTURE> 24 4.378507e-02
<MEAN> 39
 -2.452864e+00 -4.917960e+00 1.715657e-01 1.560299e+00 2.565112e+00 1.299832e+00 4.982530e-01 -1.693150e-01 3.340025e+00 2.180032e+00 2.299556e+00 1.540415e+00 1.260099e-01 -1.218396e+00 -1.394079e+00 -1.327287e+00 -8.689325e-01 -7.732950e-01 -5.134404e-01 -3.235041e-01 1.102149e-01 3.172527e-01 2.446190e-01 5.530209e-01 2.805113e-01 -1.079029e-01 4.486057e-01 5.798426e-01 4.672691e-01 3.039064e-01 1.941646e-01 1.181463e-01 1.086139e-03 -8.812014e-02 -1.978231e-01 -2.640595e-01 -3.565855e-01 -2.653461e-01 2.872461e-02
<VARIANCE> 39
 1.181694e+01 4.352490e+01 2.358473e+01 2.552572e+01 2.869900e+01 2.065897e+01 3.039175e+01 3.216096e+01 3.713564e+01 3.425219e+01 3.067448e+01 2.021463e+01 1.896109e-02 5.103275e-01 9.561566e-01 9.096575e-01 1.646718e+00 2.109850e+00 2.093966e+00 2.177518e+00 2.568310e+00 3.148912e+00 2.400664e+00 2.396668e+00 2.575780e+00 8.966001e-04 1.029580e-01 1.761121e-01 1.982322e-01 2.416871e-01 3.445357e-01 3.309356e-01 3.858722e-01 4.228954e-01 5.268111e-01 5.122177e-01 4.412239e-01 4.131696e-01 1.102104e-04
<GCONST> 8.376501e+01
<MIXTURE> 25 2.088672e-02
<MEAN> 39
 -9.585205e-01 -2.983179e+00 3.826692e+00 -9.701100e+00 -9.608132e+00 1.037040e+00 -2.827986e-01 -1.342749e+00 1.286582e+00 -7.912197e-01 -4.369078e+00 5.256268e-01 8.971853e-01 1.400649e+00 -2.607207e+00 -9.636226e-01 3.160247e+00 -1.573611e+00 -3.504388e-01 2.352836e+00 -2.198301e-01 -1.293548e+00 5.162918e-01 -7.015043e-01 -6.707104e-01 -5.275814e-03 2.122566e-01 4.681011e-01 -8.206428e-01 7.549435e-01 9.167454e-01 -1.238817e+00 -1.987637e-01 3.537651e-01 -2.921606e-01 -9.111881e-02 4.148947e-01 -9.432188e-02 3.266145e-04
<VARIANCE> 39
 1.468541e+01 2.277591e+01 2.373084e+01 3.799509e+01 2.259166e+01 3.590992e+01 5.544554e+01 4.116394e+01 2.696044e+01 3.551689e+01 4.780444e+01 5.686512e+01 5.650199e-03 1.052452e+00 1.464848e+00 1.294994e+00 2.466567e+00 3.073404e+00 6.116008e+00 3.106808e+00 6.032765e+00 3.859141e+00 3.168394e+00 3.176503e+00 3.614690e+00 2.022671e-04 9.799894e-02 2.021306e-01 3.714261e-01 4.985937e-01 5.812895e-01 4.401879e-01 8.615452e-01 7.177023e-01 6.452115e-01 5.331197e-01 5.631985e-01 6.099643e-01 2.964382e-05
<GCONST> 9.220521e+01
<MIXTURE> 26 3.226857e-02
<MEAN> 39
 -7.587029e-01 6.734654e-01 2.598238e+00 4.378617e+00 4.480356e+00 5.716623e+00 3.155127e+00 2.645372e+00 3.576016e+00 9.948326e-01 1.759362e+00 1.801503e+00 3.679128e-01 -2.334800e+00 -2.598739e+00 -2.187560e+00 -1.094498e+00 -4.549074e-01 -4.221592e-01 1.864627e-01 5.807099e-01 3.963680e-01 2.768755e-01 8.289798e-01 4.590677e-01 -1.374164e-01 7.621921e-02 -5.738901e-02 -6.971408e-02 -4.727188e-01 -5.720967e-01 -6.883391e-01 -3.507760e-01 -2.018124e-01 -1.091575e-01 5.872209e-02 -1.780693e-01 -2.440105e-01 1.016422e-02
<VARIANCE> 39
 2.586601e+01 5.926923e+01 2.947554e+01 3.166598e+01 3.362775e+01 3.177308e+01 3.866912e+01 4.239092e+01 4.001777e+01 3.445935e+01 3.341380e+01 1.571272e+01 1.430719e-02 7.914565e-01 1.272012e+00 1.225308e+00 1.672148e+00 1.704626e+00 1.977777e+00 2.561592e+00 2.495880e+00 2.629201e+00 2.423445e+00 2.267056e+00 1.691516e+00 9.655335e-04 2.228125e-01 2.711754e-01 2.421442e-01 3.147089e-01 3.190981e-01 4.612760e-01 5.166541e-01 5.486689e-01 4.868224e-01 4.219459e-01 4.432399e-01 2.885528e-01 2.277162e-04
<GCONST> 8.893623e+01
<MIXTURE> 27 5.759494e-02
<MEAN> 39
 1.262390e+00 2.536318e+00 -1.814264e+00 -4.347188e+00 -2.347277e+00 -4.905970e+00 -2.553417e+00 -4.415948e-01 -8.831429e-01 -1.373581e+00 -6.361110e-01 -1.340152e-01 8.672275e-01 -3.764983e-01 1.019156e+00 -1.070305e+00 2.482009e-01 -1.532879e-01 -1.463322e-01 4.762271e-02 2.863663e-02 -7.052064e-02 -2.030597e-01 4.483911e-01 6.299008e-02 -2.291323e-03 3.615100e-02 -1.910874e-01 2.725544e-03 5.164908e-02 -1.532053e-03 1.633066e-01 7.530114e-02 -5.087392e-02 -4.623819e-02 -6.382892e-03 -1.241136e-01 -2.765676e-02 1.746335e-03
<VARIANCE> 39
 2.047865e+01 6.822207e+01 3.757866e+01 5.350076e+01 3.791334e+01 4.390880e+01 5.241295e+01 4.212091e+01 4.095482e+01 3.485006e+01 4.504380e+01 5.044484e+01 5.169963e-03 1.894581e+00 2.846948e+00 2.889552e+00 3.186260e+00 3.442864e+00 4.998950e+00 4.526462e+00 4.570099e+00 4.035647e+00 4.397562e+00 4.192425e+00 3.808511e+00 2.023737e-04 1.129923e-01 2.891955e-01 2.885256e-01 5.331363e-01 5.189837e-01 5.223170e-01 5.162429e-01 6.394166e-01 5.749898e-01 4.673796e-01 4.518552e-01 5.663708e-01 1.582204e-05
<GCONST> 9.685351e+01
~h "#i"
<BEGINHMM>
<NUMSTATES> 15
<STATE> 2
<NUMMIXES> 25
<MIXTURE> 1 3.444546e-02
<MEAN> 39
 1.294431e+00 7.277133e+00 1.515465e+00 -6.690520e-01 -4.603711e-01 -4.780600e-01 3.251986e+00 1.331198e+00 4.416385e+00 5.752498e+00 1.856548e+00 4.677375e+00 4.946235e-01 4.239630e-01 1.229639e+00 -4.145921e-02 1.173862e-01 -5.117247e-01 -4.565038e-01 3.343190e-01 -5.130100e-01 -2.988713e-01 8.039032e-02 -6.959797e-01 8.021173e-02 2.137502e-02 1.166979e-01 3.102691e-01 -1.477962e-01 -2.621497e-01 -3.077052e-01 -3.526104e-01 -1.632662e-01 3.655060e-02 -2.505616e-01 -4.709715e-01 -2.310948e-01 -2.491590e-01 2.457982e-02
<VARIANCE> 39
 7.936785e+00 2.718869e+01 3.095774e+01 1.300551e+01 1.899987e+01 2.034606e+01 2.870030e+01 1.876742e+01 2.283518e+01 1.648817e+01 1.824207e+01 2.626531e+01 6.411078e-03 6.028022e-01 1.206844e+00 5.180551e-01 6.622983e-01 6.757841e-01 7.217787e-01 1.940590e+00 1.903002e+00 1.143594e+00 1.621367e+00 1.508101e+00 1.472307e+00 1.611356e-03 1.234374e-01 1.597672e-01 2.069272e-01 1.370316e-01 3.570127e-01 3.620056e-01 3.631213e-01 2.801850e-01 3.700046e-01 2.921715e-01 3.182530e-01 2.927648e-01 1.437241e-04
<GCONST> 7.126821e+01
<MIXTURE> 2 3.463470e-02
<MEAN> 39
 3.414278e+00 4.761334e+00 -7.292909e+00 -5.456246e+00 -2.728125e+00 -2.240367e+00 -8.623227e-01 4.825395e+00 9.797485e+00 7.215299e+00 8.715885e+00 5.042092e+00 5.706213e-01 1.648819e-01 2.089311e+00 -1.977091e+00 -2.003453e+00 -1.914110e+00 -1.994386e+00 -2.147653e+00 -2.368709e+00 -1.523339e+00 4.671288e-02 4.615581e-01 1.718761e-01 1.297894e-01 -6.607478e-01 -3.030241e-01 9.909717e-01 9.189793e-01 7.609505e-01 8.016430e-01 2.215457e-01 -2.355450e-01 -6.560412e-01 -5.678599e-01 -8.250280e-01 -4.878855e-01 -2.369753e-02
<VARIANCE> 39
 7.500643e+00 5.200262e+01 2.253434e+01 1.602459e+01 3.402387e+01 2.229430e+01 4.599744e+01 2.647786e+01 5.493897e+01 6.894725e+01 9.893719e+01 6.968067e+01 3.332521e-02 1.536632e+00 2.661794e+00 3.934861e+00 3.738112e+00 2.828364e+00 7.832713e+00 4.377111e+00 3.050301e+00 8.876330e+00 1.137787e+01 1.056706e+01 3.472444e+00 2.326420e-03 1.166332e-01 3.972493e-01 3.370318e-01 4.058283e-01 4.011905e-01 6.721503e-01 6.259499e-01 4.566933e-01 1.010093e+00 1.274597e+00 1.838789e+00 1.293977e+00 2.289318e-04
<GCONST> 1.079997e+02
<MIXTURE> 3 2.378776e-02
<MEAN> 39
 -2.467878e+00 4.813337e+00 -1.726965e+00 -1.517335e+01 2.045233e+00 -2.304035e+00 5.750312e-01 7.519460e+00 -1.581900e-01 -4.122011e+00 -4.753193e-01 -8.129956e+00 7.813572e-01 1.755984e-01 3.342592e+00 -1.263991e+00 8.591525e-01 4.761859e-01 -2.174647e+00 2.209476e+00 9.551901e-01 -4.661659e-01 2.796815e+00 -1.059918e+00 9.555728e-01 -2.579859e-02 2.349355e-01 -7.543077e-02 1.757313e-01 1.134002e+00 -8.323703e-01 3.269175e-01 -6.669129e-02 -9.742292e-01 4.306394e-01 3.636843e-01 -2.642526e-02 1.195473e+00 -6.192804e-04
<VARIANCE> 39
 7.536035e+00 3.686284e+01 7.444670e+00 2.145671e+01 4.116556e+01 6.754659e+01 2.048563e+01 1.829071e+01 4.492170e+01 2.724362e+01 4.474830e+01 1.485778e+01 4.399255e-03 3.535418e-01 1.453312e+00 7.101813e-01 4.726791e+00 5.284830e+00 7.030914e+00 8.659750e-01 3.572941e+00 1.818068e+00 5.438491e+00 2.556380e+00 8.254124e+00 1.947031e-04 1.054558e-01 3.193700e-01 1.594650e-01 5.578302e-01 5.069517e-01 1.147179e+00 5.582401e-01 9.521580e-01 4.555851e-01 1.054028e+00 6.589159e-01 4.210448e-01 3.691652e-05
<GCONST> 8.729638e+01
<MIXTURE> 4 4.064801e-02
<MEAN> 39
 -1.298870e+00 1.085227e+01 2.786143e+00 -7.478836e+00 -1.620177e+00 -6.650088e+00 -6.553195e+00 1.456605e+00 2.273602e+00 4.774848e-01 5.593091e+00 1.285138e+00 7.787465e-01 -4.530277e-01 2.675362e+00 -9.112222e-01 1.881484e+00 1.632716e-01 -1.161942e+00 -1.017190e+00 -1.354222e+00 -3.877128e-01 -1.647429e+00 1.685833e+00 -5.838076e-01 3.508545e-03 2.309782e-01 -6.755947e-01 -8.199074e-02 3.745520e-01 -7.100565e-01 8.030633e-01 4.238226e-01 1.250557e-01 -2.666097e-01 5.352118e-02 -6.130555e-01 -4.931766e-01 4.710836e-03
<VARIANCE> 39
 5.158942e+00 1.704657e+01 9.240864e+00 1.004504e+01 1.563667e+01 1.251534e+01 1.430896e+01 1.107436e+01 2.012391e+01 2.016683e+01 1.043084e+01 1.046007e+01 6.520799e-03 2.041480e-01 6.575264e-01 1.100643e+00 1.346841e+00 1.071613e+00 9.217057e-01 2.171334e+00 1.131210e+00 1.088153e+00 1.631787e+00 1.933400e+00 1.191744e+00 2.258859e-04 5.624472e-02 1.177542e-01 6.475677e-02 1.886346e-01 2.598146e-01 1.818475e-01 3.238625e-01 2.558844e-01 1.331792e-01 2.495153e-01 2.960320e-01 2.141353e-01 3.523938e-05
<GCONST> 5.759614e+01
<MIXTURE> 5 4.484590e-02
<MEAN> 39
 2.144742e+00 1.124918e+01 -1.026841e+00 -1.976828e-01 -3.319398e+00 -1.029638e+00 3.804294e+00 5.864612e+00 4.146198e+00 6.173087e+00 1.950743e+00 4.034459e+00 5.708494e-01 4.881656e-01 3.395387e+00 -1.315853e+00 -1.027602e+00 -2.053969e+00 -1.685393e+00 -8.990229e-01 -8.878331e-01 -1.627454e+00 -9.046851e-01 -1.869507e+00 7.581511e-01 1.333151e-01 -5.436031e-01 -8.590386e-01 2.105076e-01 3.778875e-02 3.623148e-01 1.597567e-01 -1.340504e-01 -3.021377e-01 -3.973665e-01 -6.048470e-01 -1.109597e-01 -1.646577e-01 -7.850238e-03
<VARIANCE> 39
 1.310728e+01 3.568454e+01 1.014556e+01 2.570414e+01 1.246729e+01 2.035898e+01 1.848654e+01 2.410869e+01 2.222763e+01 2.978478e+01 3.962547e+01 2.288960e+01 1.566174e-02 1.185375e+00 3.084529e+00 2.714181e+00 2.633466e+00 3.708284e+00 3.628564e+00 1.850484e+00 3.046877e+00 3.178127e+00 2.851684e+00 1.790262e+00 2.788758e+00 4.805336e-03 2.171588e-01 3.294299e-01 2.805492e-01 5.966225e-01 2.678683e-01 4.313530e-01 3.397191e-01 3.536156e-01 4.068634e-01 3.136400e-01 6.391903e-01 2.486388e-01 2.786736e-04
<GCONST> 8.945450e+01
<MIXTURE> 6 3.731228e-02
<MEAN> 39
 -1.966205e+00 -5.588637e+00 6.450508e-01 3.453351e+00 3.697526e+00 4.064744e+00 5.793774e+00 4.118432e+00 2.870529e+00 3.278981e+00 1.761226e+00 -1.213927e-02 3.234969e-02 2.913439e-01 1.989992e+00 3.002048e-02 1.323679e+00 -9.021372e-01 -1.258718e-01 -9.880491e-01 3.144919e-01 -1.418041e-02 2.905623e-01 -2.117189e-01 1.453356e-01 4.856945e-02 4.601499e-01 1.613573e+00 -1.758303e-01 -5.362884e-01 -1.038284e+00 -7.299929e-01 -6.766108e-01 -1.520305e-01 -2.422598e-01 -1.856394e-01 -1.011406e-02 1.966407e-01 6.396828e-02
<VARIANCE> 39
 6.412741e+00 5.364508e+01 2.185874e+01 1.080120e+01 1.416136e+01 2.312515e+01 5.199109e+01 2.678480e+01 3.231747e+01 3.823095e+01 3.553677e+01 2.598277e+01 3.243115e-02 9.653992e-01 4.080744e+00 1.801374e+00 1.407354e+00 2.337504e+00 3.314554e+00 4.653728e+00 2.336928e+00 1.268018e+00 2.868098e+00 2.914084e+00 1.456314e+00 6.334287e-03 1.434272e-01 4.282171e-01 3.049818e-01 3.345827e-01 3.178090e-01 6.404178e-01 8.827849e-01 4.659469e-01 7.319981e-01 4.211044e-01 5.915303e-01 4.885947e-01 4.333433e-04
<GCONST> 9.322634e+01
<MIXTURE> 7 4.894328e-02
<MEAN> 39
 6.454595e-01 1.543751e+01 -3.499750e+00 3.027873e+00 -1.975828e+00 -6.296160e+00 4.533783e-01 5.444674e-01 1.241273e+00 4.231731e-01 1.498387e+00 2.897275e+00 6.823793e-01 -1.248455e-02 1.196285e+00 -3.680901e-01 7.716039e-01 -1.449661e+00 1.459011e+00 -1.285758e+00 -2.311034e-01 -1.426527e+00 -4.810010e-01 -8.624125e-01 3.226060e-01 3.240871e-03 1.039595e-01 -8.371451e-01 5.669655e-01 -8.956631e-01 -1.546306e-01 2.680913e-02 -1.031686e-01 7.168939e-02 -5.657170e-02 5.628243e-02 -3.477420e-01 -2.998273e-01 9.566969e-03
<VARIANCE> 39
 9.504867e+00 2.705099e+01 2.657113e+01 2.550549e+01 2.562690e+01 1.897831e+01 5.239681e+01 1.472199e+01 1.946693e+01 3.085159e+01 3.053219e+01 3.673513e+01 1.471416e-02 1.162795e+00 1.687315e+00 1.767037e+00 2.533757e+00 1.563804e+00 1.422284e+00 2.441791e+00 4.059304e+00 2.908217e+00 1.982419e+00 3.911423e+00 3.278699e+00 4.659478e-04 1.095798e-01 2.467574e-01 3.659264e-01 3.193161e-01 3.074041e-01 3.965309e-01 4.540430e-01 4.981253e-01 4.404806e-01 3.604722e-01 3.471552e-01 3.811580e-01 8.604149e-05
<GCONST> 8.510808e+01
<MIXTURE> 8 2.698037e-02
<MEAN> 39
 5.615799e-01 4.244427e+00 5.904647e+00 -1.136985e+01 -2.941434e+00 -1.563147e+00 -5.403103e+00 5.449427e+00 3.935703e+00 3.824470e+00 9.707826e-01 9.912170e-01 7.682728e-01 -9.742094e-01 4.016121e+00 -5.231948e-01 -1.560299e-01 2.235315e+00 -2.898161e+00 -2.406739e+00 -2.851811e-02 8.534599e-02 -1.807769e+00 2.806843e+00 5.301471e-01 -1.064549e-02 2.320751e-01 -2.009074e-01 -6.907390e-01 1.484515e+00 -2.681314e-01 -3.543212e-01 9.515289e-01 -2.404383e-01 -8.460527e-01 -3.059002e-01 2.851886e-01 -4.871133e-01 4.448550e-03
<VARIANCE> 39
 8.915985e+00 1.941396e+01 1.523485e+01 9.726689e+00 1.174333e+01 2.314252e+01 2.688953e+01 1.883238e+01 2.003970e+01 1.898874e+01 2.311374e+01 1.316400e+01 5.481613e-03 3.197035e-01 7.774081e-01 6.487903e-01 2.052366e+00 1.917290e+00 1.357423e+00 3.870635e+00 2.366383e+00 1.504962e+00 2.785142e+00 1.916659e+00 1.925357e+00 3.052574e-04 6.438546e-02 1.192267e-01 1.796083e-01 2.938269e-01 1.007959e-01 3.270774e-01 2.143113e-01 3.968377e-01 2.021755e-01 4.222904e-01 3.030608e-01 2.910186e-01 3.737967e-05
<GCONST> 6.805342e+01
<MIXTURE> 9 3.316356e-02
<MEAN> 39
 3.399912e+00 5.839444e+00 3.954628e+00 -7.485266e-01 -7.621531e+00 -4.674638e+00 -5.445591e+00 -1.802737e+00 -1.507437e+00 -3.031758e+00 -1.561730e+00 -1.367183e+00 5.758768e-01 1.038454e+00 3.836714e+00 -2.412166e-01 -1.654330e+00 -1.961554e+00 -9.521710e-01 -2.469785e+00 4.500326e-01 -3.032461e-01 -1.207550e+00 1.009547e+00 -1.341092e+00 1.390675e-01 -7.338342e-01 -2.567588e-01 -4.743952e-01 -7.626430e-02 6.500275e-01 7.081013e-01 6.050234e-01 4.559364e-01 4.636864e-01 5.267329e-01 3.827252e-01 4.239689e-01 -2.416952e-02
<VARIANCE> 39
 1.952218e+01 6.469585e+01 4.357029e+01 4.272920e+01 4.298412e+01 2.778793e+01 2.709537e+01 4.282722e+01 2.736424e+01 2.524227e+01 2.836562e+01 3.103503e+01 1.653298e-02 2.008812e+00 4.235467e+00 2.688001e+00 2.973408e+00 1.804634e+00 2.305449e+00 2.351960e+00 2.560465e+00 1.272205e+00 1.395825e+00 2.965842e+00 2.657786e+00 2.287519e-03 2.480097e-01 5.176263e-01 6.512872e-01 7.173270e-01 7.708977e-01 3.980226e-01 3.814911e-01 7.145667e-01 2.893569e-01 2.551061e-01 6.430209e-01 2.647761e-01 5.827898e-04
<GCONST> 9.658523e+01
<MIXTURE> 10 3.050146e-02
<MEAN> 39
 2.720323e+00 1.059278e+01 -4.354889e+00 -4.284366e+00 -6.290147e+00 -3.560195e+00 6.200950e+00 3.875011e+00 7.024663e+00 2.622190e+00 7.624995e-01 1.173275e+00 7.201672e-01 -7.850499e-01 1.445124e+00 -3.348794e+00 -2.368171e+00 -3.085932e+00 -3.016568e+00 -5.562534e-01 -2.370585e+00 -5.263135e-01 -5.129105e-01 9.712169e-01 3.171276e+00 1.907956e-01 -6.160710e-01 -1.024049e+00 1.103167e+00 8.592946e-01 1.145375e+00 1.003158e+00 -5.193326e-01 -1.430902e-01 -7.134374e-01 1.247350e-01 1.647278e-01 1.887981e-01 -5.138711e-02
<VARIANCE> 39
 1.104143e+01 3.657446e+01 1.852805e+01 2.284901e+01 2.731726e+01 2.118709e+01 2.257705e+01 1.089971e+01 3.906458e+01 1.852541e+01 1.769450e+01 4.388359e+01 5.705097e-03 2.164132e+00 2.802731e+00 1.887587e+00 2.155501e+00 1.890033e+00 1.417745e+00 3.329873e+00 1.174204e+00 3.512345e+00 5.655666e+00 6.146976e+00 3.918226e+00 1.827210e-03 1.444978e-01 2.653900e-01 2.004334e-01 4.202110e-01 4.065935e-01 3.089131e-01 4.265299e-01 4.226679e-01 4.111897e-01 3.502909e-01 4.423447e-01 5.331826e-01 1.295018e-04
<GCONST> 8.722919e+01
<MIXTURE> 11 3.866745e-02
<MEAN> 39
 -3.306116e+00 -2.679673e+00 3.928870e+00 3.261323e+00 6.046259e+00 8.613105e+00 1.183815e+00 5.340560e+00 4.658067e+00 6.478216e-01 6.829131e+00 -1.177362e+00 -3.343387e-02 1.793656e-01 2.007629e-01 2.837973e-01 2.226645e-01 1.302925e-01 -7.494451e-02 5.009153e-01 -1.752075e-01 -4.304628e-01 -1.024427e-01 -5.285705e-01 9.328146e-04 -1.173549e-02 8.517067e-02 1.657432e-01 -1.218525e-03 -1.462700e-02 -2.673525e-01 -1.609431e-01 -6.169403e-02 -9.768008e-02 8.361978e-02 5.860099e-02 -7.930075e-02 1.029566e-01 1.506141e-02
<VARIANCE> 39
 5.090652e+00 2.430481e+01 4.231911e+01 1.747441e+01 2.149162e+01 1.205047e+01 1.239278e+01 2.311046e+01 2.135538e+01 3.512281e+01 1.419107e+01 1.287253e+01 5.398566e-03 3.212059e-01 3.518092e-01 7.953628e-01 1.108434e+00 1.952752e+00 1.625317e+00 9.326621e-01 2.558480e+00 1.507918e+00 2.017097e+00 2.034438e+00 1.841042e+00 1.281942e-04 1.094010e-01 1.826298e-01 1.999527e-01 2.070594e-01 4.512922e-01 3.577765e-01 3.324281e-01 5.628914e-01 3.636437e-01 5.061383e-01 3.605431e-01 4.511951e-01 3.181577e-04
<GCONST> 7.195251e+01
<MIXTURE> 12 4.416351e-02
<MEAN> 39
 -1.057752e+00 2.448590e+00 -2.361381e+00 -4.325567e+00 -3.982106e+00 -3.183036e+00 4.933730e+00 5.160754e+00 4.007857e+00 3.962021e+00 5.368575e+00 1.283745e+00 5.071409e-01 -1.654604e-01 1.413141e+00 -9.943154e-02 1.315509e+00 -5.498922e-01 -1.025105e+00 -8.743182e-01 1.286091e-01 -4.844404e-01 4.587171e-01 -3.844571e-01 -6.343664e-01 7.054270e-03 2.997860e-01 2.812381e-01 1.035229e-01 1.693387e-02 -2.359165e-01 2.473622e-01 -5.705696e-01 -2.746385e-01 2.347153e-02 2.161600e-01 -3.691015e-01 -2.934412e-02 2.390557e-02
<VARIANCE> 39
 1.307401e+01 4.581125e+01 2.905765e+01 1.800038e+01 3.139947e+01 7.265047e+01 6.364184e+01 6.029365e+01 6.811197e+01 1.379362e+02 7.148010e+01 7.744750e+01 2.127318e-02 1.181800e+00 5.072067e+00 2.848690e+00 1.990204e+00 2.312357e+00 6.513170e+00 6.119588e+00 6.559628e+00 9.159629e+00 9.923478e+00 8.682349e+00 1.179682e+01 3.390822e-03 2.943739e-01 6.905684e-01 4.485754e-01 4.245798e-01 5.781443e-01 1.187112e+00 1.230935e+00 1.428812e+00 1.969711e+00 2.534529e+00 1.761491e+00 2.028497e+00 4.269823e-04
<GCONST> 1.196755e+02
<MIXTURE> 13 4.774142e-02
<MEAN> 39
 1.332148e+00 6.541623e+00 4.822427e-01 -3.312708e+00 -7.964045e+00 -5.921111e+00 -4.694341e+00 -3.920346e+00 1.692608e+00 -1.905473e+00 5.314572e+00 9.956147e-02 7.154709e-01 2.638296e-01 1.288623e+00 7.781310e-02 1.195710e+00 -5.063061e-01 3.682440e-01 -1.184012e+00 -2.038769e-01 -9.554436e-01 3.713931e-01 4.007310e-01 -5.063797e-01 5.537798e-03 -9.075955e-03 1.305807e-01 -1.922381e-01 -1.293297e-01 3.720743e-01 3.364380e-01 2.087264e-01 3.971401e-01 -1.374695e-01 -3.652193e-02 -5.843702e-01 2.420509e-01 6.416142e-03
<VARIANCE> 39
 8.433908e+00 2.256170e+01 2.304229e+01 3.103632e+01 1.543119e+01 2.563881e+01 3.458200e+01 2.509778e+01 2.916251e+01 5.509568e+01 5.093873e+01 1.271005e+02 1.578871e-02 2.078384e-01 6.279200e-01 1.078297e+00 1.522478e+00 1.260026e+00 9.957662e-01 2.084049e+00 2.322930e+00 2.705452e+00 2.093611e+00 1.818883e+00 3.535437e+00 3.396920e-04 1.125741e-01 1.370170e-01 2.184727e-01 3.287731e-01 2.961239e-01 3.748021e-01 5.987920e-01 3.569100e-01 5.207946e-01 4.069187e-01 4.747845e-01 8.272963e-01 7.734564e-05
<GCONST> 8.162514e+01
<MIXTURE> 14 5.824195e-02
<MEAN> 39
 2.256092e+00 1.276349e+01 -5.423350e+00 -2.834526e+00 -2.562191e+00 -3.874815e+00 -1.275263e-01 2.563151e+00 -3.782096e+00 8.038008e-01 -6.492205e+00 4.132045e-01 7.275241e-01 4.888757e-01 1.139340e+00 2.528397e-01 5.545893e-01 -3.216502e-02 8.805172e-01 3.740127e-01 -8.980706e-02 6.831184e-02 7.021565e-01 8.933926e-02 1.720600e+00 -1.137136e-02 -1.238751e-01 -1.941876e-01 1.570016e-01 -1.591812e-01 -1.208946e-01 -1.939050e-01 -3.305987e-01 -2.545285e-01 4.857964e-02 -2.414853e-01 2.935205e-01 -1.164251e-01 8.363148e-03
<VARIANCE> 39
 1.164674e+01 1.897190e+01 1.037486e+01 2.040915e+01 1.302519e+01 1.279549e+01 1.854145e+01 2.966972e+01 3.682577e+01 2.163391e+01 2.157076e+01 3.304225e+01 4.894150e-03 8.524666e-01 7.503474e-01 8.936130e-01 2.025653e+00 1.313591e+00 1.718833e+00 2.260090e+00 1.601609e+00 2.700168e+00 3.273105e+00 4.624202e+00 3.433554e+00 6.291185e-04 8.971542e-02 1.241524e-01 1.461636e-01 2.380202e-01 2.520210e-01 5.028030e-01 3.459938e-01 3.082647e-01 3.616553e-01 4.866300e-01 3.910185e-01 4.283877e-01 5.363762e-05
<GCONST> 7.608971e+01
<MIXTURE> 15 1.942350e-02
<MEAN> 39
 -7.243831e-01 9.800611e+00 7.314958e-02 -2.713505e+00 3.202211e-01 -1.096355e+01 1.064899e+01 2.402578e+00 6.865402e+00 1.640290e+00 1.220473e+00 1.341908e+00 6.718112e-01 -9.077725e-01 3.370638e+00 -1.806940e+00 2.692371e+00 8.206230e-01 -1.446025e+00 -1.311141e+00 -5.169010e-01 -1.487806e+00 -8.234696e-01 6.670299e-01 1.671497e+00 -4.199838e-02 6.120315e-01 -1.355472e+00 -2.620315e-01 1.091158e+00 -1.043756e+00 9.331796e-01 -3.198601e-01 -9.647534e-02 -1.053871e+00 -5.751965e-01 -4.332892e-01 -3.350718e-01 5.667748e-03
<VARIANCE> 39
 5.449993e+00 2.590424e+01 1.889265e+01 2.192000e+01 1.680243e+01 2.571501e+01 1.168564e+01 2.185625e+01 4.026593e+01 2.514442e+01 6.725689e+01 7.961318e+01 1.256714e-02 7.016098e-01 4.039701e+00 1.868635e+00 3.106609e+00 2.018076e+00 4.077950e+00 3.092619e+00 2.245122e+00 3.434534e+00 2.703740e+00 2.899587e+00 2.581331e+00 7.445726e-04 1.044553e-01 2.465433e-01 4.085332e-01 6.973466e-01 2.771893e-01 4.095685e-01 3.195034e-01 5.343441e-01 1.017995e+00 2.682716e-01 4.143489e-01 5.798956e-01 8.601525e-05
<GCONST> 8.833563e+01
<MIXTURE> 16 5.580768e-02
<MEAN> 39
 1.984907e+00 1.105996e+01 -1.276768e+00 -2.939187e+00 -5.053657e+00 -5.332226e+00 -7.112830e+00 -2.916334e+00 -3.174682e+00 -2.635327e+00 5.988116e-01 -1.253480e+00 7.846815e-01 -6.341508e-02 6.991020e-01 -2.688037e-01 2.191466e-01 -3.461763e-01 -3.184735e-01 -2.171993e-01 1.501265e-01 -3.414980e-01 -1.072255e-01 -7.170527e-04 1.100865e-01 8.423628e-03 -1.583997e-01 1.276349e-01 1.460228e-02 5.126809e-02 9.750081e-02 -2.519038e-02 6.943534e-02 1.841714e-01 2.072820e-01 -1.223931e-02 3.148451e-02 6.408595e-02 4.176775e-03
<VARIANCE> 39
 7.903471e+00 2.541599e+01 1.836502e+01 3.626834e+01 1.706253e+01 1.852143e+01 2.283682e+01 2.253457e+01 2.947126e+01 2.294242e+01 4.761715e+01 3.221274e+01 1.424825e-02 3.855292e-01 7.751044e-01 9.396421e-01 7.664162e-01 1.314998e+00 9.289871e-01 1.186387e+00 9.417064e-01 1.575334e+00 1.116149e+00 6.670553e-01 1.097775e+00 2.264002e-04 3.007306e-02 6.259001e-02 8.605117e-02 3.209934e-01 2.143345e-01 1.332027e-01 2.601220e-01 1.780474e-01 1.681467e-01 2.141091e-01 1.679367e-01 2.349586e-01 2.720655e-05
<GCONST> 6.215414e+01
<MIXTURE> 17 5.111143e-02
<MEAN> 39
 2.663658e+00 1.294750e+01 -4.230536e+00 -2.951484e+00 -5.108078e+00 -3.397906e+00 -6.644245e-01 6.970206e-01 -1.149696e+00 -1.159262e+00 -7.634214e+00 -5.327499e+00 6.581578e-01 -2.853115e-01 5.488521e-01 -1.221752e-01 2.872773e-01 -9.527526e-01 -6.061664e-01 -1.039648e+00 -1.343667e+00 -1.288070e+00 -4.222327e-01 2.980947e-01 1.212706e+00 2.219755e-02 -2.832392e-01 -2.155604e-01 7.003170e-02 -2.628820e-02 1.399116e-01 -2.504227e-01 -2.161408e-03 -1.953567e-01 -1.030726e-01 -1.140100e-01 8.067039e-01 6.457701e-01 1.033387e-02
<VARIANCE> 39
 1.576404e+01 1.359688e+01 1.068701e+01 2.669227e+01 1.182085e+01 1.096763e+01 3.313936e+01 1.620926e+01 1.950838e+01 3.218382e+01 6.600272e+01 4.518784e+01 1.227254e-02 6.709750e-01 1.656813e+00 9.932534e-01 1.419953e+00 8.346145e-01 1.251175e+00 1.433686e+00 1.841272e+00 1.142410e+00 2.063415e+00 3.771703e+00 2.993761e+00 7.634637e-04 9.404957e-02 2.360147e-01 1.677083e-01 2.582391e-01 2.477338e-01 2.261803e-01 4.357616e-01 2.479115e-01 2.393248e-01 5.977936e-01 4.653798e-01 7.808703e-01 7.020230e-05
<GCONST> 7.688423e+01
<MIXTURE> 18 5.353404e-02
<MEAN> 39
 -2.887669e+00 1.367397e+01 2.288846e+00 -4.008389e+00 -2.624350e+00 -6.607140e+00 -8.968582e+00 -4.162064e-01 9.501336e-01 -4.973143e+00 2.996618e+00 1.329437e-01 8.142638e-01 -4.978260e-01 1.637377e+00 -1.007408e+00 1.661082e+00 -9.098004e-01 2.133177e-02 -1.249256e+00 -5.365723e-01 -3.939820e-01 -1.968960e+00 1.017668e+00 -1.178535e+00 7.201928e-03 2.430786e-01 -7.611489e-01 2.088516e-01 -9.400881e-02 -5.848618e-01 4.638820e-01 4.148113e-01 2.482142e-01 -3.358905e-01 6.787606e-01 -2.782482e-01 -2.923174e-01 3.212679e-03
<VARIANCE> 39
 6.712345e+00 2.296322e+01 1.627636e+01 2.234887e+01 1.373413e+01 2.417125e+01 1.643931e+01 2.410065e+01 3.488058e+01 1.814747e+01 1.686688e+01 2.269456e+01 7.762318e-03 4.712421e-01 9.671111e-01 6.517428e-01 1.476183e+00 1.331541e+00 1.728743e+00 1.648525e+00 2.211173e+00 2.548118e+00 2.309701e+00 1.864894e+00 1.984081e+00 1.823061e-04 5.547721e-02 2.292161e-01 1.466230e-01 2.942539e-01 1.816717e-01 2.764109e-01 2.624623e-01 2.868496e-01 3.880599e-01 1.540992e-01 3.630897e-01 3.516276e-01 2.060190e-05
<GCONST> 6.896054e+01
<MIXTURE> 19 4.244287e-02
<MEAN> 39
 1.476381e+00 1.097200e+01 3.167871e-01 -1.209685e+00 -5.330008e+00 -3.142535e+00 -7.903895e+00 2.560649e-01 -2.259114e+00 -2.695168e+00 5.845407e-01 -1.885617e+00 6.782298e-01 3.852777e-01 4.043114e+00 -4.050953e-01 -2.210588e+00 -2.259327e+00 -2.174131e+00 -2.953758e+00 -4.478634e-01 -1.561731e+00 -1.286230e+00 4.695940e-01 -2.193677e+00 1.885591e-01 -5.471747e-01 -1.268479e+00 -1.639480e-01 -1.607649e-02 3.415239e-01 4.018107e-01 8.523768e-01 1.228507e-01 5.192683e-01 8.379210e-02 8.908512e-02 1.085617e-01 -4.475401e-02
<VARIANCE> 39
 7.025391e+00 4.693496e+01 1.075665e+01 1.858041e+01 2.362215e+01 3.116998e+01 3.916056e+01 3.395889e+01 4.479139e+01 3.381306e+01 2.368435e+01 1.712260e+01 1.237858e-02 8.981220e-01 3.133221e+00 1.588378e+00 1.291550e+00 2.549324e+00 2.465495e+00 3.784499e+00 3.353903e+00 2.091330e+00 3.250235e+00 3.787661e+00 2.517499e+00 2.028872e-03 1.795317e-01 3.497064e-01 1.511617e-01 4.213184e-01 2.881291e-01 4.494489e-01 4.911157e-01 7.636130e-01 5.106504e-01 7.086798e-01 4.031708e-01 4.803237e-01 2.730299e-04
<GCONST> 9.019686e+01
<MIXTURE> 20 4.979095e-02
<MEAN> 39
 -2.103916e+00 7.451099e+00 -1.899423e+00 -1.223071e+01 -3.497591e+00 -7.982316e+00 -5.655647e+00 4.435713e+00 -2.864367e+00 -1.939019e+00 -8.167643e-01 -7.864334e+00 8.509001e-01 -2.289062e-01 1.540036e+00 -1.097438e+00 1.063645e+00 -8.176199e-01 -2.078467e+00 2.910829e-01 -7.579904e-01 -1.775806e+00 5.386453e-01 -1.435851e+00 -9.090605e-03 -1.408004e-02 2.078804e-01 -2.136627e-01 3.640316e-01 5.675587e-01 -1.516712e-01 9.898044e-01 1.767214e-01 -3.494214e-01 1.413151e-01 -1.308103e-01 -2.486844e-01 8.692074e-01 -8.957507e-04
<VARIANCE> 39
 8.862076e+00 1.989639e+01 2.479960e+01 1.738688e+01 2.220821e+01 4.060438e+01 3.671053e+01 2.789194e+01 4.421271e+01 5.656261e+01 4.189510e+01 3.472612e+01 3.233683e-03 4.501946e-01 5.806493e-01 1.547185e+00 9.743722e-01 2.260512e+00 3.375150e+00 2.287414e+00 1.791785e+00 3.615322e+00 5.135225e+00 4.171574e+00 3.314343e+00 2.231275e-04 4.128686e-02 1.755419e-01 1.902714e-01 2.962859e-01 4.964418e-01 5.406668e-01 3.599117e-01 3.013531e-01 7.383189e-01 8.107771e-01 6.589122e-01 4.302860e-01 1.362027e-05
<GCONST> 8.135925e+01
<MIXTURE> 21 4.201960e-02
<MEAN> 39
 1.271661e+00 9.182573e+00 9.501253e-01 -3.330873e-02 -2.247244e+00 -2.402367e-01 -1.371795e+00 3.588003e+00 4.450079e-01 2.487222e-01 -2.253135e-01 1.361902e+00 6.959933e-01 1.374687e-01 6.474624e-01 -2.395895e-01 -1.929221e-01 -4.516458e-01 -1.213015e+00 -2.597402e-01 -2.191083e-01 1.595184e-01 -1.429842e-01 -1.276425e+00 4.923012e-03 2.505565e-02 -1.385978e-01 -3.365072e-02 -3.335474e-01 -1.494535e-01 -1.350551e-01 -4.127319e-01 -2.025608e-01 -4.518591e-01 -3.380262e-01 -3.720833e-02 -1.701300e-01 -2.397413e-01 1.105731e-02
<VARIANCE> 39
 1.581770e+01 8.824911e+00 3.032133e+01 1.474596e+01 1.550722e+01 2.280932e+01 4.418669e+01 2.437500e+01 2.728057e+01 1.386694e+01 1.377662e+01 2.027834e+01 1.285105e-02 4.034888e-01 7.715288e-01 7.544675e-01 6.302713e-01 8.092113e-01 1.990806e+00 3.939065e+00 1.222760e+00 2.032441e+00 1.112446e+00 2.508030e+00 1.402896e+00 5.862964e-04 8.243218e-02 1.510249e-01 1.311183e-01 1.283045e-01 2.272218e-01 4.341888e-01 3.606966e-01 2.022357e-01 3.602460e-01 2.551661e-01 4.496973e-01 2.395529e-01 7.882026e-05
<GCONST> 7.008523e+01
<MIXTURE> 22 3.413981e-02
<MEAN> 39
 2.508826e+00 1.134242e+01 -2.048845e+00 -1.562818e+00 -4.628080e+00 -4.811966e+00 1.155813e-01 3.331417e+00 6.312875e-01 6.947271e+00 1.648435e+00 8.594646e+00 7.312274e-01 4.871475e-01 2.536857e+00 -2.070456e+00 -2.211109e+00 -2.863664e+00 -3.696033e+00 -1.481814e+00 -2.132312e+00 -2.208984e+00 -1.068790e+00 -1.910398e+00 9.023985e-01 1.917717e-01 -6.760108e-01 -1.069343e+00 4.797367e-01 5.700678e-01 7.421427e-01 9.475086e-01 1.027766e-01 9.394253e-04 -1.123106e-01 -6.004301e-01 -2.501369e-01 -9.229309e-01 -4.872181e-02
<VARIANCE> 39
 2.117071e+01 5.689404e+01 2.243213e+01 2.287301e+01 1.591357e+01 2.423926e+01 2.312435e+01 3.728363e+01 2.139892e+01 1.666912e+01 3.568011e+01 2.119733e+01 9.349830e-03 1.872552e+00 3.430325e+00 1.645465e+00 1.441721e+00 1.298941e+00 1.061486e+00 2.041739e+00 1.913505e+00 1.129051e+00 2.352674e+00 3.416252e+00 6.786936e+00 2.053157e-03 2.775040e-01 4.177749e-01 2.435229e-01 4.371632e-01 5.424498e-01 2.913907e-01 3.825437e-01 6.211979e-01 4.879752e-01 3.691480e-01 7.352351e-01 3.876979e-01 2.310044e-04
<GCONST> 8.888020e+01
<MIXTURE> 23 4.691626e-02
<MEAN> 39
 -1.618198e+00 1.125386e+01 -2.572561e+00 -7.210363e+00 -2.280688e+00 -1.150755e+01 4.205167e+00 -5.419812e-01 2.380971e+00 1.742907e+00 -1.219461e+00 -3.333547e-01 7.919818e-01 -4.417774e-01 2.067062e+00 -1.426262e+00 2.519724e+00 -1.743075e+00 -6.775751e-01 -9.791737e-01 -2.306863e+00 -1.217472e+00 -1.194293e+00 -3.571137e-01 1.121653e+00 -5.802034e-03 2.702065e-01 -9.681876e-01 3.606742e-01 4.291907e-01 -3.797916e-01 1.311374e+00 -4.270498e-01 6.121789e-02 -3.558972e-01 -4.026694e-01 -1.978449e-01 -1.508025e-01 3.399762e-03
<VARIANCE> 39
 7.160980e+00 2.897261e+01 1.070498e+01 2.494330e+01 2.011329e+01 2.032651e+01 2.200502e+01 4.068870e+01 2.311010e+01 3.637033e+01 3.391395e+01 1.916626e+01 7.828768e-03 7.724977e-01 1.671571e+00 9.978524e-01 1.476902e+00 2.656028e+00 4.257738e+00 2.758810e+00 1.929502e+00 5.209121e+00 4.522657e+00 3.207178e+00 3.869340e+00 3.165862e-04 1.194895e-01 1.869467e-01 1.619396e-01 6.260277e-01 6.371430e-01 3.919341e-01 4.326221e-01 6.495011e-01 4.293319e-01 9.272690e-01 8.011551e-01 3.630216e-01 2.969399e-05
<GCONST> 8.480441e+01
<MIXTURE> 24 2.855297e-02
<MEAN> 39
 -3.204706e+00 1.932619e-01 1.989076e+00 7.500761e+00 3.473351e+00 5.281943e+00 2.946723e+00 4.652647e+00 3.185426e+00 5.079457e+00 2.795755e+00 2.436353e+00 1.259180e-01 1.446060e+00 4.382329e+00 -6.473413e-01 -1.157867e+00 -2.852019e+00 -2.334743e+00 -1.647716e+00 -5.754179e-01 -1.134271e+00 -6.704369e-01 -9.909966e-01 1.810457e-01 1.707501e-01 3.968860e-01 5.400510e-01 -3.299883e-01 -1.024793e+00 -7.419657e-01 -6.359406e-01 -3.316410e-01 -2.544465e-01 -3.771969e-01 -4.475535e-01 -2.958425e-01 -6.361167e-02 3.945243e-02
<VARIANCE> 39
 2.139810e+01 7.436782e+01 4.631738e+01 1.681349e+01 2.307237e+01 3.442529e+01 2.359307e+01 3.560518e+01 2.292930e+01 2.091097e+01 1.385836e+01 2.606908e+01 3.846050e-02 1.279594e+00 4.305967e+00 4.798232e+00 2.837068e+00 3.150899e+00 2.471374e+00 5.737772e+00 2.980231e+00 2.990204e+00 2.931303e+00 5.007370e+00 3.944503e+00 3.620493e-03 3.533481e-01 8.536001e-01 7.726045e-01 2.458690e-01 5.650509e-01 6.756443e-01 4.044927e-01 9.354646e-01 6.573877e-01 4.743795e-01 3.139657e-01 8.674154e-01 5.528301e-04
<GCONST> 1.019036e+02
<MIXTURE> 25 3.218127e-02
<MEAN> 39
 -9.610065e-01 8.164217e+00 4.742968e+00 -1.131268e+01 3.303193e-02 -8.747768e+00 -3.007489e+00 4.600359e+00 1.465407e+00 1.572103e+00 8.931190e-01 -2.754853e-01 8.326923e-01 -1.037286e+00 4.122017e+00 -1.381394e+00 7.911766e-01 1.064535e+00 -3.549111e+00 -1.218743e+00 -3.568881e-01 -6.133672e-01 -1.469795e+00 1.591347e+00 2.588478e-02 -1.507035e-03 3.158988e-01 -6.318029e-01 -6.822251e-01 1.568780e+00 -1.051038e+00 5.042973e-01 7.492208e-01 -5.635538e-01 -7.816221e-01 -2.735952e-01 -2.162272e-01 -2.912393e-01 9.447695e-04
<VARIANCE> 39
 1.658944e+01 2.595397e+01 1.542183e+01 9.521295e+00 1.748571e+01 2.611236e+01 3.393629e+01 2.323464e+01 3.378486e+01 1.988281e+01 3.240742e+01 3.045962e+01 5.293915e-03 3.540679e-01 1.177056e+00 8.049704e-01 2.535259e+00 1.487499e+00 2.123589e+00 3.060873e+00 3.207569e+00 2.602890e+00 5.009295e+00 2.675661e+00 3.019334e+00 1.230043e-04 9.749928e-02 1.751427e-01 2.153660e-01 3.599198e-01 3.162074e-01 4.999303e-01 2.898527e-01 4.951969e-01 8.727491e-01 2.871296e-01 4.710968e-01 3.968314e-01 1.794330e-05
<GCONST> 7.821304e+01
<STATE> 3
<NUMMIXES> 25
<MIXTURE> 1 3.599425e-02
<MEAN> 39
 -9.472446e-01 1.045551e+01 -5.579926e+00 -3.161092e+00 -5.916220e+00 -5.502554e+00 2.276629e+00 -1.125320e+00 1.275915e+00 -1.222278e+00 -1.110651e+00 4.754340e+00 7.977138e-01 -2.011654e+00 -2.975486e-01 -6.756831e-01 -4.000283e-01 -7.952682e-01 -7.633166e-01 -1.690360e+00 -1.722994e+00 -7.254652e-03 1.675477e+00 4.041993e+00 4.458771e+00 5.804296e-02 9.083618e-02 -4.174741e-01 5.905805e-01 3.834665e-01 5.275040e-01 6.377549e-01 1.801340e-01 4.595766e-01 1.785484e-01 4.452371e-01 2.181690e-01 -2.118505e-01 -2.730385e-02
<VARIANCE> 39
 2.042369e+01 2.489669e+01 2.644774e+01 1.763681e+01 2.411759e+01 1.947431e+01 1.463561e+01 1.315017e+01 6.178597e+01 7.608601e+01 5.469387e+01 9.851586e+01 7.846525e-03 3.603733e-01 7.647724e-01 9.965191e-01 1.044228e+00 1.152997e+00 1.863702e+00 1.046161e+00 1.707117e+00 3.872484e+00 5.868378e+00 1.613686e+00 3.037368e+00 5.426741e-04 1.772778e-01 3.824450e-01 4.021621e-01 2.554508e-01 3.809314e-01 4.609456e-01 4.316648e-01 2.000562e-01 3.815459e-01 1.065178e+00 8.695664e-01 9.085637e-01 5.051070e-04
<GCONST> 8.707292e+01
<MIXTURE> 2 4.333723e-02
<MEAN> 39
 4.557460e+00 1.504661e+01 -4.563100e+00 1.204850e+00 -3.981256e+00 -3.687083e+00 2.243661e+00 1.634179e+00 1.373487e+00 5.745256e+00 3.348813e+00 8.460047e+00 7.280722e-01 -8.644986e-03 4.989353e-01 8.431707e-02 3.864767e-02 -2.311302e-01 5.242085e-01 -1.822915e-01 2.298177e-01 -9.604321e-03 -7.526460e-02 -3.197008e-02 7.633430e-01 4.812185e-03 -3.151141e-01 -3.456425e-01 -2.378445e-01 -2.977958e-01 -1.826683e-01 -3.977840e-01 -3.582748e-01 -3.089803e-01 -2.015637e-01 -7.520050e-01 -8.635005e-01 -7.544295e-01 8.960166e-03
<VARIANCE> 39
 5.928176e+00 1.001783e+01 1.732360e+01 2.452961e+01 1.116393e+01 9.626881e+00 2.294180e+01 2.069998e+01 2.130311e+01 3.017352e+01 1.457334e+01 2.292792e+01 1.285394e-02 4.492106e-01 5.471843e-01 1.002853e+00 1.847689e+00 1.001912e+00 9.176856e-01 9.544225e-01 2.884143e+00 1.515996e+00 1.777458e+00 1.858301e+00 3.872166e+00 4.209069e-04 1.004954e-01 9.732197e-02 1.490075e-01 2.163237e-01 2.021590e-01 1.617054e-01 2.415283e-01 2.736086e-01 2.196011e-01 3.233280e-01 1.726083e-01 2.601166e-01 6.665164e-05
<GCONST> 6.634658e+01
<MIXTURE> 3 6.717674e-03
<MEAN> 39
 1.137170e-01 1.501488e+01 -6.488404e+00 -2.360057e+00 -2.353915e+00 -3.825611e+00 -8.608130e+00 4.313609e+00 -3.977086e+00 1.269171e+00 2.516164e+00 -3.688771e+00 8.350058e-01 -8.830090e-01 6.803012e-01 2.155354e-01 4.376625e-01 7.301375e-01 4.901309e-01 1.105444e+00 1.992441e+00 1.800626e-01 6.046277e-01 9.081358e-01 1.502245e-01 3.329663e-02 8.708113e-02 -4.712539e-01 8.136906e-01 5.277623e-01 -1.624984e-01 1.376795e-02 6.435420e-01 -3.275448e-01 1.351990e-01 9.070741e-02 1.439659e-01 8.237198e-01 -8.816435e-03
<VARIANCE> 39
 4.205239e+00 1.021691e+01 5.242551e+00 1.074280e+01 1.269285e+01 4.228434e+00 8.371110e+00 4.604927e+01 7.036322e+00 1.395850e+01 1.136453e+01 1.006595e+01 8.178990e-04 3.201849e-01 2.135896e-01 1.418934e+00 1.099694e+00 1.169937e+00 9.449123e-01 1.607265e+00 7.751959e-01 1.361904e+00 1.018178e+00 1.830653e+00 1.751754e-01 7.752343e-05 1.078276e-02 9.867834e-02 1.170733e-01 9.078658e-02 2.683630e-01 6.699543e-02 2.131557e-01 3.652906e-01 6.318276e-02 3.283643e-01 1.375724e-01 1.973239e-01 2.508557e-05
<GCONST> 4.339497e+01
<MIXTURE> 4 3.144034e-02
<MEAN> 39
 -3.583111e-01 1.777275e+01 1.247860e+00 1.378209e+00 -6.788505e+00 9.740976e-01 -1.409917e+01 3.903799e+00 -3.092427e+00 -4.948576e+00 5.438090e+00 -5.122619e+00 7.767316e-01 -3.652185e-01 7.672266e-01 1.169149e-01 -9.544612e-01 -1.970047e-01 3.815897e-01 -3.437241e-01 9.261041e-01 6.989720e-02 -1.018618e+00 2.100041e-01 -4.042654e-01 9.567743e-03 1.290641e-01 -3.539360e-01 2.139772e-01 -1.742798e-01 2.381507e-01 -3.724608e-01 3.131334e-01 -2.035460e-01 2.211354e-01 2.117267e-01 -3.557175e-03 1.815494e-01 1.399777e-03
<VARIANCE> 39
 6.386510e+00 1.577553e+01 6.345167e+00 1.794903e+01 6.138984e+00 6.365766e+00 2.754259e+01 7.429730e+00 1.676210e+01 1.486521e+01 9.415688e+00 9.728804e+00 1.663139e-03 1.241897e+00 1.564133e+00 1.304566e+00 1.373262e+00 4.910605e-01 5.965440e-01 1.841066e+00 2.126460e+00 7.886950e-01 7.166388e-01 6.073529e-01 4.420894e-01 1.817654e-04 1.663441e-01 1.380453e-01 2.093128e-01 3.431686e-01 6.032262e-02 2.212567e-01 2.264992e-01 3.811752e-01 2.411324e-01 2.214530e-01 1.429651e-01 1.132522e-01 1.344345e-05
<GCONST> 5.309071e+01
<MIXTURE> 5 3.552372e-02
<MEAN> 39
 3.690884e+00 1.614547e+01 -2.768503e+00 -1.520107e+00 -5.933742e+00 -5.111276e+00 -7.076003e-01 4.732087e+00 -2.052857e+00 3.482759e+00 -3.729445e+00 7.635512e+00 7.482667e-01 -5.418049e-01 2.943492e-01 -6.482633e-01 -3.144847e-01 -5.853638e-01 -4.302527e-01 -6.613177e-01 -9.047381e-01 -1.614340e+00 -1.325784e+00 -1.219738e+00 -2.596102e-01 5.696448e-02 -4.797961e-01 -1.091552e+00 -3.415463e-02 1.772534e-01 3.688538e-01 1.606187e-01 -1.266759e-01 -3.260244e-01 3.024747e-01 -1.337489e-01 5.321623e-01 -3.876463e-01 -2.311770e-02
<VARIANCE> 39
 1.122444e+01 2.653395e+01 9.618382e+00 2.241215e+01 8.886327e+00 2.383562e+01 2.223461e+01 5.628064e+01 2.942236e+01 2.064884e+01 1.769750e+01 2.430040e+01 8.778617e-03 8.508186e-01 1.350203e+00 1.009168e+00 5.824096e-01 9.772746e-01 9.958042e-01 1.302361e+00 1.770698e+00 6.119160e-01 5.885484e-01 2.106992e+00 1.080985e+00 2.425103e-04 8.837648e-02 4.967355e-01 1.081171e-01 1.278553e-01 2.610599e-01 3.148127e-01 2.608945e-01 7.819108e-01 2.270916e-01 1.927176e-01 3.691237e-01 5.066009e-01 2.791061e-04
<GCONST> 7.038043e+01
<MIXTURE> 6 4.553505e-02
<MEAN> 39
 2.544866e+00 1.166271e+01 -2.324131e+00 -5.014534e+00 -9.062404e+00 -7.387629e+00 -1.057850e+01 -1.881506e+00 -3.674837e+00 -3.704185e+00 -6.179262e-01 -6.634543e+00 6.698940e-01 -4.285727e-01 2.045869e+00 -2.073399e-01 -6.616112e-02 -1.193552e-01 8.204353e-02 -7.041139e-01 1.193317e+00 3.429444e-03 6.487741e-02 3.645251e-01 -1.626788e+00 5.517730e-02 -5.496484e-01 -5.486963e-01 3.607973e-01 4.435043e-01 5.025368e-01 8.486331e-01 6.661268e-01 3.886714e-01 6.134498e-01 3.479907e-01 4.146922e-01 9.339178e-01 -2.084698e-02
<VARIANCE> 39
 1.571979e+01 3.634723e+01 1.142239e+01 2.605890e+01 2.481420e+01 1.768754e+01 4.021908e+01 3.417751e+01 1.950810e+01 4.745808e+01 1.297552e+01 3.400193e+01 1.909103e-02 1.226560e+00 2.608222e+00 1.810043e+00 2.764847e+00 1.931920e+00 2.483659e+00 4.144876e+00 2.537830e+00 3.029764e+00 1.647303e+00 3.499720e+00 3.316345e+00 3.679013e-03 2.195348e-01 4.356584e-01 1.846686e-01 4.481490e-01 3.393441e-01 3.920729e-01 7.260972e-01 4.759337e-01 4.403244e-01 4.197778e-01 3.880574e-01 4.884641e-01 5.625057e-04
<GCONST> 9.238870e+01
<MIXTURE> 7 6.725555e-02
<MEAN> 39
 -2.494566e+00 1.455571e+01 1.755727e+00 -4.297087e+00 -2.544732e+00 -6.877682e+00 -7.111341e+00 -1.243842e+00 5.141250e-01 -3.861660e+00 4.207615e+00 2.329477e-01 8.536220e-01 -1.082041e-01 9.105858e-01 -5.488465e-01 9.730626e-01 -7.980077e-01 2.507655e-01 -1.142594e-01 -3.333666e-01 -2.646390e-01 -7.936608e-01 6.619662e-01 -1.080742e+00 3.639635e-03 1.301716e-01 -3.267354e-01 1.782306e-01 -2.127340e-01 -9.893858e-02 2.687545e-01 -1.832655e-02 3.158855e-01 -3.834550e-02 2.872538e-01 -1.729856e-01 8.757962e-03 4.414699e-04
<VARIANCE> 39
 1.176699e+01 2.298771e+01 8.944498e+00 1.180622e+01 1.222434e+01 1.651286e+01 1.962990e+01 1.805105e+01 2.006587e+01 3.416375e+01 2.494477e+01 2.163904e+01 5.057341e-03 2.310214e-01 3.889420e-01 4.138982e-01 6.239977e-01 5.508966e-01 9.436366e-01 8.619762e-01 8.005125e-01 9.126715e-01 7.110319e-01 9.321408e-01 6.941624e-01 1.167602e-04 3.396077e-02 7.800124e-02 6.807386e-02 9.791801e-02 8.813176e-02 1.560729e-01 1.869479e-01 1.293436e-01 1.635428e-01 2.524318e-01 1.372368e-01 1.796005e-01 6.257152e-06
<GCONST> 4.811261e+01
<MIXTURE> 8 3.622277e-02
<MEAN> 39
 8.512746e-01 1.538382e+01 -1.753752e-01 -2.553957e+00 -6.163935e+00 -8.157283e+00 -9.496382e+00 7.698569e+00 -8.032760e+00 5.222567e+00 -2.859147e+00 1.049074e+00 7.854068e-01 -2.555541e-01 5.212827e-01 4.221514e-02 1.593532e-01 -1.444537e-01 -1.777216e-01 -5.145846e-01 -3.419956e-01 5.716256e-01 7.599217e-01 -6.778927e-01 -5.969110e-01 1.255813e-02 -4.045721e-02 -9.746190e-02 -7.683910e-02 4.237315e-02 5.699144e-02 8.616476e-02 1.481729e-01 -1.437867e-01 1.359087e-01 -6.002473e-02 2.683062e-01 1.593508e-02 -5.519596e-05
<VARIANCE> 39
 2.043733e+00 1.833605e+01 4.562460e+00 7.920666e+00 1.110717e+01 1.074212e+01 2.073597e+01 1.070027e+01 1.485710e+01 1.847021e+01 1.561543e+01 1.020671e+01 1.807559e-03 1.184900e-01 1.543645e-01 7.704970e-01 3.092867e-01 4.611337e-01 1.145644e+00 9.992280e-01 7.172737e-01 1.275013e+00 1.076829e+00 8.251986e-01 5.181193e-01 4.521256e-05 5.004934e-02 4.266967e-02 1.193618e-01 7.231588e-02 1.182131e-01 1.117444e-01 2.595063e-01 1.363492e-01 2.056216e-01 1.384855e-01 6.875452e-02 2.697593e-01 8.445028e-06
<GCONST> 3.870096e+01
<MIXTURE> 9 3.940657e-02
<MEAN> 39
 3.496594e-01 4.481123e+00 3.919206e-01 -2.670606e+00 -1.950307e+00 -9.622432e-01 4.066420e+00 4.196387e+00 1.942953e+00 9.965461e-01 -7.288290e-01 -1.570269e-01 8.409361e-01 -1.161848e+00 -2.454243e-01 -5.691103e-01 -4.018489e-01 -3.034768e-01 -9.061661e-01 -1.382342e+00 -1.151476e+00 -1.697131e+00 -1.255511e+00 -1.169460e+00 -2.753298e-01 5.075778e-02 -1.046055e-01 -5.381839e-01 2.947077e-02 1.673901e-01 1.548859e-01 4.020927e-02 -2.133973e-01 -1.644052e-01 1.677235e-01 2.918308e-01 3.724295e-01 7.279741e-02 -1.724181e-02
<VARIANCE> 39
 8.593835e+00 4.798604e+00 1.061660e+01 8.898289e+00 1.001987e+01 1.580493e+01 8.421484e+00 1.042862e+01 1.324651e+01 1.982204e+01 1.218885e+01 1.305330e+01 5.758861e-03 7.829809e-01 4.847098e-01 5.049124e-01 5.458033e-01 8.266495e-01 1.062409e+00 1.231196e+00 1.316633e+00 1.869417e+00 1.369594e+00 1.291727e+00 1.311652e+00 4.338366e-04 1.759980e-01 2.057081e-01 1.066644e-01 9.279200e-02 1.737443e-01 1.447503e-01 1.735704e-01 1.170686e-01 2.543260e-01 2.547671e-01 1.594165e-01 2.420037e-01 1.540672e-04
<GCONST> 5.650539e+01
<MIXTURE> 10 3.930521e-02
<MEAN> 39
 2.152892e+00 1.364517e+01 -4.361814e+00 4.442636e-01 -3.903509e+00 -2.581379e+00 1.744327e+00 -2.712003e+00 -8.072929e-01 -2.169489e+00 -5.435296e+00 4.072122e+00 7.549608e-01 -9.280125e-01 -1.325340e-01 -2.480867e-01 1.573802e-01 -8.162856e-01 -9.588397e-01 -1.061625e+00 -8.671002e-01 -8.359928e-01 -5.442584e-01 -3.175179e-02 5.820214e-01 3.179539e-02 -6.357346e-02 -1.685759e-01 -1.573391e-01 -2.378873e-01 -2.610475e-01 -3.180344e-01 -3.065536e-01 -1.694565e-01 -2.992437e-01 -1.824715e-02 5.440310e-02 -1.115274e-01 -1.017578e-03
<VARIANCE> 39
 1.616399e+01 1.129946e+01 1.367155e+01 1.062306e+01 5.404481e+00 8.009781e+00 8.796602e+00 1.882330e+01 1.281500e+01 2.519017e+01 2.477061e+01 8.835569e+00 7.498879e-03 3.151371e-01 3.835853e-01 4.970854e-01 7.223652e-01 1.027862e+00 8.498545e-01 1.268011e+00 1.098343e+00 1.165842e+00 1.074808e+00 2.777804e+00 2.192340e+00 2.932209e-04 4.487122e-02 3.870902e-02 8.812471e-02 1.563201e-01 1.168730e-01 2.448763e-01 1.833766e-01 2.540420e-01 2.203302e-01 1.985262e-01 3.600240e-01 2.098905e-01 1.599857e-05
<GCONST> 5.395362e+01
<MIXTURE> 11 4.004252e-02
<MEAN> 39
 7.205492e-01 1.026918e+01 6.288561e-01 -3.814402e+00 -4.644306e+00 -2.833682e+00 -6.209781e+00 -3.080907e-01 -5.748469e-01 -2.693600e+00 3.588037e+00 -2.794239e+00 8.005456e-01 -1.030651e+00 1.463416e+00 -6.287816e-01 -7.123876e-01 -1.917453e-02 1.973972e-01 -7.909738e-01 4.051611e-01 3.203634e-01 -2.436972e-01 1.140096e+00 -2.645458e-01 5.801108e-02 -3.091319e-01 -1.070506e+00 4.676785e-02 5.480219e-01 3.461399e-01 3.131667e-01 6.106203e-01 4.727286e-02 1.890444e-01 2.646015e-01 -3.591744e-01 4.869717e-01 -3.783051e-02
<VARIANCE> 39
 1.084318e+01 6.286546e+01 1.695891e+01 1.770073e+01 1.625228e+01 3.286781e+01 1.822578e+01 1.746299e+01 7.696737e+00 1.526266e+01 1.491074e+01 1.482851e+01 9.256357e-03 6.391835e-01 2.614140e+00 1.814736e+00 1.870817e+00 2.143232e+00 1.848318e+00 1.258824e+00 2.147225e+00 1.746556e+00 1.179664e+00 1.047356e+00 8.526098e-01 2.128721e-04 1.880005e-01 3.896081e-01 2.368181e-01 2.795316e-01 3.511946e-01 3.462305e-01 4.452576e-01 2.606966e-01 1.938909e-01 2.437858e-01 1.899959e-01 2.045121e-01 2.771393e-04
<GCONST> 7.361330e+01
<MIXTURE> 12 6.353939e-02
<MEAN> 39
 1.500322e-02 8.869726e+00 -4.060302e+00 -3.720927e+00 -4.998231e+00 -2.920131e+00 1.422058e+00 1.817937e+00 -3.298234e-01 2.349527e+00 5.483583e-02 4.013831e+00 8.024307e-01 -1.244693e+00 -2.199684e-02 -6.588945e-01 1.123608e-04 -2.433758e-01 -8.139705e-01 -1.324318e+00 -1.416919e+00 -1.785518e+00 -1.269960e+00 -9.028480e-01 3.143113e-01 6.793860e-02 -2.579195e-01 -8.549419e-01 7.517478e-01 9.215493e-01 8.520395e-01 8.127773e-01 -3.496248e-02 2.315126e-01 3.305488e-01 1.860681e-01 2.653654e-01 -1.840935e-01 -4.344185e-02
<VARIANCE> 39
 1.547538e+01 3.233340e+01 1.801043e+01 1.398025e+01 1.775011e+01 1.324430e+01 3.148171e+01 2.609974e+01 2.448752e+01 3.422219e+01 3.896930e+01 3.962709e+01 7.883550e-03 7.265797e-01 7.282710e-01 7.840692e-01 1.006375e+00 1.206790e+00 1.174591e+00 1.967160e+00 2.294246e+00 2.082359e+00 2.324204e+00 3.060135e+00 3.760632e+00 6.963193e-04 1.787083e-01 2.180775e-01 2.250791e-01 1.749609e-01 2.673066e-01 4.157678e-01 5.477358e-01 3.287441e-01 3.217642e-01 5.201756e-01 4.194584e-01 6.027687e-01 2.433093e-04
<GCONST> 8.068098e+01
<MIXTURE> 13 4.666334e-02
<MEAN> 39
 -6.216098e-01 1.291203e+01 -4.032998e+00 -5.806356e+00 -7.186885e+00 -6.737307e+00 -2.202904e+00 5.387769e-01 -6.659727e+00 -3.929028e+00 -4.132071e+00 2.172627e+00 8.069417e-01 1.608152e-01 9.145984e-01 3.606153e-01 1.797221e+00 4.985239e-02 3.949779e-01 -6.017461e-01 -3.561521e-01 -6.846786e-01 -3.219023e-01 -6.290410e-01 1.342746e+00 1.040167e-02 4.414879e-02 3.075511e-02 2.007336e-01 1.360779e-01 3.834333e-01 7.737295e-02 -4.982753e-02 3.051178e-01 8.096837e-01 5.022966e-01 1.626123e-01 -3.986395e-01 2.521102e-03
<VARIANCE> 39
 5.383892e+00 1.481882e+01 2.554668e+01 2.415071e+01 2.077933e+01 1.611426e+01 1.758161e+01 3.400364e+01 2.462857e+01 1.653828e+01 2.140538e+01 3.271169e+01 7.352090e-03 3.785410e-01 8.329937e-01 7.554919e-01 9.067316e-01 9.621843e-01 1.891771e+00 1.662540e+00 1.729185e+00 3.693215e+00 4.008759e+00 1.987618e+00 2.535193e+00 3.015799e-04 2.981334e-02 1.400989e-01 1.630333e-01 1.916928e-01 3.251111e-01 3.163885e-01 2.280782e-01 2.325324e-01 4.178453e-01 3.021861e-01 2.332956e-01 2.600722e-01 2.906109e-05
<GCONST> 6.919197e+01
<MIXTURE> 14 3.121868e-02
<MEAN> 39
 1.262865e+00 1.319502e+01 2.111567e+00 7.027110e-01 -4.360248e+00 -8.054484e+00 -1.172631e+01 -1.256143e+00 2.564997e+00 1.974447e+00 2.669770e+00 -4.995975e+00 8.298178e-01 -1.165216e-01 1.208638e+00 1.074586e-01 2.660718e-01 7.996620e-02 -2.149296e-01 9.605557e-02 2.053619e-01 -4.203523e-01 1.555893e-01 1.718424e-01 5.157036e-01 1.422475e-03 -3.286315e-02 -4.335635e-02 -1.994786e-01 -3.154305e-01 2.962527e-02 1.487076e-01 3.433817e-01 -2.543718e-01 -1.025958e-01 -3.967442e-01 -8.070659e-02 1.800786e-01 8.486793e-04
<VARIANCE> 39
 9.075233e+00 3.224052e+01 6.362836e+01 2.008868e+01 1.756405e+01 1.453424e+01 1.318380e+01 3.569974e+01 1.886282e+01 2.134986e+01 4.400304e+01 1.312828e+01 3.501939e-03 2.431517e-01 5.531247e-01 7.257764e-01 1.036644e+00 3.916701e-01 8.813055e-01 3.187894e+00 8.868536e-01 1.211499e+00 1.475389e+00 7.486549e-01 5.998967e-01 6.352739e-05 1.803546e-02 6.859811e-02 7.971194e-02 1.107321e-01 1.336175e-01 1.323342e-01 1.747609e-01 2.257495e-01 1.587302e-01 1.773177e-01 8.624614e-02 2.109735e-01 3.730629e-06
<GCONST> 5.194100e+01
<MIXTURE> 15 4.335362e-02
<MEAN> 39
 -4.208824e+00 9.953820e+00 -5.120223e+00 -3.206679e+00 -9.878218e+00 -9.155694e+00 -3.433315e+00 -5.873400e+00 -5.703195e+00 -6.665040e+00 -5.129022e+00 -1.078809e+00 8.078127e-01 -3.115583e-02 1.404600e-01 -4.058468e-01 9.635788e-01 -1.251221e+00 7.713133e-01 -1.479291e+00 -4.867281e-01 -1.397916e+00 -5.547820e-01 -6.323927e-01 3.002261e-01 4.831940e-03 3.037589e-01 -1.813834e-01 5.448235e-01 -3.288793e-01 6.260736e-01 2.715048e-01 4.387455e-01 6.582956e-01 5.226743e-01 6.753063e-01 3.106381e-01 2.174683e-01 4.183044e-03
<VARIANCE> 39
 8.890374e+00 2.978510e+01 1.184372e+01 2.882825e+01 1.783055e+01 3.836734e+01 4.405894e+01 1.896312e+01 3.645060e+01 1.572897e+01 1.815131e+01 3.994316e+01 8.157052e-03 2.867801e-01 5.002412e-01 7.158120e-01 1.411231e+00 1.339546e+00 1.637766e+00 1.929074e+00 2.689240e+00 1.209711e+00 2.480300e+00 2.078938e+00 2.238972e+00 1.082953e-04 6.257870e-02 2.912575e-01 1.951404e-01 4.688259e-01 2.751921e-01 6.481849e-01 4.153212e-01 2.811964e-01 5.007995e-01 2.995024e-01 2.144568e-01 3.929258e-01 9.613294e-06
<GCONST> 7.228960e+01
<MIXTURE> 16 5.240705e-02
<MEAN> 39
 -8.293679e-01 1.323384e+01 6.336750e-01 -3.026475e+00 -5.251742e+00 -5.412273e+00 -8.808722e+00 -3.092917e-01 9.758112e-01 -4.262475e+00 8.085565e+00 -3.028126e+00 7.973838e-01 4.743012e-02 1.380924e+00 -4.709311e-01 1.347227e+00 -1.112195e+00 1.146318e-01 -1.175632e+00 4.790229e-02 -1.074955e+00 -5.336688e-01 3.556916e-01 -1.320028e+00 9.144983e-03 1.414348e-01 -5.906966e-01 1.221546e-01 -4.302131e-01 1.257941e-02 4.972081e-01 2.911156e-01 2.813657e-01 -1.324079e-01 4.290420e-01 -7.811759e-01 2.401100e-01 1.257690e-03
<VARIANCE> 39
 7.649500e+00 1.855112e+01 1.508604e+01 2.291136e+01 1.980000e+01 3.105872e+01 1.977687e+01 2.290472e+01 2.967491e+01 3.221308e+01 1.077615e+01 1.221630e+01 5.208347e-03 3.838628e-01 4.739226e-01 8.037318e-01 1.477791e+00 9.164593e-01 2.294967e+00 1.095195e+00 1.774011e+00 1.319535e+00 1.922618e+00 1.096141e+00 1.496674e+00 3.740588e-04 5.696608e-02 1.104645e-01 2.234549e-01 1.774651e-01 2.578279e-01 2.842134e-01 2.470122e-01 2.881656e-01 3.735032e-01 4.815442e-01 1.852335e-01 3.086757e-01 1.661826e-05
<GCONST> 6.577682e+01
<MIXTURE> 17 3.357439e-02
<MEAN> 39
 2.399155e+00 1.173207e+01 -5.705479e+00 -2.860128e+00 -7.797267e+00 -7.021523e+00 -2.679811e+00 1.033783e+00 -1.560282e-01 3.292484e+00 1.764655e+00 6.454803e+00 8.032143e-01 -7.970163e-01 9.559290e-01 -1.383378e+00 -1.161752e+00 -1.512786e+00 -2.228889e+00 -1.225726e+00 -1.949466e+00 -2.564032e+00 -2.407072e+00 -2.838178e+00 -1.290729e+00 9.347806e-02 -6.418563e-01 -9.220251e-01 7.900370e-01 8.048494e-01 1.154690e+00 1.276139e+00 3.905162e-01 3.706149e-01 1.074565e-01 -1.855499e-01 -3.208767e-01 -6.067703e-01 -5.651751e-02
<VARIANCE> 39
 1.208499e+01 5.459087e+01 1.679744e+01 1.153867e+01 1.785542e+01 2.342578e+01 1.859326e+01 2.309861e+01 3.590692e+01 2.230738e+01 3.644589e+01 3.486228e+01 8.456085e-03 1.955422e+00 9.148139e-01 1.427998e+00 1.599845e+00 1.221053e+00 1.081345e+00 2.321916e+00 2.810969e+00 3.357033e+00 2.493232e+00 3.712981e+00 6.602462e+00 6.643470e-04 1.070781e-01 3.999041e-01 2.423604e-01 1.901178e-01 2.657346e-01 3.378131e-01 3.669060e-01 3.348829e-01 5.417693e-01 4.403956e-01 4.592675e-01 4.512765e-01 1.467644e-04
<GCONST> 8.359494e+01
<MIXTURE> 18 5.629367e-02
<MEAN> 39
 1.299499e+00 1.145043e+01 -5.458125e+00 -2.127197e+00 -6.081952e+00 -5.870774e+00 -6.852805e+00 -4.054168e+00 -5.070905e+00 -1.105026e-02 -4.171402e+00 -2.451121e+00 8.295388e-01 -1.663039e-01 8.512707e-01 1.988276e-01 4.000971e-01 -8.091879e-01 -5.403889e-03 4.914469e-01 -6.619140e-01 -7.745005e-01 -6.856191e-01 1.625065e-01 6.958533e-01 4.377583e-03 5.695212e-02 2.261472e-02 1.566185e-01 -2.607140e-02 2.690028e-01 2.153154e-01 2.353154e-01 6.381094e-01 4.907381e-01 -8.760247e-02 2.890123e-01 1.989115e-01 4.799074e-04
<VARIANCE> 39
 1.063758e+01 1.714136e+01 2.698693e+01 1.118622e+01 3.231375e+01 2.509273e+01 4.219741e+01 2.227369e+01 1.820129e+01 2.732706e+01 5.889235e+01 4.019636e+01 9.408905e-03 5.410580e-01 5.697463e-01 1.316426e+00 1.292923e+00 1.815885e+00 1.502314e+00 9.520364e-01 2.645309e+00 2.063148e+00 2.610440e+00 3.600419e+00 1.256770e+00 1.412760e-04 4.119637e-02 7.842159e-02 2.178407e-01 1.181757e-01 3.538318e-01 4.208652e-01 2.932277e-01 3.931568e-01 2.468301e-01 2.900319e-01 3.966362e-01 1.740571e-01 1.658765e-05
<GCONST> 7.128439e+01
<MIXTURE> 19 4.616821e-02
<MEAN> 39
 3.033086e+00 1.549845e+01 -1.981748e+00 -7.022913e-01 -3.126141e+00 -3.822011e+00 5.077302e+00 4.062111e+00 5.612946e-01 5.884068e+00 -1.595806e+00 8.116387e+00 6.749924e-01 -1.639582e-01 6.429583e-01 -7.057753e-01 -1.890029e-01 -8.060243e-01 -7.769810e-01 -6.215792e-01 -5.947534e-01 -4.474528e-01 -8.630210e-01 -1.160765e+00 -3.242136e-01 4.541558e-02 -3.154641e-01 -5.436736e-01 -1.935494e-01 -1.325414e-01 -2.010932e-01 -1.620796e-01 -5.925140e-01 -4.374672e-01 -4.157273e-01 -5.873295e-01 -2.088470e-01 -4.864017e-01 5.955567e-03
<VARIANCE> 39
 4.321262e+00 1.232143e+01 1.983116e+01 9.555058e+00 1.498717e+01 1.033116e+01 1.643414e+01 2.206070e+01 1.596436e+01 2.364514e+01 1.556535e+01 1.508694e+01 6.166099e-03 5.554898e-01 8.438282e-01 6.931037e-01 8.285478e-01 1.040498e+00 8.191271e-01 1.270766e+00 6.403462e-01 6.618348e-01 9.631717e-01 1.066309e+00 1.067049e+00 6.533590e-04 7.097517e-02 1.095323e-01 8.929057e-02 1.533850e-01 1.607326e-01 1.321659e-01 2.365897e-01 1.354429e-01 1.329754e-01 2.043451e-01 2.635734e-01 3.195043e-01 8.329197e-05
<GCONST> 5.688971e+01
<MIXTURE> 20 3.631081e-02
<MEAN> 39
 -1.705695e+00 1.418504e+01 -3.666787e+00 -5.434942e-01 -4.757961e+00 -5.353590e+00 -1.712624e+00 2.156663e+00 -2.611336e+00 2.744526e+00 -4.155265e+00 6.187984e+00 8.447552e-01 -8.612002e-01 -7.501576e-01 -1.085158e+00 -4.412484e-01 -1.535334e+00 -1.645509e+00 -2.053051e+00 -1.855289e+00 -1.129366e+00 -1.420339e+00 -1.142768e+00 -4.747936e-01 2.650304e-02 3.177238e-02 -3.335357e-01 -1.509779e-01 -3.193396e-01 -8.760999e-02 -2.122396e-01 -5.290334e-02 -3.669428e-01 -1.801524e-01 -2.853939e-01 -1.840698e-01 -3.288570e-01 -4.666616e-03
<VARIANCE> 39
 1.583065e+01 2.115858e+01 1.184782e+01 1.440353e+01 4.806202e+00 1.103902e+01 1.596737e+01 2.703858e+01 1.827703e+01 2.048742e+01 1.292970e+01 1.763078e+01 5.021439e-03 5.181266e-01 3.213825e-01 4.717474e-01 1.022493e+00 1.026861e+00 1.331327e+00 7.877324e-01 1.274809e+00 2.014047e+00 1.065970e+00 1.059563e+00 9.993546e-01 3.584191e-04 4.728347e-02 4.265818e-02 1.143222e-01 1.501260e-01 1.388244e-01 1.503282e-01 2.017856e-01 2.042294e-01 1.691426e-01 9.053101e-02 2.059170e-01 1.912957e-01 6.024006e-05
<GCONST> 5.495301e+01
<MIXTURE> 21 3.284605e-02
<MEAN> 39
 6.084800e-01 1.331885e+01 7.850694e-01 -2.058507e+00 -1.035069e+01 -2.037778e+00 -1.086824e+01 2.781820e+00 -1.823968e+00 -4.466896e+00 5.714226e+00 -3.751316e+00 7.861531e-01 -9.680991e-01 1.147840e+00 1.699957e-03 -9.210222e-01 -7.923493e-01 -6.088815e-01 -1.371868e+00 -9.774882e-01 -2.112572e-01 -1.156303e+00 4.164315e-01 -9.879017e-01 5.692582e-02 -1.451356e-01 -9.685422e-01 3.584035e-02 1.837815e-01 6.545821e-01 -5.825570e-02 8.611242e-01 -3.808925e-01 2.283961e-01 1.092320e-01 -4.614235e-01 7.192680e-02 -3.059197e-02
<VARIANCE> 39
 5.144407e+00 2.831414e+01 9.532302e+00 1.431374e+01 1.821072e+01 1.321968e+01 2.123207e+01 2.309354e+01 3.238414e+01 1.358589e+01 2.652672e+01 1.489426e+01 4.423565e-03 3.455883e-01 2.001728e+00 1.115963e+00 1.753043e+00 2.137159e+00 1.807528e+00 1.646707e+00 4.193897e+00 1.651151e+00 2.845280e+00 2.691967e+00 1.343604e+00 4.649724e-04 7.601678e-02 4.056690e-01 1.505526e-01 1.872842e-01 5.484549e-01 1.448400e-01 3.408701e-01 2.924609e-01 3.787226e-01 1.801905e-01 2.765020e-01 1.428151e-01 4.250890e-04
<GCONST> 7.307813e+01
<MIXTURE> 22 4.560789e-02
<MEAN> 39
 3.373582e+00 1.636513e+01 -1.836618e+00 3.621508e-01 -7.219642e+00 -5.262441e+00 2.359473e+00 -7.451524e-01 1.766775e+00 1.237209e+00 -1.406405e+00 6.519438e+00 7.444590e-01 -7.244204e-01 -4.044555e-01 -1.311473e+00 -9.907780e-01 -8.996022e-01 -8.016152e-01 -1.250103e+00 -1.212189e+00 -1.906385e+00 -2.763899e+00 -2.433906e+00 -1.617008e+00 3.774659e-02 -3.364797e-01 -4.049040e-01 -1.038365e-01 -2.407259e-02 2.567801e-01 -1.657372e-01 -7.190882e-02 4.940122e-02 -2.759263e-02 -1.232220e-01 -2.319891e-01 -2.936536e-01 -2.134427e-03
<VARIANCE> 39
 8.168026e+00 9.774298e+00 1.056169e+01 1.009442e+01 7.776630e+00 1.631108e+01 7.924555e+00 1.163596e+01 1.422840e+01 2.071825e+01 1.849406e+01 1.476353e+01 5.605690e-03 5.189771e-01 6.955278e-01 6.281286e-01 8.807156e-01 1.082024e+00 2.014859e+00 1.412560e+00 1.054251e+00 1.776560e+00 1.417005e+00 1.970281e+00 2.531211e+00 1.355545e-04 6.801609e-02 1.333290e-01 1.393612e-01 1.191465e-01 1.960482e-01 2.474767e-01 1.904952e-01 3.214987e-01 4.109161e-01 3.846732e-01 3.596100e-01 4.111284e-01 4.995844e-05
<GCONST> 6.111552e+01
<MIXTURE> 23 3.632696e-02
<MEAN> 39
 -1.878154e-01 1.470985e+01 -1.432042e+00 -1.464055e+00 -2.280352e+00 -6.246173e+00 -1.085611e+01 4.206007e+00 8.830740e-01 6.558424e-01 -5.868065e-01 -4.635300e+00 7.735060e-01 -1.113462e-01 6.394887e-01 -3.335799e-01 4.926648e-02 -5.666353e-01 -3.124028e-01 -1.358470e+00 -1.338681e+00 -6.339732e-01 -1.651218e-01 -4.724322e-01 -4.913232e-01 2.335616e-02 -1.414475e-02 -2.016896e-01 6.588012e-02 -9.391144e-02 -1.889153e-01 2.337268e-01 4.661195e-01 -3.842781e-01 -3.576192e-01 -8.001854e-02 1.287561e-01 3.169563e-01 5.421585e-05
<VARIANCE> 39
 1.057152e+01 2.183356e+01 4.319756e+01 1.327608e+01 1.573749e+01 2.833138e+01 5.219110e+01 2.848552e+01 2.459522e+01 2.223452e+01 4.524490e+01 1.655428e+01 4.998661e-03 1.845919e-01 4.552656e-01 6.022948e-01 9.467345e-01 8.875137e-01 3.036910e+00 1.443969e+00 2.725010e+00 2.387797e+00 1.665573e+00 1.307128e+00 1.573139e+00 2.591042e-04 2.932545e-02 4.649774e-02 8.754683e-02 2.139501e-01 9.844807e-02 2.634026e-01 2.227434e-01 2.247513e-01 2.217903e-01 2.133009e-01 3.404852e-01 3.179353e-01 1.849360e-05
<GCONST> 6.427106e+01
<MIXTURE> 24 2.855667e-02
<MEAN> 39
 8.021527e-01 1.594242e+01 -1.696645e+00 -1.183728e+00 -5.878714e+00 -7.150625e+00 -1.016884e+01 3.339629e+00 -8.965529e+00 5.355746e+00 -8.041605e-01 -4.859246e-01 7.777584e-01 -6.663839e-01 1.544244e+00 7.999041e-01 -2.903624e-01 -3.769498e-01 -1.158764e+00 -9.953618e-01 2.109600e-01 -3.324128e-01 3.335868e-01 -2.340160e-01 1.345453e-01 1.548911e-02 -2.096378e-02 -2.638035e-01 -2.336288e-02 -2.979462e-01 -1.028219e-01 1.103824e-01 4.296821e-01 9.377500e-02 4.069476e-01 -2.258745e-01 -8.955905e-02 -3.558634e-01 -7.385523e-05
<VARIANCE> 39
 7.243357e+00 1.867825e+01 1.897077e+01 6.054498e+00 1.256674e+01 1.097879e+01 1.655471e+01 2.810745e+01 1.657316e+01 9.478159e+00 1.987695e+01 2.810414e+01 1.281106e-03 9.583403e-01 5.475368e-01 1.114203e+00 1.564552e+00 1.152973e+00 1.986601e+00 1.730516e+00 1.257245e+00 1.761523e+00 1.710920e+00 3.174010e+00 1.975470e+00 1.432195e-04 6.618662e-02 3.962784e-02 2.567075e-01 1.583246e-01 2.568142e-01 1.711787e-01 1.875667e-01 1.411633e-01 1.035923e-01 1.565278e-01 2.956920e-01 3.530596e-01 1.105581e-05
<GCONST> 5.902889e+01
<MIXTURE> 25 2.634992e-02
<MEAN> 39
 2.067896e+00 1.941648e+01 1.891990e+00 -1.331797e+00 -9.067131e+00 -3.277469e+00 -1.501824e+01 4.462151e+00 -4.909413e+00 1.151886e+00 1.040025e+00 -4.617728e+00 6.650349e-01 -8.561950e-01 8.163325e-01 3.595109e-01 2.336388e-01 -5.137793e-01 -3.113734e-02 -3.706414e-02 6.650118e-01 -2.329827e-01 -3.643075e-01 5.905220e-03 5.310170e-02 3.512434e-02 -1.186439e-01 -4.397350e-01 -2.102022e-01 -1.122140e-01 -7.448056e-03 -1.743262e-01 1.280753e-01 -3.997545e-01 3.735855e-02 -1.696838e-01 1.239526e-01 5.336628e-02 -9.821502e-04
<VARIANCE> 39
 9.543379e+00 9.291108e+00 1.374555e+01 1.015195e+01 3.285055e+01 1.271064e+01 2.129857e+01 1.378935e+01 1.685493e+01 1.310228e+01 3.737814e+00 3.616161e+00 5.540865e-03 5.772200e-01 1.108016e+00 1.007251e+00 8.016681e-01 1.408764e+00 1.237434e+00 5.253892e-01 9.427268e-01 1.613365e+00 8.613970e-01 6.326541e-01 5.844775e-01 1.967470e-04 1.586532e-01 7.003183e-02 1.040592e-01 1.624204e-01 2.459714e-01 1.067082e-01 1.970514e-01 1.988063e-01 3.201108e-01 2.244904e-01 1.691920e-01 2.934628e-01 2.605911e-05
<GCONST> 5.396521e+01
<STATE> 4
<NUMMIXES> 25
<MIXTURE> 1 4.692816e-02
<MEAN> 39
 -2.727132e+00 9.956863e+00 -6.961568e+00 -3.995245e+00 -6.287733e+00 -5.285832e+00 7.503235e-01 -2.275123e+00 3.538372e+00 5.108190e+00 7.532429e+00 1.173137e+01 8.719282e-01 -8.127899e-01 -1.490433e-01 -2.632603e-04 2.641392e-01 -1.026131e-01 -1.983585e-01 -1.157424e+00 -5.693701e-01 5.472836e-01 1.494260e+00 2.630821e+00 2.479640e+00 3.184224e-02 4.297483e-01 1.070798e-01 4.051098e-01 3.157561e-01 2.868592e-01 2.154065e-01 2.648383e-01 5.267993e-01 6.990068e-02 -2.338495e-01 -5.441309e-01 -8.038200e-01 -1.540343e-02
<VARIANCE> 39
 1.924747e+01 2.757863e+01 2.146858e+01 1.535918e+01 2.607741e+01 2.179150e+01 2.477640e+01 3.591920e+01 4.559953e+01 5.334170e+01 3.735606e+01 6.220787e+01 4.790334e-03 6.180123e-01 5.704149e-01 8.727357e-01 7.444786e-01 1.289098e+00 1.143681e+00 2.138305e+00 1.423849e+00 3.500491e+00 4.103493e+00 3.272516e+00 4.345016e+00 1.886941e-04 1.649535e-01 1.133584e-01 1.675325e-01 1.586301e-01 2.391964e-01 3.931095e-01 3.482614e-01 4.023901e-01 4.459350e-01 7.890182e-01 5.407405e-01 6.154105e-01 1.404251e-04
<GCONST> 8.090981e+01
<MIXTURE> 2 3.071503e-02
<MEAN> 39
 -1.085990e+00 1.118780e+01 -4.415083e+00 -1.366068e+00 -7.015358e+00 -6.116395e+00 -3.412843e+00 -2.052116e+00 -3.474330e+00 -2.454657e+00 -3.945637e+00 -4.432299e-01 8.650587e-01 4.538060e-01 1.284208e+00 6.702818e-01 1.346306e+00 7.293860e-01 1.194328e+00 6.421230e-01 1.113856e+00 1.130770e+00 7.769837e-01 8.333777e-01 1.375163e+00 7.680350e-03 1.337865e-02 -4.722752e-02 6.673731e-02 -2.522411e-01 2.278272e-01 -1.499681e-01 6.439999e-02 1.152039e-01 2.935101e-01 2.641434e-01 1.028728e-01 4.313621e-02 1.005299e-03
<VARIANCE> 39
 1.495551e+01 4.092047e+01 1.693743e+01 1.990782e+01 1.924229e+01 3.895094e+01 3.169831e+01 2.826937e+01 3.153949e+01 2.707944e+01 6.063525e+01 8.204616e+01 6.957246e-03 1.614279e-01 5.183409e-01 8.287859e-01 6.253636e-01 1.117939e+00 1.416720e+00 1.864741e+00 1.073387e+00 8.417999e-01 9.287400e-01 1.356846e+00 2.868857e+00 1.316826e-04 4.051775e-02 1.253008e-01 1.349539e-01 1.247002e-01 2.394906e-01 2.738523e-01 2.916506e-01 2.219117e-01 2.631235e-01 2.557734e-01 2.660838e-01 2.902712e-01 1.115138e-05
<GCONST> 6.632653e+01
<MIXTURE> 3 3.664683e-02
<MEAN> 39
 -3.607430e+00 1.099772e+01 -1.573648e+00 -2.217788e+00 -2.415927e+00 -5.533002e+00 -6.442373e-01 -8.570117e-01 4.161671e+00 6.163107e+00 1.101348e+01 1.059918e+01 9.583641e-01 6.410895e-02 -2.702988e-02 7.690125e-03 -3.557023e-02 9.298719e-02 4.328217e-02 4.865895e-02 1.129170e-01 9.618637e-03 6.722122e-02 -2.281716e-02 -1.547314e-01 -1.188835e-03 1.392444e-03 -1.037401e-02 -1.062394e-02 -1.426645e-02 -1.105287e-02 -3.331229e-02 -8.737967e-03 1.793751e-02 -3.391194e-02 -6.803704e-03 -1.537486e-02 -1.395471e-03 -5.508011e-04
<VARIANCE> 39
 1.412626e+00 3.404355e+00 3.755279e+00 3.822134e+00 6.449085e+00 1.149504e+01 1.990672e+00 2.328283e+00 7.177798e+00 1.648349e+01 9.981468e+00 2.808541e+00 8.178990e-04 5.053186e-02 2.015227e-01 2.246695e-01 1.669521e-01 1.649040e-01 1.591948e-01 1.076705e-01 1.278834e-01 9.336878e-02 9.871158e-02 9.627106e-02 1.556893e-01 3.754082e-05 8.120453e-03 2.199623e-02 1.881026e-02 2.098056e-02 2.501213e-02 1.723119e-02 1.837832e-02 2.050696e-02 2.678259e-02 1.790270e-02 1.351382e-02 2.570331e-02 3.730629e-06
<GCONST> -1.233140e+01
<MIXTURE> 4 3.124920e-02
<MEAN> 39
 -3.489409e+00 7.903315e+00 -4.800314e+00 -6.131431e-01 -5.022170e+00 -4.375771e+00 -1.270550e+00 -2.068337e+00 -3.353496e+00 -1.478927e+00 -2.212647e+00 6.676650e+00 9.094495e-01 -1.346238e-01 -1.878175e-01 3.241602e-01 9.098710e-01 6.302701e-01 3.865416e-01 -8.502080e-01 -1.046847e+00 -5.776401e-01 -2.883010e-01 4.070363e-01 7.033734e-01 2.905553e-02 4.736939e-01 7.159811e-02 2.373461e-01 6.816611e-02 1.477261e-01 2.151559e-01 1.937236e-01 3.809789e-01 6.152108e-01 5.697389e-01 2.818221e-01 -2.753278e-01 -1.206308e-02
<VARIANCE> 39
 4.607265e+00 3.295070e+01 9.863419e+00 2.459010e+01 1.001286e+01 2.585278e+01 1.445502e+01 1.617750e+01 9.968809e+00 1.677029e+01 2.150719e+01 3.183957e+01 2.232522e-03 6.204503e-01 1.854623e-01 3.505534e-01 5.026407e-01 3.583596e-01 5.146691e-01 9.914060e-01 4.439120e-01 5.407454e-01 6.441726e-01 3.420809e-01 1.288865e+00 1.757603e-04 6.490886e-02 8.464134e-02 7.971568e-02 1.331831e-01 9.672596e-02 2.007583e-01 1.334794e-01 1.389236e-01 1.459731e-01 1.228587e-01 1.854462e-01 1.573600e-01 4.512463e-05
<GCONST> 4.657613e+01
<MIXTURE> 5 3.080852e-02
<MEAN> 39
 -3.668283e+00 2.062537e+01 -4.810253e-01 -3.394776e+00 -5.458908e+00 -7.656511e+00 -9.927427e+00 -1.955707e+00 1.602634e+00 -6.026317e+00 8.871657e+00 -3.218454e+00 9.167213e-01 3.307247e-02 1.576725e-01 1.253539e-01 2.959990e-02 -1.393315e-01 -6.146334e-02 -3.273825e-03 2.082872e-01 -1.604708e-01 1.580947e-01 -1.914543e-01 8.543777e-02 1.775795e-03 3.222212e-02 -5.133881e-02 3.983660e-02 -8.295344e-03 -3.553882e-02 7.574536e-02 2.287801e-02 -1.155009e-02 -6.564795e-04 7.641310e-02 -4.405220e-02 4.370400e-02 -1.149546e-03
<VARIANCE> 39
 1.610769e+00 8.066377e+00 6.837147e+00 2.101757e+00 5.815022e+00 1.339279e+01 1.687511e+00 5.563430e+00 6.378359e+00 2.513494e+00 2.742825e+00 1.683224e+00 3.234484e-03 4.608465e-02 7.167228e-02 1.506282e-01 7.886251e-02 1.370803e-01 1.893260e-01 5.682302e-02 1.660893e-01 1.790704e-01 1.713956e-01 5.605245e-02 1.201754e-01 3.754082e-05 1.101085e-02 1.565957e-02 1.714274e-02 1.893861e-02 1.866360e-02 3.050669e-02 1.430356e-02 2.350217e-02 1.883515e-02 2.692489e-02 1.059589e-02 1.531241e-02 3.730629e-06
<GCONST> -1.604196e+01
<MIXTURE> 6 4.193344e-02
<MEAN> 39
 -2.184867e+00 1.469908e+01 6.253576e-01 -2.848027e+00 -6.939900e+00 -2.003262e+00 -1.003170e+01 1.835087e+00 -9.595643e-01 -5.565905e+00 4.484500e+00 -4.282784e+00 8.274100e-01 -6.623687e-01 3.197619e-01 -9.575265e-02 -1.085501e-04 7.025858e-02 9.245422e-02 6.466320e-03 1.912733e-01 5.328297e-01 -1.023744e-01 3.352578e-01 -1.433971e-01 2.648482e-02 1.760588e-01 -9.803787e-02 2.761798e-02 -3.544638e-02 7.048246e-02 -1.788912e-01 6.556126e-02 -7.482987e-02 -1.160523e-03 1.102449e-01 -1.539348e-01 -1.992686e-02 -6.901611e-03
<VARIANCE> 39
 1.215243e+01 3.252456e+01 7.797151e+00 6.297929e+00 1.358688e+01 1.111334e+01 1.378830e+01 1.152856e+01 1.571743e+01 1.049072e+01 6.396875e+00 5.870384e+00 5.255352e-03 5.532494e-01 1.224804e-01 3.098480e-01 1.942539e-01 3.862420e-01 3.415587e-01 3.359965e-01 5.303321e-01 4.364756e-01 5.418687e-01 2.589583e-01 2.217948e-01 1.521838e-04 1.713612e-01 5.569038e-02 5.454085e-02 6.256917e-02 5.487218e-02 5.190592e-02 6.109546e-02 1.126632e-01 6.081855e-02 5.669588e-02 6.477355e-02 2.909728e-02 1.348142e-05
<GCONST> 2.844732e+01
<MIXTURE> 7 3.167604e-02
<MEAN> 39
 -1.896394e+00 9.764187e+00 -5.725281e+00 -4.052650e+00 -8.450821e+00 -8.397359e+00 -4.876441e+00 -3.984886e-01 -3.727034e+00 -8.803690e-01 -5.355955e+00 -1.331669e+00 8.981428e-01 -8.820931e-01 -1.279493e-01 8.564814e-02 5.307615e-01 2.006538e-01 1.277997e-01 -4.381242e-01 -1.229871e+00 -1.341514e+00 -1.309676e+00 -1.813582e+00 -9.363173e-01 3.485023e-02 2.227205e-01 -1.885220e-01 4.310425e-01 5.966070e-01 8.504168e-01 9.367772e-01 5.946512e-01 5.449999e-01 7.604123e-01 7.714186e-01 9.844612e-01 7.827299e-01 -2.774977e-02
<VARIANCE> 39
 1.141270e+01 5.869436e+01 1.942226e+01 1.655234e+01 1.867500e+01 3.025887e+01 1.922805e+01 1.330611e+01 2.786097e+01 1.646115e+01 1.651334e+01 4.731693e+01 3.777119e-03 3.350675e-01 9.197059e-01 5.616509e-01 1.192778e+00 1.052188e+00 9.904161e-01 1.377864e+00 2.142080e+00 1.648281e+00 2.095979e+00 4.749643e+00 6.303517e+00 1.884581e-04 1.873764e-01 1.268782e-01 1.709569e-01 1.317490e-01 2.954446e-01 2.548828e-01 2.529297e-01 2.471558e-01 4.154870e-01 2.692292e-01 2.724322e-01 5.104494e-01 2.205666e-04
<GCONST> 7.318378e+01
<MIXTURE> 8 4.895015e-02
<MEAN> 39
 -5.466838e-01 1.290553e+01 -6.054867e+00 -1.982708e+00 -8.616398e+00 -7.538929e+00 -3.384426e+00 -3.976646e+00 -4.741978e+00 -4.131825e+00 -8.227703e+00 2.065770e+00 8.323523e-01 -6.233088e-01 -5.450705e-01 -6.804989e-01 -2.211477e-01 -6.855195e-01 -9.760404e-01 -1.454612e+00 -9.906038e-01 -1.239661e+00 -1.429331e+00 -1.417415e+00 -8.251189e-01 2.716988e-02 3.211359e-01 2.160148e-01 4.240530e-01 3.150189e-01 3.994702e-01 3.013957e-01 5.390258e-01 5.112782e-01 5.977988e-01 6.821947e-01 6.181385e-01 2.930726e-01 -7.008430e-03
<VARIANCE> 39
 9.200447e+00 1.490297e+01 1.401068e+01 1.457994e+01 6.150941e+00 9.339531e+00 1.518791e+01 2.406162e+01 1.001316e+01 2.118870e+01 1.726505e+01 1.261806e+01 5.406638e-03 4.410883e-01 4.486658e-01 7.427309e-01 6.399770e-01 9.449146e-01 7.517781e-01 8.001704e-01 8.981012e-01 8.855274e-01 1.344623e+00 2.539374e+00 2.090544e+00 1.678031e-04 5.651258e-02 8.770999e-02 8.160036e-02 1.404625e-01 8.695607e-02 1.317098e-01 1.920935e-01 1.821485e-01 1.230573e-01 2.974137e-01 3.013319e-01 3.064267e-01 3.302554e-05
<GCONST> 5.389931e+01
<MIXTURE> 9 1.978929e-02
<MEAN> 39
 -1.023955e+01 1.067713e+01 4.940395e+00 1.426560e+00 -7.634740e+00 -2.192911e+00 -7.849701e+00 2.428533e+00 2.215361e+00 -9.787668e+00 3.650192e+00 -2.455131e+00 9.805055e-01 4.980988e-02 3.496007e-02 -6.947392e-02 1.064798e-01 4.756935e-02 -1.287710e-01 -8.672060e-02 -7.018027e-02 5.081819e-03 1.704910e-01 9.905686e-02 8.414318e-02 -1.753068e-03 5.067236e-02 -1.383366e-02 -1.432850e-02 -1.375764e-02 7.732007e-02 6.320124e-03 5.178531e-02 -1.113572e-02 -3.360340e-02 4.750528e-02 -2.158332e-02 2.755553e-02 -1.716988e-03
<VARIANCE> 39
 9.277063e-01 8.793837e-01 5.383161e-01 3.363940e+00 8.031340e-01 2.445220e+00 1.167503e+00 2.213241e+01 1.588802e+00 3.242321e+00 6.113404e-01 1.168177e+01 8.178990e-04 1.006972e-01 6.721522e-02 9.465323e-02 3.473766e-02 2.023790e-01 1.321505e-01 1.572282e-01 1.297801e-01 2.070630e-01 1.685075e-01 9.786785e-02 2.625680e-01 3.754082e-05 1.508122e-02 1.314674e-02 2.332086e-02 5.869035e-03 2.325477e-02 1.787465e-02 1.434330e-02 2.247913e-02 3.764861e-02 3.414977e-02 1.178663e-02 6.679843e-02 3.730629e-06
<GCONST> -2.249252e+01
<MIXTURE> 10 3.962436e-02
<MEAN> 39
 -1.194446e+00 1.631579e+01 -9.605469e-01 -2.085298e-01 -2.785380e+00 -3.127939e+00 -8.703984e+00 3.180712e+00 1.942319e+00 -2.519614e+00 5.573359e+00 -5.035617e+00 7.891428e-01 4.689363e-02 7.455527e-02 -5.464787e-02 5.727565e-02 6.468511e-02 9.042772e-03 5.411502e-02 -1.811367e-02 -3.121748e-02 2.771759e-02 -8.139277e-02 9.387185e-02 -1.300246e-03 3.120283e-02 -3.051353e-02 2.748031e-02 -4.833464e-02 2.883523e-02 8.505708e-03 2.842252e-02 9.539091e-04 -2.232878e-02 6.764690e-03 1.900954e-02 6.847864e-02 -9.695228e-04
<VARIANCE> 39
 1.601207e+00 4.585471e+00 1.528369e+00 2.833259e+00 7.929728e+00 6.403251e+00 1.785861e+01 3.664779e+00 3.728492e+00 6.258656e+00 4.784576e+00 4.031124e+00 2.462731e-03 3.895429e-02 5.237748e-02 7.457384e-02 9.676628e-02 1.026380e-01 1.634604e-01 1.666902e-01 1.361169e-01 1.362564e-01 1.125654e-01 1.324890e-01 1.383045e-01 3.754082e-05 3.855729e-03 8.627221e-03 1.959484e-02 9.912066e-03 1.542866e-02 1.958951e-02 2.944604e-02 2.592817e-02 3.318543e-02 2.238478e-02 2.792519e-02 1.993458e-02 3.730629e-06
<GCONST> -1.535556e+01
<MIXTURE> 11 4.923099e-02
<MEAN> 39
 -7.123195e-01 1.433981e+01 1.157141e+00 -1.150409e+00 -1.577971e+00 -5.472379e+00 -7.814001e+00 -3.504743e+00 -1.656964e+00 -6.217014e+00 7.876351e+00 -1.631695e+00 8.392158e-01 -1.244201e-01 5.948033e-01 -9.493174e-02 1.801923e-01 -1.462781e-01 2.569009e-01 -8.053470e-02 1.040266e-01 -7.467125e-02 -3.490319e-01 -2.045379e-01 1.516234e-01 5.661792e-03 3.598668e-03 -1.082247e-01 3.617556e-02 -9.063203e-02 3.013888e-02 -2.959915e-02 -4.318103e-02 6.344466e-02 7.951590e-02 1.312131e-01 -1.483756e-01 1.054227e-02 -2.675246e-05
<VARIANCE> 39
 7.145717e+00 1.726477e+01 2.297791e+00 1.447064e+01 1.130914e+01 7.747216e+00 5.256720e+00 5.073888e+00 6.920027e+00 5.296642e+01 9.872301e+00 1.100873e+01 3.487310e-03 1.580949e-01 2.603661e-01 1.313084e-01 4.784964e-01 1.998862e-01 3.735004e-01 7.119490e-01 2.625061e-01 6.345619e-01 4.703199e-01 4.675097e-01 7.535663e-01 4.927383e-05 1.268713e-02 4.362907e-02 3.846215e-02 1.229057e-01 5.848340e-02 7.666507e-02 9.552744e-02 7.972073e-02 1.406993e-01 1.057444e-01 9.972340e-02 1.862411e-01 5.966788e-06
<GCONST> 2.692501e+01
<MIXTURE> 12 4.218725e-02
<MEAN> 39
 -1.267311e+00 1.779442e+01 1.373068e+00 -3.160988e+00 -9.418427e+00 -4.568991e+00 -1.314436e+01 2.698325e+00 -6.795372e-01 -3.564062e+00 4.066570e+00 -6.653506e+00 8.194183e-01 -4.295870e-01 -7.388516e-02 5.914479e-04 6.370087e-02 -8.834177e-03 -4.965265e-01 -3.726403e-01 -4.178731e-01 -1.255450e-01 -3.538387e-01 -2.262399e-01 -5.516623e-01 1.080627e-02 8.647222e-02 -1.444391e-01 -3.154888e-02 -4.981274e-03 1.234851e-01 6.520646e-02 4.825959e-02 -2.536385e-01 -2.160540e-01 9.531384e-02 2.993507e-02 1.322494e-01 -1.786609e-03
<VARIANCE> 39
 1.644867e+00 2.550974e+01 8.558430e+00 7.426646e+00 1.656276e+01 2.476814e+01 1.455707e+01 1.528604e+01 1.925634e+01 4.359230e+01 6.422523e+00 6.507030e+00 3.782277e-03 8.174402e-02 2.311938e-01 2.937963e-01 2.880625e-01 2.935850e-01 5.118855e-01 8.660033e-01 1.323243e+00 1.052752e+00 3.889119e-01 9.237751e-01 5.274166e-01 5.902545e-05 1.906405e-02 3.630753e-02 6.707842e-02 6.854214e-02 5.524949e-02 7.780499e-02 1.233429e-01 1.346662e-01 1.235943e-01 1.572837e-01 6.466423e-02 4.699793e-02 7.015236e-06
<GCONST> 3.251975e+01
<MIXTURE> 13 5.129402e-02
<MEAN> 39
 -8.315364e-01 1.120985e+01 -1.353374e+00 -3.445291e+00 -3.931948e+00 -2.983539e+00 -7.281808e+00 7.724100e-01 -2.533231e+00 -3.974237e+00 3.159669e+00 -3.952822e+00 8.596148e-01 -5.847155e-01 1.755102e-01 9.822306e-02 3.245875e-01 2.205207e-01 2.496715e-01 3.787222e-01 1.086687e-01 1.624975e-01 2.662754e-01 1.749955e-01 2.630160e-01 2.988219e-02 2.000404e-01 -2.293035e-01 1.559540e-01 2.969593e-01 1.632657e-02 4.045619e-03 3.264634e-01 -1.945088e-02 2.010960e-01 3.261958e-01 -1.227897e-01 4.273725e-01 -1.162655e-02
<VARIANCE> 39
 8.364782e+00 4.071315e+01 1.233481e+01 1.811249e+01 1.669884e+01 3.856545e+01 2.163041e+01 3.429183e+01 2.660372e+01 3.323978e+01 2.004555e+01 1.509288e+01 7.273681e-03 5.874918e-01 5.531295e-01 1.167013e+00 8.192405e-01 1.726666e+00 1.621929e+00 1.173722e+00 1.530082e+00 2.223848e+00 1.774737e+00 1.920598e+00 1.162255e+00 2.289800e-04 1.128300e-01 1.547613e-01 1.813533e-01 3.151034e-01 2.925678e-01 3.341186e-01 3.035180e-01 5.366723e-01 3.437231e-01 3.076015e-01 3.006455e-01 1.664714e-01 7.575686e-05
<GCONST> 7.202791e+01
<MIXTURE> 14 6.081535e-02
<MEAN> 39
