~o
<STREAMINFO> 1 39
<VECSIZE> 39<NULLD><MFCC_E_D_A_Z><DIAGC>
~s "silst"
<NUMMIXES> 15
<MIXTURE> 1 1.129562e-01
<MEAN> 39
 2.740946e+00 5.706883e+00 7.098194e+00 3.190155e+00 -3.272889e-02 -1.873808e+00 -6.064058e+00 -3.828253e+00 -4.171936e+00 -1.893773e+00 -1.356842e-01 -1.837043e-01 5.975857e-01 -2.854231e+00 -1.307804e+00 1.159446e-01 2.270132e+00 1.928420e+00 2.706878e+00 2.311289e+00 2.194506e+00 1.228866e+00 1.946737e+00 8.096614e-01 5.892735e-01 -1.309173e-01 -6.175061e-01 -5.538147e-01 -7.672548e-01 -3.669024e-01 5.570168e-02 4.955225e-01 9.662422e-01 9.513510e-01 8.070703e-01 3.886331e-01 2.111531e-01 -1.538387e-02 -8.612223e-03
<VARIANCE> 39
 1.988959e+01 3.485453e+01 2.000196e+01 2.780484e+01 2.202045e+01 3.276826e+01 2.840466e+01 3.312505e+01 3.234146e+01 3.744863e+01 3.672578e+01 4.249442e+01 1.949065e-02 1.713028e+00 1.968541e+00 2.455480e+00 3.115675e+00 2.802949e+00 3.273911e+00 3.566529e+00 4.710432e+00 3.988958e+00 3.740677e+00 3.322267e+00 3.258420e+00 1.238318e-03 4.119685e-01 4.416754e-01 4.026715e-01 4.675690e-01 5.040649e-01 6.233653e-01 5.978225e-01 6.850360e-01 6.963550e-01 6.607926e-01 5.873584e-01 6.464648e-01 3.881360e-04
<GCONST> 1.001383e+02
<MIXTURE> 2 6.170360e-02
<MEAN> 39
 -3.954489e-01 -1.628132e+00 3.492342e+00 2.952946e+00 4.501995e+00 7.201940e+00 6.683090e+00 6.388995e+00 5.535100e+00 3.231106e+00 1.261726e+00 1.219529e+00 3.581371e-01 -1.449190e+00 -8.273603e-01 -1.229657e-01 7.210493e-01 8.752698e-01 1.117149e+00 7.176915e-01 8.526100e-01 6.794196e-01 5.298746e-01 5.855237e-01 2.629771e-01 -6.903388e-02 1.099934e-01 7.954872e-02 -2.381096e-01 -1.506011e-01 -3.534001e-01 -6.639322e-01 -6.247570e-01 -6.415047e-01 -5.632038e-01 -2.267766e-01 -2.799790e-02 -8.982932e-02 1.480453e-02
<VARIANCE> 39
 1.894170e+01 4.872840e+01 5.665427e+01 7.022585e+01 5.580856e+01 5.888451e+01 4.296484e+01 4.977094e+01 4.339354e+01 4.718636e+01 4.673090e+01 4.334743e+01 5.202660e-02 1.895783e+00 3.116976e+00 3.371224e+00 3.380577e+00 4.375617e+00 5.314604e+00 5.291180e+00 5.395129e+00 4.045933e+00 3.924683e+00 4.084289e+00 3.622178e+00 4.114497e-03 4.145251e-01 4.674145e-01 5.686860e-01 6.820281e-01 8.491645e-01 7.018559e-01 6.638061e-01 7.220048e-01 7.114953e-01 7.619614e-01 7.904668e-01 7.688384e-01 7.103680e-04
<GCONST> 1.133135e+02
<MIXTURE> 3 4.947431e-02
<MEAN> 39
 -3.712756e+00 -3.684403e+00 2.986015e+00 4.485084e+00 5.795561e+00 5.418850e+00 3.873636e+00 4.360954e+00 4.173905e+00 4.014362e+00 2.860068e+00 1.267643e+00 5.176770e-02 -3.187856e-01 9.826407e-02 2.840679e-01 4.163994e-01 4.287403e-01 3.386235e-01 2.480490e-01 1.484761e-01 -4.294346e-02 -1.305624e-01 -8.754225e-02 -2.572281e-02 -1.751863e-02 6.839229e-01 4.751623e-01 -7.522986e-02 -2.273709e-01 -3.899919e-01 -4.366212e-01 -3.458209e-01 -3.527247e-01 -3.257103e-01 -2.590339e-01 -5.841552e-02 1.007253e-01 4.171012e-02
<VARIANCE> 39
 1.606596e+01 3.799773e+01 2.684300e+01 2.396538e+01 2.658748e+01 2.685022e+01 2.469786e+01 2.787173e+01 3.621796e+01 2.142989e+01 2.319847e+01 1.603440e+01 2.211975e-02 2.089994e+00 1.927151e+00 1.645140e+00 2.188233e+00 2.047180e+00 2.157321e+00 2.533967e+00 2.876974e+00 2.848996e+00 2.428033e+00 2.459507e+00 1.933754e+00 5.493642e-03 2.784562e-01 3.288054e-01 4.176458e-01 4.082005e-01 4.013197e-01 3.400929e-01 4.176069e-01 4.542722e-01 5.378188e-01 4.410955e-01 4.038747e-01 2.927880e-01 4.807986e-04
<GCONST> 9.183282e+01
<MIXTURE> 4 7.691048e-02
<MEAN> 39
 3.227776e+00 3.477503e+00 9.904379e+00 -1.930451e+00 -2.621198e+00 -1.411783e-01 -2.515463e+00 -5.554908e+00 1.085429e+00 -2.391922e+00 -2.031455e+00 4.597522e-01 7.394223e-01 -1.138491e+00 1.309260e+00 -1.444370e+00 -2.705020e-01 6.514307e-01 -1.858579e-01 -5.750052e-01 1.688438e+00 4.821725e-01 -9.987138e-02 6.261077e-01 5.785098e-02 4.219627e-03 -4.660367e-01 -1.059765e-01 -1.148653e+00 -8.636420e-01 -6.100849e-02 -3.973362e-01 4.798299e-01 8.909321e-01 1.693914e-01 2.477453e-01 2.322596e-01 -3.983045e-01 1.817765e-02
<VARIANCE> 39
 1.542997e+01 3.504540e+01 3.212256e+01 3.571880e+01 3.140719e+01 2.829939e+01 3.929829e+01 3.997850e+01 4.548311e+01 4.079855e+01 2.699875e+01 3.430574e+01 7.236665e-03 1.389377e+00 3.154006e+00 2.854620e+00 4.678191e+00 3.006481e+00 3.208043e+00 4.985633e+00 5.089286e+00 4.895287e+00 4.743393e+00 3.254902e+00 3.012551e+00 4.553388e-04 2.198572e-01 3.102258e-01 5.684430e-01 7.132345e-01 5.870489e-01 6.912405e-01 8.688347e-01 8.944436e-01 9.258890e-01 8.375363e-01 6.617584e-01 7.060923e-01 9.482352e-05
<GCONST> 1.008756e+02
<MIXTURE> 5 6.784849e-02
<MEAN> 39
 -1.934838e+00 -1.307848e+00 3.298392e+00 4.219913e+00 4.651987e+00 4.563582e+00 1.934148e+00 2.526217e+00 3.952832e+00 2.335890e+00 1.908245e+00 1.195508e+00 -3.010538e-02 3.911256e-02 2.968785e-01 2.196228e-01 -4.207646e-02 -5.117145e-02 8.121113e-02 7.131339e-03 2.951819e-02 6.752218e-02 -7.194627e-04 -2.600965e-02 1.239308e-02 -7.721763e-03 3.675144e-03 -3.045818e-02 -2.916354e-02 -3.202773e-02 -5.306027e-02 1.318691e-02 2.784685e-02 -2.680145e-02 -4.959169e-02 8.400667e-06 4.230362e-02 2.605916e-02 8.629489e-03
<VARIANCE> 39
 1.028971e+01 3.979540e+01 2.375255e+01 2.544112e+01 2.418581e+01 2.545357e+01 2.896950e+01 3.780460e+01 2.051689e+01 2.518390e+01 2.668803e+01 1.599546e+01 1.044067e-02 3.670112e-01 9.681943e-01 9.080799e-01 1.147380e+00 1.365244e+00 1.537010e+00 1.642187e+00 2.046407e+00 1.974002e+00 1.922379e+00 1.868063e+00 1.436098e+00 2.416605e-04 1.063051e-01 1.775512e-01 1.649431e-01 2.147849e-01 2.980252e-01 3.267834e-01 3.498450e-01 4.307958e-01 4.114814e-01 3.921596e-01 3.554207e-01 2.855539e-01 1.249164e-04
<GCONST> 7.558016e+01
<MIXTURE> 6 6.130989e-02
<MEAN> 39
 2.639622e+00 5.647233e+00 7.811838e+00 5.923130e+00 1.172546e+00 3.616919e+00 -6.141669e-02 -6.076540e-01 8.602256e-01 -4.280815e-01 -1.771910e+00 -4.234677e-01 6.555586e-01 -2.745528e+00 -7.003669e-01 -3.270839e-01 2.152342e+00 1.820711e+00 1.911166e+00 7.754070e-01 1.544473e+00 5.862022e-02 7.177380e-02 1.332378e+00 5.253165e-01 -1.126092e-01 -7.319142e-01 -9.987113e-01 -1.073124e+00 -7.684039e-01 -3.658579e-01 -3.577672e-01 2.079488e-01 2.786853e-01 2.365797e-01 3.226123e-01 3.045410e-01 2.153811e-01 -1.653446e-02
<VARIANCE> 39
 2.228405e+01 3.085936e+01 1.768884e+01 2.298202e+01 2.800140e+01 2.781909e+01 3.088121e+01 3.595742e+01 3.443543e+01 3.028159e+01 2.240536e+01 2.350296e+01 1.014224e-02 2.146505e+00 2.331857e+00 2.698848e+00 2.959934e+00 2.995211e+00 3.252047e+00 3.789618e+00 3.718601e+00 3.805344e+00 4.251698e+00 3.697395e+00 2.900593e+00 8.505717e-04 3.104630e-01 2.777175e-01 3.004476e-01 4.009038e-01 4.050263e-01 5.228024e-01 5.029101e-01 5.639298e-01 6.725240e-01 5.552799e-01 4.516054e-01 4.905492e-01 1.730150e-04
<GCONST> 9.467651e+01
<MIXTURE> 7 3.591735e-02
<MEAN> 39
 -1.868197e+00 -3.950689e+00 -9.847060e-01 8.583345e-01 2.271705e+00 1.586719e+00 8.696918e-01 7.734103e-01 2.513814e+00 1.483634e+00 2.282309e+00 1.058697e+00 1.153387e-01 -6.069841e-01 -3.058734e-01 -1.961186e-01 -5.798882e-02 -1.517586e-01 -1.743997e-02 3.457055e-02 1.546891e-02 6.109167e-02 -1.054478e-01 -1.632290e-01 -2.682731e-01 -5.892732e-02 3.766898e-01 4.849261e-01 4.390405e-01 3.565955e-01 1.961835e-01 1.681898e-01 6.807686e-02 2.584955e-02 1.221059e-03 -1.261251e-01 -2.893155e-01 -1.402609e-01 2.880883e-02
<VARIANCE> 39
 1.205988e+01 5.571590e+01 2.403469e+01 3.270876e+01 3.009391e+01 3.160757e+01 3.411827e+01 4.209911e+01 3.847458e+01 4.178492e+01 3.654619e+01 2.589507e+01 2.517233e-02 5.153313e-01 9.337615e-01 1.116996e+00 1.476212e+00 1.916438e+00 2.385228e+00 2.254930e+00 2.547423e+00 2.432971e+00 2.313436e+00 2.226417e+00 2.048155e+00 1.299258e-03 1.032615e-01 2.226659e-01 2.344707e-01 2.749529e-01 3.576163e-01 4.325481e-01 4.095590e-01 5.550852e-01 5.834697e-01 5.988716e-01 4.979817e-01 4.463708e-01 2.834949e-04
<GCONST> 8.858565e+01
<MIXTURE> 8 6.245181e-02
<MEAN> 39
 4.435403e+00 -6.418774e-01 -4.871467e+00 -1.504255e-01 1.520734e+00 -2.064492e+00 -1.248500e+00 -4.641479e-01 1.858961e-02 8.738810e-01 -7.600090e-01 -5.297410e-01 7.944717e-01 3.431483e-01 5.100104e-01 -3.474488e-02 -4.064130e-01 -2.075408e-01 4.812117e-01 -3.891382e-02 -4.584521e-01 -1.862015e-01 5.848203e-01 6.347746e-01 -5.889865e-02 -3.793821e-03 -1.005511e-01 -7.511105e-02 3.652710e-02 -7.799684e-02 -2.049075e-01 -9.075272e-02 1.421812e-02 -2.709838e-02 -2.737881e-01 -2.376830e-01 1.277260e-02 7.742389e-02 4.091905e-03
<VARIANCE> 39
 2.377617e+01 8.545975e+01 5.741268e+01 3.438455e+01 3.692240e+01 3.610464e+01 4.541219e+01 4.244112e+01 4.779730e+01 3.789306e+01 4.378292e+01 3.805723e+01 1.913840e-02 6.245285e-01 9.459624e-01 9.098766e-01 1.391111e+00 1.475330e+00 1.634091e+00 1.768410e+00 2.038649e+00 1.890776e+00 2.293231e+00 2.530729e+00 2.115495e+00 4.058039e-04 6.523115e-02 9.873806e-02 1.729507e-01 1.615210e-01 2.195707e-01 2.525924e-01 2.916174e-01 3.212887e-01 3.905588e-01 3.124589e-01 3.688108e-01 3.949284e-01 5.694672e-05
<GCONST> 8.212560e+01
<MIXTURE> 9 8.560952e-02
<MEAN> 39
 3.025693e-01 1.265231e+00 2.435805e+00 -8.364582e+00 -5.347116e+00 -2.541785e+00 -1.536721e+00 -4.399269e-01 1.175265e+00 -1.715354e+00 -2.265727e+00 -1.093763e+00 8.622150e-01 -2.217617e-01 7.540675e-01 -1.191296e+00 4.591467e-01 7.953474e-02 -3.961521e-01 2.768235e-01 4.060544e-01 -1.814734e-01 -3.017543e-01 1.849191e-01 -7.249690e-02 -3.342929e-03 4.560160e-02 -9.821707e-04 -4.537818e-01 4.348964e-01 3.251801e-01 -2.337987e-01 1.132704e-01 4.566631e-02 -2.433950e-01 2.082784e-02 9.636318e-02 6.199182e-03 1.864769e-03
<VARIANCE> 39
 1.509826e+01 4.906236e+01 4.062334e+01 5.023824e+01 3.746564e+01 4.759693e+01 5.746251e+01 4.171001e+01 4.175005e+01 5.323088e+01 4.786802e+01 4.560060e+01 6.216145e-03 2.264658e+00 6.398809e+00 2.581733e+00 5.647767e+00 4.079351e+00 6.259266e+00 6.598868e+00 5.847542e+00 4.689505e+00 4.588923e+00 4.428764e+00 4.059616e+00 2.304052e-04 1.309564e-01 3.565823e-01 5.341399e-01 7.780638e-01 7.449127e-01 9.599455e-01 8.758674e-01 7.974360e-01 8.133795e-01 8.376046e-01 6.695098e-01 6.472715e-01 2.368433e-05
<GCONST> 1.048098e+02
<MIXTURE> 10 5.551925e-02
<MEAN> 39
 -1.420210e+00 -9.521075e-01 2.931159e+00 1.659466e+00 1.190414e+00 1.420869e-01 9.285285e-02 5.976408e-01 2.166137e+00 3.916955e+00 6.542515e+00 5.037407e+00 3.587502e-01 6.907146e-02 4.498326e-01 -2.988080e-01 -3.819211e-01 -5.333867e-01 -3.165471e-01 -1.023058e-01 -1.326087e-01 -2.567146e-03 3.789856e-02 -2.338642e-01 -1.753523e-01 2.423406e-02 2.701685e-01 1.773348e-01 -1.387763e-01 -1.060992e-01 2.146045e-02 1.671769e-01 6.994697e-02 1.329065e-01 -3.327739e-02 -2.548399e-01 -6.571028e-01 -4.294228e-01 1.837619e-02
<VARIANCE> 39
 3.050237e+01 6.535244e+01 5.165228e+01 4.798976e+01 5.436241e+01 7.518845e+01 7.804917e+01 5.197541e+01 5.981989e+01 7.220819e+01 7.282766e+01 4.741985e+01 5.878532e-02 4.184729e+00 5.064003e+00 4.452022e+00 4.711391e+00 4.183856e+00 5.302229e+00 6.463999e+00 5.174317e+00 5.558908e+00 5.210538e+00 4.829984e+00 5.044001e+00 7.986990e-03 5.954257e-01 8.716041e-01 8.417100e-01 1.007290e+00 1.026239e+00 1.242428e+00 1.339877e+00 9.263690e-01 1.111102e+00 1.150382e+00 1.061431e+00 1.072606e+00 1.042353e-03
<GCONST> 1.249807e+02
<MIXTURE> 11 6.130989e-02
<MEAN> 39
 2.639622e+00 5.647233e+00 7.811838e+00 5.923130e+00 1.172546e+00 3.616919e+00 -6.141669e-02 -6.076540e-01 8.602256e-01 -4.280815e-01 -1.771910e+00 -4.234677e-01 6.555586e-01 -2.745528e+00 -7.003669e-01 -3.270839e-01 2.152342e+00 1.820711e+00 1.911166e+00 7.754070e-01 1.544473e+00 5.862022e-02 7.177380e-02 1.332378e+00 5.253165e-01 -1.126092e-01 -7.319142e-01 -9.987113e-01 -1.073124e+00 -7.684039e-01 -3.658579e-01 -3.577672e-01 2.079488e-01 2.786853e-01 2.365797e-01 3.226123e-01 3.045410e-01 2.153811e-01 -1.653446e-02
<VARIANCE> 39
 2.228405e+01 3.085936e+01 1.768884e+01 2.298202e+01 2.800140e+01 2.781909e+01 3.088121e+01 3.595742e+01 3.443543e+01 3.028159e+01 2.240536e+01 2.350296e+01 1.014224e-02 2.146505e+00 2.331857e+00 2.698848e+00 2.959934e+00 2.995211e+00 3.252047e+00 3.789618e+00 3.718601e+00 3.805344e+00 4.251698e+00 3.697395e+00 2.900593e+00 8.505717e-04 3.104630e-01 2.777175e-01 3.004476e-01 4.009038e-01 4.050263e-01 5.228024e-01 5.029101e-01 5.639298e-01 6.725240e-01 5.552799e-01 4.516054e-01 4.905492e-01 1.730150e-04
<GCONST> 9.467651e+01
<MIXTURE> 12 1.086737e-01
<MEAN> 39
 4.126893e-02 1.887212e+00 6.073218e+00 6.948967e+00 4.700485e+00 4.571648e+00 1.564120e+00 1.799950e-01 -9.259308e-01 -2.995928e-01 4.837544e-01 1.932430e-01 4.576827e-01 -2.945360e+00 -2.362410e+00 -1.758047e+00 2.644191e-01 4.851997e-01 1.208091e+00 1.263702e+00 1.644413e+00 1.095911e+00 1.082282e+00 1.251503e+00 7.996918e-01 -1.368843e-01 -2.446452e-01 -1.508950e-01 -6.970011e-01 -8.364896e-01 -6.540548e-01 -4.728598e-01 -1.196660e-01 1.757163e-01 4.564845e-01 2.217748e-01 3.278856e-02 -6.691847e-03 8.843729e-03
<VARIANCE> 39
 2.446539e+01 5.074535e+01 2.235465e+01 2.546019e+01 2.647682e+01 3.166186e+01 3.892519e+01 3.762287e+01 3.386885e+01 3.470747e+01 3.367987e+01 2.735692e+01 1.416246e-02 1.318305e+00 1.792400e+00 2.311050e+00 2.569643e+00 2.640908e+00 2.780751e+00 2.792156e+00 3.153757e+00 3.097239e+00 3.355341e+00 2.770572e+00 2.835335e+00 1.047872e-03 3.883442e-01 3.968154e-01 3.646927e-01 3.855548e-01 3.853069e-01 5.122860e-01 6.223207e-01 6.364306e-01 5.918852e-01 5.718830e-01 5.523643e-01 4.815264e-01 2.814609e-04
<GCONST> 9.619234e+01
<MIXTURE> 13 3.606286e-02
<MEAN> 39
 -1.805562e+00 -4.493096e+00 -1.138970e+00 1.286135e+00 2.637372e+00 1.722516e+00 1.132844e+00 5.435002e-01 1.751259e+00 7.296839e-01 1.729126e+00 9.455251e-01 1.217962e-01 -5.713954e-01 -2.564100e-01 -1.609893e-01 -5.017882e-02 -1.940250e-01 -7.976499e-02 -2.522984e-02 -5.389022e-02 3.068255e-02 -9.019029e-02 -1.707687e-01 -2.878439e-01 -5.651988e-02 3.750054e-01 4.635780e-01 4.159669e-01 3.115461e-01 1.577390e-01 1.502568e-01 6.277616e-02 6.732184e-02 9.894638e-02 -1.881129e-02 -2.192451e-01 -9.721285e-02 2.777215e-02
<VARIANCE> 39
 1.206593e+01 5.747527e+01 2.460952e+01 3.436094e+01 2.931125e+01 3.176394e+01 3.614082e+01 4.458612e+01 3.742204e+01 4.193682e+01 3.670659e+01 2.644402e+01 2.652560e-02 5.186891e-01 9.397474e-01 1.168681e+00 1.540720e+00 1.904989e+00 2.327980e+00 2.308578e+00 2.533844e+00 2.502668e+00 2.357962e+00 2.227667e+00 1.991064e+00 1.324897e-03 1.053422e-01 2.197255e-01 2.379428e-01 2.831913e-01 3.510706e-01 4.337291e-01 4.203545e-01 5.669859e-01 5.761377e-01 5.618523e-01 4.901367e-01 4.396496e-01 2.902433e-04
<GCONST> 8.896365e+01
<MIXTURE> 14 6.580488e-02
<MEAN> 39
 -1.942289e+00 -1.718231e+00 1.121248e+00 2.026133e+00 3.070540e+00 2.674472e+00 1.875001e+00 2.313251e+00 3.148822e+00 1.911235e+00 2.056353e+00 1.385424e+00 1.991957e-01 -1.859374e+00 -2.021038e+00 -1.539861e+00 -9.906337e-01 -4.790609e-01 5.066003e-02 5.036299e-01 1.063130e+00 1.079845e+00 1.021178e+00 1.111693e+00 6.912874e-01 -1.254717e-01 4.032042e-01 3.657689e-01 2.167904e-01 1.050527e-02 -6.423268e-02 -1.591092e-01 -1.982990e-01 -2.164588e-01 -1.532339e-01 -1.836530e-01 -2.058762e-01 -1.817502e-01 2.512836e-02
<VARIANCE> 39
 1.813549e+01 5.546978e+01 2.450019e+01 3.112661e+01 3.385279e+01 3.094532e+01 3.559381e+01 3.518330e+01 3.304551e+01 3.220211e+01 3.092828e+01 2.468361e+01 2.244799e-02 6.116513e-01 9.717054e-01 1.265056e+00 1.519997e+00 2.104584e+00 2.439867e+00 2.544585e+00 2.719369e+00 2.985045e+00 2.492549e+00 2.505035e+00 2.473245e+00 9.864250e-04 1.358746e-01 2.442548e-01 2.284759e-01 2.745264e-01 3.563690e-01 3.855807e-01 4.093700e-01 4.912244e-01 4.266491e-01 4.828289e-01 4.640683e-01 3.867970e-01 2.149171e-04
<GCONST> 8.823299e+01
<MIXTURE> 15 5.843962e-02
<MEAN> 39
 -1.990766e+00 1.896242e+00 2.162448e+00 2.353613e+00 1.464805e+00 3.915981e+00 1.418607e+00 4.243455e+00 3.546084e+00 6.864055e-01 2.187661e+00 7.394947e-01 -9.403370e-02 6.178183e-02 1.371983e-01 3.073144e-02 -3.173145e-02 -8.270439e-02 4.560706e-02 6.763215e-02 1.016665e-01 -3.254784e-02 2.147038e-02 -2.966226e-02 -3.068785e-02 -7.821130e-04 -1.520736e-02 -3.042644e-02 1.951006e-02 3.044241e-02 3.824921e-02 1.535974e-02 5.446325e-03 -2.309784e-03 -7.374462e-03 4.959457e-02 8.140009e-03 1.387617e-03 7.488381e-04
<VARIANCE> 39
 5.239841e+00 2.701662e+01 1.210549e+01 1.332886e+01 1.079861e+01 2.162972e+01 1.617983e+01 1.962889e+01 1.261118e+01 1.894312e+01 1.784178e+01 1.689062e+01 3.451846e-03 1.248949e-01 4.791555e-01 4.475645e-01 6.105805e-01 9.429796e-01 9.956797e-01 1.054813e+00 1.018883e+00 1.031284e+00 1.185854e+00 9.945089e-01 1.121187e+00 3.754082e-05 2.449835e-02 7.962619e-02 8.235623e-02 1.105601e-01 1.780650e-01 2.192897e-01 2.043166e-01 1.988650e-01 2.157833e-01 2.236505e-01 2.146324e-01 2.349377e-01 4.945845e-06
<GCONST> 4.883906e+01
~h "#i"
<BEGINHMM>
<NUMSTATES> 15
<STATE> 2
<NUMMIXES> 13
<MIXTURE> 1 4.603279e-02
<MEAN> 39
 5.181040e-01 6.836411e+00 2.951841e+00 3.714893e-01 3.656548e-01 1.577093e+00 2.321512e+00 2.596926e+00 3.072982e+00 3.621270e+00 2.383968e+00 3.432717e+00 5.216282e-01 3.343592e-01 9.915812e-01 -1.531272e-01 -1.165746e-01 -2.653651e-01 -9.234120e-01 5.360089e-01 -3.943511e-01 1.578380e-03 -6.025445e-02 -9.449845e-01 1.494193e-01 1.698323e-02 8.646227e-02 2.437050e-01 -2.057147e-01 -2.234391e-01 -3.799122e-01 -4.754813e-01 -1.889161e-01 -1.682180e-01 -1.539541e-01 -2.871497e-01 -3.807030e-01 -2.373798e-01 2.298662e-02
<VARIANCE> 39
 9.741019e+00 1.926650e+01 2.995649e+01 1.500157e+01 1.646407e+01 2.169627e+01 3.519776e+01 2.306367e+01 2.987543e+01 1.866147e+01 1.610432e+01 2.475776e+01 8.978811e-03 5.460945e-01 1.086839e+00 5.220875e-01 5.607308e-01 1.052426e+00 1.985397e+00 2.858793e+00 1.648370e+00 1.634728e+00 1.656754e+00 2.552734e+00 1.180433e+00 1.035088e-03 1.265991e-01 1.774382e-01 1.845004e-01 1.122847e-01 3.085977e-01 4.966021e-01 5.214815e-01 2.950554e-01 3.046744e-01 3.147813e-01 3.807951e-01 3.352141e-01 1.485708e-04
<GCONST> 7.432195e+01
<MIXTURE> 2 3.954882e-02
<MEAN> 39
 3.308998e+00 1.035570e+01 -7.825151e+00 -4.743803e+00 -1.317909e+00 -2.450889e+00 4.958133e+00 4.962552e+00 9.065046e+00 4.432732e+00 1.291220e+00 5.012692e-01 6.672682e-01 -8.596396e-01 1.184969e+00 -2.621363e+00 -1.900859e+00 -1.870059e+00 -2.178436e+00 -1.371084e+00 -2.462261e+00 1.822587e-01 1.151445e+00 1.950542e+00 1.956086e+00 1.439511e-01 -5.537409e-01 -7.105241e-01 1.167878e+00 7.982437e-01 4.432222e-01 7.748840e-01 -4.545794e-01 -4.335412e-01 -6.593817e-01 -7.845394e-02 2.355852e-01 2.228256e-01 -3.208087e-02
<VARIANCE> 39
 1.046180e+01 2.601781e+01 2.332007e+01 1.861350e+01 3.410755e+01 2.691446e+01 7.450895e+01 3.128269e+01 7.547587e+01 8.097449e+01 7.113849e+01 3.608975e+01 2.105881e-02 1.834281e+00 2.057124e+00 3.182558e+00 3.196564e+00 2.560099e+00 6.738885e+00 5.469689e+00 2.540130e+00 5.278249e+00 1.240401e+01 8.429838e+00 8.077481e+00 4.020609e-03 1.278296e-01 4.130315e-01 2.498117e-01 3.606382e-01 4.949742e-01 6.458176e-01 1.022273e+00 4.186266e-01 1.026071e+00 1.408095e+00 1.099373e+00 6.362175e-01 4.731441e-04
<GCONST> 1.076714e+02
<MIXTURE> 3 6.383246e-02
<MEAN> 39
 -1.965788e+00 1.059171e+01 -4.652561e+00 -1.010331e+01 -3.733451e+00 -9.263230e+00 -1.254925e+00 4.274773e+00 -3.667909e+00 4.880698e-01 -4.189390e+00 -4.601072e+00 8.091301e-01 3.823385e-01 1.854903e+00 -4.776307e-01 2.008609e+00 -8.293526e-01 -1.901366e-01 5.283689e-01 -6.692933e-01 -6.813923e-01 1.085042e+00 -1.116516e+00 2.119011e+00 -1.554187e-02 1.808562e-01 -3.211783e-01 4.258134e-01 2.578259e-01 9.123617e-02 9.721169e-01 -1.878040e-01 -7.395346e-02 1.586138e-01 -4.979433e-01 2.498795e-01 4.524595e-01 1.814515e-03
<VARIANCE> 39
 6.006964e+00 2.003849e+01 1.255078e+01 2.149437e+01 2.447175e+01 1.847963e+01 3.758489e+01 2.077764e+01 2.633063e+01 3.745422e+01 3.347155e+01 3.158202e+01 5.391045e-03 4.392396e-01 6.244603e-01 1.180024e+00 1.223701e+00 2.275874e+00 4.368407e+00 2.483604e+00 2.348021e+00 4.672539e+00 4.784152e+00 3.874579e+00 4.034638e+00 2.797670e-04 7.809441e-02 2.400796e-01 1.661787e-01 3.486173e-01 6.545128e-01 5.168285e-01 3.855866e-01 3.660957e-01 5.166309e-01 7.744456e-01 6.953399e-01 7.008839e-01 3.957731e-05
<GCONST> 8.264396e+01
<MIXTURE> 4 8.898177e-02
<MEAN> 39
 -1.544992e+00 1.172206e+01 2.562015e+00 -7.488711e+00 -2.669291e+00 -5.596927e+00 -7.646124e+00 1.276777e-01 2.379595e+00 -2.778230e+00 4.966271e+00 7.038733e-01 8.390701e-01 -2.825046e-01 1.736653e+00 -6.828607e-01 1.318168e+00 -3.427078e-01 -7.475625e-01 -8.452823e-01 -5.183337e-01 -4.116876e-01 -1.124501e+00 1.242523e+00 -1.156137e+00 2.068590e-03 1.716106e-01 -4.790062e-01 2.118292e-02 1.369628e-01 -4.464660e-01 4.761602e-01 2.550246e-01 7.115372e-02 -1.708383e-01 2.775483e-01 -4.558236e-01 -2.184210e-01 1.673510e-03
<VARIANCE> 39
 7.277567e+00 2.297773e+01 1.140950e+01 1.739879e+01 1.597967e+01 1.528470e+01 1.812782e+01 1.627643e+01 1.928296e+01 2.328059e+01 1.887064e+01 2.674544e+01 6.178730e-03 2.180637e-01 7.303624e-01 8.385441e-01 1.029667e+00 1.148184e+00 1.104959e+00 1.529541e+00 1.416479e+00 1.489703e+00 2.017597e+00 1.786513e+00 1.831115e+00 1.638503e-04 4.236287e-02 1.381809e-01 9.932736e-02 1.561215e-01 1.780398e-01 2.388261e-01 2.362482e-01 2.302982e-01 1.561265e-01 2.621610e-01 3.954716e-01 3.932925e-01 1.359908e-05
<GCONST> 6.147466e+01
<MIXTURE> 5 6.047611e-02
<MEAN> 39
 2.874703e+00 1.008572e+01 -6.728346e-01 -8.383862e-01 -4.255020e+00 -1.087104e+00 1.604987e+00 6.847699e+00 3.450088e+00 6.116012e+00 2.601108e+00 4.063560e+00 5.944088e-01 4.319559e-01 3.242800e+00 -1.340915e+00 -1.265717e+00 -1.913694e+00 -1.750784e+00 -9.016713e-01 -7.858642e-01 -1.816011e+00 -9.756516e-01 -1.598782e+00 7.370567e-01 1.371560e-01 -6.180156e-01 -8.079959e-01 2.120345e-01 1.240858e-01 4.916470e-01 2.014530e-01 -9.034496e-02 -4.075904e-01 -2.624187e-01 -5.608925e-01 -8.560445e-02 -2.043676e-01 -1.364805e-02
<VARIANCE> 39
 1.359818e+01 3.640458e+01 1.301530e+01 2.062471e+01 1.292833e+01 1.701657e+01 3.162800e+01 1.866306e+01 2.800481e+01 3.200030e+01 4.764780e+01 3.095559e+01 1.606072e-02 1.109234e+00 3.511186e+00 3.044719e+00 2.451024e+00 4.323051e+00 4.028162e+00 2.454268e+00 3.626738e+00 3.594967e+00 2.571210e+00 3.249181e+00 2.807525e+00 4.321394e-03 1.852019e-01 3.720597e-01 2.287890e-01 4.466538e-01 3.307275e-01 4.739335e-01 3.616117e-01 4.326823e-01 4.591154e-01 3.301662e-01 8.217125e-01 3.087698e-01 3.013067e-04
<GCONST> 9.258566e+01
<MIXTURE> 6 2.536125e-02
<MEAN> 39
 -2.533847e+00 -1.163283e+00 2.826412e+00 5.918042e+00 4.176165e+00 7.005383e+00 1.980185e+00 5.646334e+00 5.878998e+00 5.989994e+00 4.590398e+00 7.758876e-01 4.522079e-02 1.003319e+00 4.183665e+00 -1.373325e+00 -6.133260e-01 -2.457623e+00 -2.089409e+00 -6.796875e-01 -1.890565e-01 -6.094489e-01 -2.196526e-01 -1.150782e+00 9.589154e-01 1.410882e-01 3.797866e-01 9.989988e-01 -4.080835e-01 -9.271013e-01 -1.045762e+00 -1.138101e+00 -1.522992e-01 -3.982371e-01 -7.688851e-01 -3.648000e-01 -4.257202e-01 3.659734e-01 5.896240e-02
<VARIANCE> 39
 6.606233e+00 3.651456e+01 2.867796e+01 1.448674e+01 1.189760e+01 2.544003e+01 1.290408e+01 3.096682e+01 2.040553e+01 2.039410e+01 1.085640e+01 2.390126e+01 3.874413e-02 1.005544e+00 2.871294e+00 2.693752e+00 2.498312e+00 3.479409e+00 2.445523e+00 3.133076e+00 2.150482e+00 3.669308e+00 3.832350e+00 3.978836e+00 2.251651e+00 3.671757e-03 1.420969e-01 5.664794e-01 5.026767e-01 3.311299e-01 4.046653e-01 5.134563e-01 5.571086e-01 6.691915e-01 6.332068e-01 3.276498e-01 4.464228e-01 7.147303e-01 6.897195e-04
<GCONST> 9.261419e+01
<MIXTURE> 7 8.282915e-02
<MEAN> 39
 -1.797548e+00 1.362879e+01 -4.650960e-01 -1.228799e+00 -2.731611e+00 -7.494645e+00 -5.254355e+00 -1.045201e+00 1.259431e+00 -3.293880e+00 4.189386e+00 -3.644959e-03 7.766395e-01 -4.603004e-01 1.865921e+00 -1.152486e+00 2.068197e+00 -1.250500e+00 5.909608e-01 -1.497343e+00 -8.612145e-01 -9.847831e-01 -1.584205e+00 3.045407e-01 -6.120146e-01 5.283351e-03 2.922028e-01 -9.513513e-01 3.658239e-01 -3.182727e-01 -4.108753e-01 6.670536e-01 2.059685e-01 3.838533e-01 -3.902026e-01 4.264488e-01 -5.618801e-01 -2.088891e-01 4.609670e-03
<VARIANCE> 39
 8.948552e+00 2.308645e+01 1.872357e+01 2.410085e+01 1.484532e+01 3.038111e+01 4.719931e+01 2.027825e+01 3.124213e+01 2.640835e+01 2.079119e+01 2.439616e+01 6.965441e-03 7.657703e-01 1.249428e+00 1.120417e+00 1.806831e+00 1.783922e+00 2.544154e+00 1.746053e+00 2.699100e+00 3.066419e+00 2.128623e+00 2.440783e+00 2.326671e+00 2.669102e-04 1.023894e-01 2.383601e-01 2.326119e-01 3.524266e-01 2.950104e-01 3.771427e-01 4.058219e-01 3.103309e-01 4.753897e-01 3.189348e-01 3.673289e-01 3.726563e-01 2.557842e-05
<GCONST> 7.825034e+01
<MIXTURE> 8 1.099894e-01
<MEAN> 39
 -9.022972e-01 7.658731e+00 2.661452e+00 -1.036810e+01 -6.655380e-01 -7.788866e+00 -7.573542e-01 4.043688e+00 1.715163e+00 1.374370e+00 6.639240e-01 -9.819999e-01 7.965635e-01 -8.559293e-01 3.637171e+00 -1.463654e+00 1.333961e+00 4.687835e-01 -2.690681e+00 -9.939812e-01 -1.016017e+00 -8.880572e-01 -1.004360e+00 9.251686e-01 2.951606e-01 -1.065123e-02 3.029299e-01 -6.487046e-01 -3.200909e-01 1.258950e+00 -8.589503e-01 6.923844e-01 3.103845e-01 -4.726597e-01 -5.251033e-01 -2.461281e-01 -2.466403e-01 -6.539860e-02 2.802139e-03
<VARIANCE> 39
 1.103534e+01 2.216173e+01 2.043933e+01 1.843575e+01 1.712258e+01 3.606641e+01 5.401527e+01 3.328656e+01 3.387534e+01 2.466553e+01 3.387885e+01 4.154774e+01 7.504296e-03 4.083827e-01 1.760746e+00 1.027185e+00 2.167032e+00 3.613466e+00 2.985847e+00 3.428713e+00 2.914850e+00 3.099427e+00 6.886345e+00 4.907459e+00 2.838157e+00 2.919620e-04 1.154705e-01 2.234865e-01 3.257619e-01 4.282519e-01 3.314483e-01 5.798942e-01 6.496747e-01 6.443518e-01 7.455866e-01 4.686145e-01 4.653063e-01 7.358273e-01 3.741411e-05
<GCONST> 8.835716e+01
<MIXTURE> 9 7.382352e-02
<MEAN> 39
 2.668427e+00 9.178719e+00 1.237665e+00 -1.469489e+00 -5.930712e+00 -3.554761e+00 -7.535753e+00 -7.382663e-01 -2.787834e+00 -2.715345e+00 -3.232847e-01 -1.770548e+00 6.571329e-01 5.275724e-01 3.626917e+00 -3.742056e-01 -1.965241e+00 -2.036729e+00 -1.558861e+00 -2.647888e+00 -1.191606e-02 -9.752353e-01 -1.245376e+00 7.652477e-01 -1.933296e+00 1.547901e-01 -6.850120e-01 -9.442945e-01 -1.922537e-01 7.032190e-02 4.722550e-01 5.616013e-01 8.667019e-01 3.160098e-01 5.542189e-01 2.997288e-01 2.107334e-01 2.414652e-01 -4.047777e-02
<VARIANCE> 39
 1.466534e+01 5.458649e+01 1.689532e+01 2.573817e+01 2.970336e+01 3.198884e+01 3.273313e+01 3.426984e+01 3.682600e+01 3.068635e+01 2.480373e+01 2.304349e+01 1.729342e-02 1.599328e+00 3.810018e+00 1.835936e+00 2.014911e+00 2.365737e+00 2.631455e+00 3.479259e+00 2.658969e+00 2.131563e+00 2.810041e+00 3.007249e+00 2.525829e+00 5.065633e-03 2.147969e-01 5.033499e-01 2.699068e-01 4.853326e-01 3.916914e-01 4.680758e-01 4.292670e-01 7.219075e-01 4.160399e-01 5.966052e-01 4.785030e-01 4.437916e-01 3.108589e-04
<GCONST> 9.519464e+01
<MIXTURE> 10 6.698306e-02
<MEAN> 39
 2.141400e+00 1.064425e+01 -3.782691e+00 -3.012775e+00 -6.399749e+00 -5.430805e+00 3.675752e-01 2.503548e+00 2.172886e+00 4.261349e+00 1.509971e+00 6.453274e+00 7.615585e-01 -3.415810e-01 1.679140e+00 -2.126481e+00 -1.880378e+00 -2.537968e+00 -2.997750e+00 -1.469648e+00 -2.407940e+00 -2.208834e+00 -1.729732e+00 -1.587917e+00 9.199817e-01 1.566548e-01 -6.463599e-01 -1.060096e+00 7.842404e-01 8.134639e-01 1.076890e+00 1.161430e+00 1.094484e-01 1.222842e-01 -2.307102e-01 -3.027762e-01 -1.860599e-01 -5.895380e-01 -5.497119e-02
<VARIANCE> 39
 1.473789e+01 5.572705e+01 1.653346e+01 2.152499e+01 2.131538e+01 2.251112e+01 2.728889e+01 2.528140e+01 2.799016e+01 2.014723e+01 3.201977e+01 4.724461e+01 8.223143e-03 2.083959e+00 3.234391e+00 2.177063e+00 1.749591e+00 1.702824e+00 1.360178e+00 1.987014e+00 1.754244e+00 2.031899e+00 2.396692e+00 5.234654e+00 7.925464e+00 3.655271e-03 1.778756e-01 3.627467e-01 3.132244e-01 4.176185e-01 4.464298e-01 3.144173e-01 4.123281e-01 4.358973e-01 4.941638e-01 4.098848e-01 5.610965e-01 5.463757e-01 1.163206e-04
<GCONST> 9.056663e+01
<MIXTURE> 11 2.838832e-02
<MEAN> 39
 -1.412682e+00 -5.209600e+00 -1.179449e+00 3.983582e+00 1.660140e+00 1.481071e+00 7.865734e+00 3.104709e+00 -1.905525e-01 1.301973e+00 -1.787169e+00 1.359695e+00 1.857622e-01 8.373355e-01 3.110209e+00 6.092472e-01 1.218658e+00 -1.498456e+00 -4.157958e-01 -2.739294e+00 2.977480e-01 -2.248853e-01 -9.052914e-03 2.236506e-01 -3.396729e-01 8.897775e-02 2.730676e-01 1.236283e+00 1.200096e-01 -7.131262e-01 -8.078462e-01 -3.399196e-01 -8.701274e-01 -5.123755e-02 -6.014651e-02 -2.249187e-01 4.876255e-03 -3.034920e-01 4.639351e-02
<VARIANCE> 39
 1.186818e+01 8.185139e+01 1.488277e+01 1.010332e+01 1.286421e+01 2.866663e+01 6.433556e+01 2.803485e+01 2.312935e+01 4.134829e+01 2.873638e+01 2.492681e+01 4.820224e-02 7.643277e-01 5.612212e+00 1.572461e+00 1.540219e+00 1.716108e+00 3.954020e+00 3.947823e+00 1.920583e+00 1.489261e+00 3.043894e+00 4.194331e+00 2.202720e+00 8.112978e-03 1.515601e-01 8.916590e-01 2.429709e-01 3.253315e-01 2.023310e-01 5.653009e-01 5.070937e-01 6.158533e-01 4.351442e-01 4.502630e-01 4.989099e-01 2.646409e-01 4.803664e-04
<GCONST> 9.341669e+01
<MIXTURE> 12 8.376978e-02
<MEAN> 39
 -7.927535e-02 6.101396e+00 -2.028616e+00 -3.804274e+00 -8.064245e+00 -6.119211e+00 -2.335458e+00 -1.830272e+00 2.677845e+00 8.499417e-01 4.792439e+00 2.895148e+00 5.899763e-01 1.498758e-01 1.412853e+00 2.960859e-01 7.460179e-01 -6.305996e-01 -1.605883e-01 -1.400022e+00 -5.743833e-01 -9.443568e-01 -4.177428e-01 -4.204568e-01 -6.994550e-01 2.545437e-02 2.637972e-02 9.127189e-02 1.541909e-01 -1.057583e-01 2.363070e-01 4.386609e-01 6.025633e-02 2.376703e-01 1.436788e-02 9.843487e-02 -2.762027e-01 -6.162531e-02 6.823617e-03
<VARIANCE> 39
 9.656901e+00 4.249565e+01 3.292505e+01 2.053228e+01 2.327544e+01 1.953261e+01 4.151415e+01 5.190686e+01 3.809982e+01 8.659768e+01 8.084727e+01 1.014825e+02 3.232441e-02 9.138906e-01 3.422309e+00 1.427998e+00 2.368891e+00 1.655005e+00 3.702615e+00 3.448678e+00 5.265199e+00 6.771323e+00 5.241961e+00 7.653710e+00 7.462622e+00 1.190881e-03 1.784002e-01 5.280303e-01 3.478202e-01 4.026090e-01 3.147977e-01 5.602390e-01 6.303539e-01 8.192882e-01 1.072667e+00 1.003948e+00 1.279585e+00 1.347448e+00 1.723622e-04
<GCONST> 1.048685e+02
<MIXTURE> 13 2.299818e-01
<MEAN> 39
 2.166607e+00 1.237143e+01 -3.160279e+00 -2.206292e+00 -4.122492e+00 -3.571604e+00 -2.860170e+00 2.946065e-01 -2.787137e+00 -1.212106e+00 -3.408131e+00 -8.928578e-01 7.177182e-01 3.437731e-02 6.959708e-01 4.630993e-02 3.898667e-01 -5.100946e-01 -7.152093e-02 -6.004468e-01 -2.588154e-01 -4.985304e-01 5.606613e-02 -1.142224e-01 5.639455e-01 8.359144e-03 -1.464638e-01 -5.794980e-02 -3.160356e-04 -1.044310e-01 1.569632e-02 -2.773965e-01 -1.149746e-01 -7.527076e-02 6.496455e-02 -1.511288e-02 1.672996e-01 1.598988e-02 8.000784e-03
<VARIANCE> 39
 1.250106e+01 2.325556e+01 2.241135e+01 2.415211e+01 1.662877e+01 1.401998e+01 3.447024e+01 3.115357e+01 3.030007e+01 2.443953e+01 5.093250e+01 4.250760e+01 1.268576e-02 5.320724e-01 9.392515e-01 1.052544e+00 1.299942e+00 1.457895e+00 1.709825e+00 1.834516e+00 1.703527e+00 2.068018e+00 1.664201e+00 2.647521e+00 2.089923e+00 5.228745e-04 7.170020e-02 1.744296e-01 2.064334e-01 2.969955e-01 2.627083e-01 2.938752e-01 3.637704e-01 3.358850e-01 4.382952e-01 3.526089e-01 4.164930e-01 4.792787e-01 5.366918e-05
<GCONST> 7.790955e+01
<STATE> 3
<NUMMIXES> 13
<MIXTURE> 1 4.362440e-02
<MEAN> 39
 -2.209584e+00 1.045095e+01 -6.229440e+00 -3.529149e+00 -6.270359e+00 -5.250236e+00 2.162661e+00 -1.495886e+00 2.435057e+00 4.974191e-01 2.197495e+00 8.293200e+00 8.199362e-01 -1.677409e+00 -4.247344e-01 -5.669136e-01 -7.431203e-02 -5.182174e-01 -5.389098e-01 -1.727334e+00 -1.221946e+00 2.531853e-01 1.598203e+00 3.594357e+00 4.039399e+00 5.037577e-02 2.949923e-01 -1.748281e-01 5.853451e-01 4.148480e-01 5.101061e-01 4.890491e-01 1.593384e-01 4.960462e-01 1.401598e-01 3.712772e-01 -9.258639e-02 -5.206268e-01 -2.542826e-02
<VARIANCE> 39
 1.720791e+01 2.677181e+01 1.996284e+01 1.729417e+01 2.370923e+01 1.692771e+01 2.480743e+01 1.599205e+01 4.242661e+01 5.676386e+01 3.982168e+01 7.348577e+01 6.323543e-03 4.134855e-01 4.622541e-01 7.214946e-01 7.812448e-01 9.860596e-01 1.122444e+00 1.218844e+00 1.422249e+00 3.322799e+00 4.827869e+00 2.496557e+00 2.525839e+00 4.100807e-04 1.747346e-01 2.233902e-01 3.017146e-01 2.287457e-01 4.375268e-01 4.935175e-01 3.908898e-01 2.635549e-01 4.174718e-01 8.756858e-01 6.228738e-01 7.653590e-01 4.121157e-04
<GCONST> 8.231431e+01
<MIXTURE> 2 8.504687e-02
<MEAN> 39
 3.113096e+00 1.457912e+01 -3.439357e+00 1.165791e+00 -3.577988e+00 -3.802818e+00 4.231279e+00 2.328781e+00 1.551913e+00 5.661136e+00 1.703060e+00 8.111177e+00 6.869125e-01 5.285006e-03 9.041027e-01 -1.112797e-01 1.968378e-01 -5.471750e-01 4.488331e-02 -2.940599e-01 -6.602562e-02 -3.138815e-01 -7.580083e-02 -4.508491e-01 5.155774e-01 1.874323e-02 -1.942688e-01 -4.743932e-01 -1.647223e-01 -4.122097e-01 -1.717662e-01 -2.533003e-01 -4.310207e-01 -3.419939e-01 -2.755954e-01 -6.715565e-01 -5.791600e-01 -5.914778e-01 1.018174e-02
<VARIANCE> 39
 8.830162e+00 1.755001e+01 1.608642e+01 2.106477e+01 1.430106e+01 1.083233e+01 2.025474e+01 2.569908e+01 2.497246e+01 2.659740e+01 1.855332e+01 2.006973e+01 1.442491e-02 7.752619e-01 1.386701e+00 6.892524e-01 1.413172e+00 9.053087e-01 1.048126e+00 1.657177e+00 2.065207e+00 1.866027e+00 1.560159e+00 2.138297e+00 2.408143e+00 1.443325e-03 1.016367e-01 1.415478e-01 1.148282e-01 2.925690e-01 2.237933e-01 2.231486e-01 2.397113e-01 2.924982e-01 3.235734e-01 2.927206e-01 2.660776e-01 3.218783e-01 9.381078e-05
<GCONST> 7.203591e+01
<MIXTURE> 3 6.907232e-03
<MEAN> 39
 1.109825e-01 1.502412e+01 -6.481957e+00 -2.361591e+00 -2.374593e+00 -3.825960e+00 -8.604379e+00 4.298864e+00 -3.989440e+00 1.241409e+00 2.504150e+00 -3.680273e+00 8.346875e-01 -8.805932e-01 6.774201e-01 2.134054e-01 4.372118e-01 7.270141e-01 4.892945e-01 1.104194e+00 1.987164e+00 1.891426e-01 6.045926e-01 9.069388e-01 1.558161e-01 3.330213e-02 8.723459e-02 -4.702173e-01 8.123267e-01 5.287163e-01 -1.618547e-01 1.281564e-02 6.423560e-01 -3.260742e-01 1.362570e-01 9.317249e-02 1.429260e-01 8.218083e-01 -8.810442e-03
<VARIANCE> 39
 4.186237e+00 1.029488e+01 5.221268e+00 1.069487e+01 1.273309e+01 4.223415e+00 8.350680e+00 4.589107e+01 7.069323e+00 1.403643e+01 1.132457e+01 1.007505e+01 8.178990e-04 3.247482e-01 2.139054e-01 1.416425e+00 1.096758e+00 1.164974e+00 9.433963e-01 1.600081e+00 7.755967e-01 1.370443e+00 1.014223e+00 1.824910e+00 1.801018e-01 7.724875e-05 1.077819e-02 9.835983e-02 1.167604e-01 9.050288e-02 2.670700e-01 6.733825e-02 2.133532e-01 3.647410e-01 6.336050e-02 3.278445e-01 1.370210e-01 1.969483e-01 2.502118e-05
<GCONST> 4.340097e+01
<MIXTURE> 4 9.088662e-02
<MEAN> 39
 4.014463e-01 1.723169e+01 1.038504e+00 -4.171565e-02 -7.188960e+00 -1.811203e+00 -1.371389e+01 3.420118e+00 -3.348245e+00 -2.299519e+00 3.423542e+00 -4.284304e+00 7.475131e-01 -6.584828e-01 7.670172e-01 -1.094688e-03 -1.863310e-01 -1.676753e-01 2.459782e-01 -4.353420e-01 3.798248e-01 -2.909624e-01 -6.135155e-01 2.137937e-01 -1.082755e-01 2.493702e-02 -4.945048e-04 -3.824178e-01 8.692105e-02 -1.536846e-01 4.580356e-02 -1.443612e-01 3.054672e-01 -2.499482e-01 9.654959e-02 3.306991e-02 -3.728367e-03 9.724824e-02 -1.996804e-03
<VARIANCE> 39
 8.677241e+00 2.875265e+01 1.436919e+01 1.728869e+01 2.046906e+01 1.723201e+01 2.399043e+01 1.732237e+01 1.867842e+01 2.011870e+01 1.350746e+01 7.031674e+00 6.160214e-03 8.902773e-01 1.224650e+00 9.529418e-01 1.524081e+00 8.313458e-01 8.552616e-01 1.507845e+00 1.971857e+00 1.312591e+00 1.184404e+00 8.968247e-01 7.357765e-01 3.615945e-04 1.540161e-01 1.773183e-01 1.960310e-01 2.392330e-01 1.802799e-01 1.660454e-01 1.874575e-01 2.985409e-01 2.462585e-01 2.186398e-01 1.844091e-01 1.695151e-01 3.194620e-05
<GCONST> 6.351824e+01
<MIXTURE> 5 6.011426e-02
<MEAN> 39
 3.713912e+00 1.711185e+01 -1.637436e+00 9.384177e-01 -6.758830e+00 -4.926289e+00 1.403597e+00 1.754661e+00 1.293237e+00 3.616228e+00 -1.188614e+00 7.464676e+00 7.201127e-01 -4.095906e-01 1.072759e-02 -9.234102e-01 -8.540421e-01 -8.501771e-01 -3.225843e-01 -1.071097e+00 -1.019919e+00 -1.577803e+00 -2.135640e+00 -1.935332e+00 -9.423815e-01 3.963448e-02 -4.434868e-01 -6.325482e-01 -2.106438e-01 -1.455601e-01 2.098161e-01 -1.624764e-01 -1.068112e-01 -1.893827e-01 -1.031461e-01 -3.699034e-01 -1.694998e-01 -4.417690e-01 -2.646091e-03
<VARIANCE> 39
 7.797211e+00 9.391354e+00 1.194136e+01 1.210501e+01 1.026287e+01 1.902402e+01 1.745690e+01 2.841695e+01 1.856469e+01 2.500415e+01 1.481557e+01 1.881648e+01 6.488223e-03 6.389181e-01 1.008034e+00 7.766607e-01 9.876068e-01 1.075263e+00 1.139327e+00 1.194766e+00 1.351652e+00 1.605728e+00 2.022919e+00 1.993579e+00 1.812591e+00 2.119433e-04 5.291390e-02 2.693520e-01 1.379666e-01 1.275386e-01 2.449929e-01 2.260217e-01 2.565580e-01 4.433357e-01 3.101237e-01 3.435111e-01 4.497317e-01 4.517506e-01 1.309194e-04
<GCONST> 6.700665e+01
<MIXTURE> 6 5.572562e-02
<MEAN> 39
 2.972025e+00 1.151412e+01 -3.195122e+00 -3.668921e+00 -8.060494e+00 -7.643217e+00 -7.083884e+00 -8.147875e-01 -3.507913e+00 -4.005049e+00 -3.061221e+00 -6.745754e+00 7.265551e-01 -9.042925e-01 1.424374e+00 -4.130081e-01 -4.406781e-01 -2.414172e-01 -2.640196e-01 -5.231597e-01 3.514334e-01 -5.721962e-01 -4.826375e-01 3.668724e-01 -3.054338e-01 6.838115e-02 -5.404671e-01 -6.490151e-01 3.103357e-01 4.880496e-01 6.997030e-01 8.745219e-01 7.328355e-01 3.546914e-01 5.061834e-01 5.152071e-01 6.340362e-01 1.066278e+00 -2.427587e-02
<VARIANCE> 39
 1.291121e+01 4.001473e+01 1.404198e+01 2.530886e+01 2.120148e+01 2.334552e+01 6.191409e+01 2.354191e+01 2.030751e+01 4.383895e+01 3.264170e+01 3.506910e+01 1.107672e-02 9.700679e-01 2.323542e+00 1.515357e+00 2.442986e+00 2.006985e+00 1.815766e+00 2.887758e+00 3.595045e+00 2.593130e+00 1.736761e+00 7.329197e+00 1.034556e+01 1.017908e-03 1.456389e-01 3.509263e-01 1.950638e-01 4.152493e-01 2.599071e-01 3.444236e-01 4.433890e-01 3.157981e-01 4.241250e-01 5.117060e-01 4.635474e-01 5.806838e-01 4.918781e-04
<GCONST> 9.099255e+01
<MIXTURE> 7 1.086804e-01
<MEAN> 39
 -9.631006e-01 1.510625e+01 1.241721e+00 -2.104703e+00 -4.510021e+00 -4.624943e+00 -1.104391e+01 -2.876867e-01 -7.012166e-01 -2.166566e+00 5.374907e+00 -3.567637e+00 8.218792e-01 -2.607817e-01 8.403413e-01 -2.438432e-01 4.795063e-01 -5.267021e-01 -7.674199e-02 -5.662298e-01 -6.599209e-02 -7.517060e-01 -3.858033e-01 7.292358e-02 -2.881265e-01 1.838595e-02 6.468426e-02 -3.194335e-01 9.443104e-02 -2.279725e-01 -5.069687e-02 8.343194e-02 3.568561e-01 6.362109e-02 9.597041e-02 6.061171e-02 -2.349188e-01 1.616670e-01 -1.867322e-03
<VARIANCE> 39
 7.786903e+00 2.748546e+01 2.785633e+01 2.137854e+01 1.236983e+01 1.994000e+01 1.463908e+01 2.329688e+01 2.347544e+01 2.842749e+01 1.893229e+01 9.514036e+00 5.266876e-03 4.010396e-01 5.334808e-01 6.210480e-01 8.759619e-01 6.662809e-01 9.046530e-01 1.269563e+00 1.057955e+00 1.530463e+00 1.065915e+00 1.117100e+00 1.064480e+00 2.914003e-04 4.941202e-02 1.258627e-01 1.064260e-01 1.768449e-01 1.443516e-01 1.364546e-01 1.652274e-01 1.378789e-01 1.883426e-01 3.136683e-01 2.046503e-01 1.396623e-01 3.344038e-05
<GCONST> 5.793152e+01
<MIXTURE> 8 9.293804e-02
<MEAN> 39
 3.103610e-01 1.377490e+01 -1.656142e+00 -6.470107e-01 -6.166870e+00 -8.130115e+00 -9.544320e+00 3.697201e+00 -6.082611e+00 3.779756e+00 -3.060234e+00 -2.136083e+00 7.868096e-01 -2.395525e-01 8.027782e-01 1.424910e-01 6.274270e-02 -3.745945e-01 -4.000791e-01 -5.986019e-01 -2.473966e-01 2.578187e-02 3.083677e-01 -6.456637e-01 -1.580250e-01 1.238968e-02 -4.134881e-03 -1.172767e-01 -3.634874e-02 -1.911366e-01 1.397449e-01 2.164539e-01 3.912166e-01 -9.836589e-02 1.456411e-01 -2.682809e-01 2.357712e-01 1.232698e-01 8.125164e-04
<VARIANCE> 39
 8.112053e+00 1.997169e+01 1.328449e+01 2.233278e+01 1.845590e+01 1.242217e+01 2.411720e+01 3.817323e+01 3.940055e+01 2.330359e+01 4.642140e+01 4.097838e+01 4.483842e-03 4.409252e-01 8.451110e-01 8.581292e-01 8.227532e-01 1.196855e+00 1.897088e+00 1.613791e+00 1.520527e+00 1.742006e+00 1.824035e+00 1.400529e+00 1.486748e+00 1.559204e-04 4.622963e-02 8.870732e-02 1.513220e-01 2.166945e-01 2.418919e-01 2.665082e-01 2.764507e-01 3.489307e-01 2.478389e-01 2.446491e-01 3.371961e-01 4.347779e-01 1.058261e-05
<GCONST> 6.701555e+01
<MIXTURE> 9 5.151786e-02
<MEAN> 39
 2.959954e+00 9.363666e+00 -8.472200e-01 -2.507739e+00 -2.484510e+00 -2.031727e+00 4.535447e+00 2.963227e+00 2.090987e+00 2.401167e+00 -1.209545e+00 2.503375e+00 7.585227e-01 -6.924359e-01 1.017484e-01 -7.951400e-01 -2.583621e-01 -6.062270e-01 -1.017673e+00 -1.041890e+00 -8.024518e-01 -9.713060e-01 -1.101550e+00 -1.208410e+00 -4.109393e-01 4.954302e-02 -3.315293e-01 -4.134144e-01 -8.368928e-02 9.336523e-02 6.780255e-03 -1.828718e-01 -4.290600e-01 -3.128026e-01 -2.444571e-01 -7.215682e-02 1.001988e-01 -4.458661e-02 -4.737439e-03
<VARIANCE> 39
 6.260412e+00 2.833775e+01 1.902364e+01 5.843665e+00 8.944147e+00 1.805619e+01 1.017567e+01 1.814145e+01 1.252276e+01 2.405613e+01 2.136920e+01 2.173922e+01 8.335353e-03 1.006065e+00 4.963231e-01 7.342723e-01 4.839455e-01 1.171897e+00 8.047213e-01 1.392990e+00 7.061554e-01 1.180089e+00 1.184899e+00 1.243235e+00 1.006841e+00 3.991269e-04 8.509819e-02 1.650785e-01 8.120668e-02 7.246100e-02 1.985640e-01 1.512934e-01 1.962700e-01 1.689578e-01 2.011127e-01 2.891058e-01 2.610137e-01 1.563519e-01 9.362781e-05
<GCONST> 5.822827e+01
<MIXTURE> 10 9.794219e-02
<MEAN> 39
 -1.377766e-01 1.336136e+01 -3.442461e+00 -4.957566e-01 -4.806881e+00 -4.613450e+00 -2.707058e-01 -1.391808e-01 -1.766819e+00 6.008857e-01 -4.622329e+00 4.993468e+00 8.158041e-01 -9.328365e-01 -6.899477e-01 -8.865586e-01 -3.654932e-01 -1.117215e+00 -1.377155e+00 -1.754800e+00 -1.612880e+00 -1.255396e+00 -1.247590e+00 -1.074770e+00 -5.363781e-01 2.947401e-02 5.682795e-02 -2.383630e-01 -7.946314e-02 -1.583038e-01 -9.261602e-02 -1.312935e-01 -8.440499e-02 -1.603475e-01 -1.153012e-01 -9.512960e-02 -3.916449e-03 -1.147819e-01 -4.671528e-03
<VARIANCE> 39
 1.485323e+01 2.236350e+01 1.278333e+01 1.315679e+01 8.040262e+00 8.877642e+00 1.326524e+01 3.059294e+01 1.992236e+01 2.621185e+01 1.674516e+01 1.388671e+01 6.575029e-03 3.992113e-01 3.785346e-01 5.607277e-01 8.358868e-01 9.031259e-01 1.081799e+00 9.918487e-01 1.006399e+00 1.350596e+00 1.077783e+00 1.757712e+00 2.185070e+00 2.806238e-04 4.717160e-02 5.121421e-02 1.155398e-01 1.519443e-01 1.371774e-01 1.663257e-01 1.915555e-01 2.032837e-01 2.282434e-01 1.834767e-01 2.482330e-01 2.391680e-01 4.212784e-05
<GCONST> 5.726861e+01
<MIXTURE> 11 6.982626e-02
<MEAN> 39
 1.628674e-01 1.149884e+01 3.258191e-01 -4.039352e+00 -7.111243e+00 -2.170261e+00 -8.011663e+00 1.244565e+00 -1.025409e+00 -3.757135e+00 3.778184e+00 -2.919433e+00 8.079873e-01 -9.815573e-01 1.026330e+00 -2.318812e-01 -6.585471e-01 -3.692447e-01 -2.010022e-01 -8.151603e-01 -3.457175e-01 -2.056209e-01 -6.801682e-01 6.271058e-01 -7.090008e-01 5.695182e-02 -1.520781e-01 -1.046476e+00 4.178713e-02 4.902592e-01 5.544391e-01 1.853349e-01 7.291992e-01 -1.423327e-01 2.274192e-01 2.588239e-01 -3.169914e-01 3.353797e-01 -3.718558e-02
<VARIANCE> 39
 7.637057e+00 5.471140e+01 1.472762e+01 1.739952e+01 2.509236e+01 2.642599e+01 2.218405e+01 2.214948e+01 1.962779e+01 1.774920e+01 2.390375e+01 1.559800e+01 6.056677e-03 5.199425e-01 1.855507e+00 1.231774e+00 1.828707e+00 1.867791e+00 2.147576e+00 1.317452e+00 3.740194e+00 2.281638e+00 2.051888e+00 2.096143e+00 1.336309e+00 3.213688e-04 1.259737e-01 3.711607e-01 2.234384e-01 2.533524e-01 4.393879e-01 3.443364e-01 3.608176e-01 2.968903e-01 2.274800e-01 2.211235e-01 3.410701e-01 2.296701e-01 2.895573e-04
<GCONST> 7.717094e+01
<MIXTURE> 12 1.034061e-01
<MEAN> 39
 -1.531208e-01 1.092198e+01 -3.963217e+00 -3.136581e+00 -4.997570e+00 -4.332372e+00 8.121846e-01 1.418277e+00 -1.046727e+00 2.364804e+00 -1.760142e+00 4.629204e+00 8.139356e-01 -1.174371e+00 -5.982460e-02 -7.652844e-01 -1.336904e-01 -4.755124e-01 -9.100521e-01 -1.203992e+00 -1.542973e+00 -1.842328e+00 -1.527259e+00 -1.305742e+00 -2.423391e-01 6.300750e-02 -2.178558e-01 -8.723837e-01 5.946509e-01 7.080645e-01 6.738470e-01 7.215405e-01 -2.464911e-02 2.687475e-01 3.636849e-01 1.453193e-01 3.590052e-01 -2.256964e-01 -4.008006e-02
<VARIANCE> 39
 1.456345e+01 4.893840e+01 1.959422e+01 1.510068e+01 2.004370e+01 2.314859e+01 2.518638e+01 2.917938e+01 2.384988e+01 2.400832e+01 2.774234e+01 3.297117e+01 7.805968e-03 9.036546e-01 7.294332e-01 8.399232e-01 1.058131e+00 1.213264e+00 1.516834e+00 1.894438e+00 2.151618e+00 1.846504e+00 1.835445e+00 2.962293e+00 3.227182e+00 5.753376e-04 1.824813e-01 3.381437e-01 2.338034e-01 2.127258e-01 2.806604e-01 3.894449e-01 3.644774e-01 3.229670e-01 3.077770e-01 3.435792e-01 3.622912e-01 4.678790e-01 3.089358e-04
<GCONST> 8.024621e+01
<MIXTURE> 13 1.333822e-01
<MEAN> 39
 -1.744599e+00 1.121484e+01 -1.860376e+00 -3.526627e+00 -7.304381e+00 -8.126498e+00 -3.999999e+00 -2.919678e+00 -2.433941e+00 -5.241575e+00 -8.798366e-01 -1.865284e+00 8.415216e-01 7.380688e-02 9.250489e-01 -2.053083e-01 1.330744e+00 -8.625758e-01 6.278048e-01 -6.423118e-01 -2.821146e-01 -7.674773e-01 -4.083628e-01 2.894251e-02 6.985725e-02 2.461736e-03 1.351001e-01 -2.731008e-01 2.352871e-01 -2.889322e-01 3.835864e-01 3.316416e-01 7.746175e-02 3.666244e-01 2.849973e-01 4.625201e-01 -2.661254e-02 1.279343e-01 1.765199e-03
<VARIANCE> 39
 1.393292e+01 2.614352e+01 3.163213e+01 2.276545e+01 2.427610e+01 3.991447e+01 3.776722e+01 3.190117e+01 3.940282e+01 3.634452e+01 4.653161e+01 3.761541e+01 6.726376e-03 3.302649e-01 7.644387e-01 1.216888e+00 1.320292e+00 1.423544e+00 1.608645e+00 1.981656e+00 2.320345e+00 2.039536e+00 3.047696e+00 2.271131e+00 2.747171e+00 1.416155e-04 5.822448e-02 1.373219e-01 2.003093e-01 2.272541e-01 3.024693e-01 4.741260e-01 3.539868e-01 3.743791e-01 4.781349e-01 3.497665e-01 3.146782e-01 3.543044e-01 9.197688e-06
<GCONST> 7.664470e+01
<STATE> 4
<NUMMIXES> 13
<MIXTURE> 1 3.890522e-02
<MEAN> 39
 -3.167161e+00 1.019922e+01 -6.734814e+00 -4.024158e+00 -7.861364e+00 -6.411271e+00 4.177234e-01 -1.285519e+00 3.390632e+00 5.916301e+00 9.066481e+00 1.294869e+01 8.798499e-01 -4.600821e-01 1.068656e-01 1.505853e-01 5.031679e-01 8.177342e-02 9.579108e-02 -8.719280e-01 -2.275931e-01 8.033065e-01 1.746658e+00 2.517578e+00 2.003842e+00 2.772039e-02 4.931355e-01 1.409394e-01 3.117418e-01 2.664738e-01 3.511737e-01 3.138194e-01 4.013276e-01 4.555555e-01 1.164260e-01 -3.827371e-01 -8.296397e-01 -9.956418e-01 -1.402859e-02
<VARIANCE> 39
 2.440545e+01 2.599762e+01 2.192956e+01 1.561934e+01 2.397114e+01 2.247371e+01 2.351607e+01 3.578666e+01 7.002909e+01 6.552554e+01 3.452862e+01 7.309023e+01 3.604988e-03 6.128423e-01 5.846837e-01 8.763013e-01 7.290185e-01 1.328125e+00 1.051615e+00 1.651887e+00 1.256417e+00 2.990716e+00 3.885403e+00 2.546752e+00 3.472690e+00 1.573483e-04 9.886327e-02 1.183860e-01 1.815591e-01 1.487674e-01 2.474420e-01 2.549889e-01 3.503622e-01 3.349172e-01 5.546896e-01 8.040520e-01 5.454267e-01 5.607904e-01 1.161998e-04
<GCONST> 7.907812e+01
<MIXTURE> 2 1.442536e-01
<MEAN> 39
 -2.821579e-01 1.406627e+01 -1.144215e+00 -1.114869e+00 -6.231221e+00 -6.505154e+00 -5.909139e+00 -5.702039e-03 -2.496194e+00 -1.156213e+00 5.300356e-01 -9.578972e-01 8.322831e-01 2.089570e-01 7.343884e-01 -9.954770e-02 4.949965e-01 -5.425107e-02 3.127624e-01 -1.090548e-01 4.244785e-02 -5.078280e-02 8.161322e-02 9.810243e-02 1.304973e-01 2.480860e-03 -5.567102e-02 -1.986564e-01 -6.632183e-02 -2.611343e-01 9.491672e-02 -8.116794e-02 -1.927565e-02 -1.620055e-02 7.099482e-02 -3.550174e-02 -5.397183e-02 6.159403e-03 6.697981e-04
<VARIANCE> 39
 7.806476e+00 2.294754e+01 1.811151e+01 1.892765e+01 1.795500e+01 2.121486e+01 3.309042e+01 2.833645e+01 2.881288e+01 3.193609e+01 5.375956e+01 3.587919e+01 6.080331e-03 1.356914e-01 3.489560e-01 4.901337e-01 6.936724e-01 6.924859e-01 9.428121e-01 1.123080e+00 1.055776e+00 1.044536e+00 1.071494e+00 1.150914e+00 1.530340e+00 6.114411e-05 2.335077e-02 5.360612e-02 1.021734e-01 1.433801e-01 1.460821e-01 2.090068e-01 1.737556e-01 1.880209e-01 2.482865e-01 2.233289e-01 1.935025e-01 2.080277e-01 4.600990e-06
<GCONST> 5.515550e+01
<MIXTURE> 3 3.519327e-02
<MEAN> 39
 -3.678608e+00 1.095809e+01 -1.630457e+00 -2.177126e+00 -2.485249e+00 -5.685515e+00 -6.540910e-01 -9.704542e-01 4.025876e+00 5.980366e+00 1.100350e+01 1.065968e+01 9.585397e-01 5.253704e-02 -3.100638e-02 -1.746365e-02 -2.846466e-02 9.353817e-02 3.069649e-02 5.229184e-02 1.073061e-01 4.879686e-03 5.483603e-02 -2.730142e-02 -1.419330e-01 -1.253344e-03 5.678094e-03 -4.752043e-03 -5.465612e-03 -7.229462e-03 4.123499e-03 -2.426767e-02 -9.921538e-03 3.331551e-02 -1.781001e-02 5.876705e-03 -2.085990e-02 -5.840098e-04 -4.958779e-04
<VARIANCE> 39
 1.274816e+00 3.492822e+00 3.809192e+00 3.937165e+00 6.400974e+00 1.114188e+01 2.028497e+00 1.825302e+00 6.630353e+00 1.594587e+01 1.006956e+01 2.762636e+00 8.178990e-04 4.926545e-02 1.950312e-01 1.987557e-01 1.665627e-01 1.672794e-01 1.555661e-01 1.114285e-01 1.178889e-01 9.666917e-02 8.998173e-02 9.477455e-02 1.420692e-01 3.754082e-05 6.633639e-03 2.199310e-02 1.885715e-02 2.020746e-02 1.970663e-02 1.549873e-02 1.902789e-02 1.541459e-02 1.871171e-02 1.378552e-02 1.331799e-02 2.665615e-02 3.730629e-06
<GCONST> -1.458248e+01
<MIXTURE> 4 1.144659e-01
<MEAN> 39
 -2.139208e+00 9.529528e+00 -3.204965e+00 -1.633143e+00 -4.632079e+00 -4.756291e+00 -3.534086e+00 -1.299931e+00 -4.724663e+00 -1.180575e+00 -2.917503e+00 3.060627e+00 8.817446e-01 -1.412075e-01 -5.984559e-02 2.068942e-01 6.425036e-01 3.460173e-01 -1.117743e-01 -5.120820e-01 -5.280818e-01 -3.438443e-01 -2.986635e-01 -3.019936e-01 1.076799e-01 2.543979e-02 3.054984e-01 2.380183e-02 1.429481e-01 6.165765e-02 1.208556e-01 1.434183e-01 3.181583e-01 3.564364e-01 4.575687e-01 3.414508e-01 2.878704e-01 2.797184e-04 -9.335786e-03
<VARIANCE> 39
 8.101666e+00 4.152000e+01 1.105998e+01 1.655384e+01 1.258811e+01 2.482678e+01 2.232805e+01 2.385065e+01 1.916179e+01 2.071520e+01 2.012780e+01 2.923931e+01 5.278118e-03 3.933014e-01 3.244672e-01 3.480847e-01 6.201853e-01 5.482721e-01 6.810638e-01 1.002025e+00 9.268049e-01 7.766092e-01 1.055896e+00 1.229722e+00 1.282599e+00 1.201369e-04 5.908706e-02 7.691029e-02 9.510798e-02 1.281612e-01 9.945972e-02 1.797303e-01 1.242585e-01 1.629241e-01 1.526806e-01 1.756320e-01 2.500700e-01 2.191802e-01 3.004328e-05
<GCONST> 5.376369e+01
<MIXTURE> 5 1.018249e-01
<MEAN> 39
 -2.229897e+00 1.799100e+01 1.746318e-01 -3.273828e+00 -3.510700e+00 -5.588672e+00 -8.518857e+00 -1.427509e+00 4.530745e-01 -5.246489e+00 7.579130e+00 -3.793068e+00 8.784114e-01 8.290262e-03 5.825099e-02 5.613843e-02 -7.460547e-02 -1.421283e-02 -2.485952e-02 -6.225499e-03 5.625672e-02 7.128555e-02 7.263497e-02 -1.007957e-01 6.622880e-03 1.145901e-03 1.554587e-02 -2.872722e-02 3.698362e-02 -1.497455e-02 -2.686964e-02 -6.838834e-03 -6.286246e-03 4.509778e-02 3.622101e-02 -4.424440e-03 -3.425759e-02 3.759086e-02 -9.142433e-04
<VARIANCE> 39
 4.741656e+00 1.818595e+01 7.513439e+00 4.470504e+00 6.696336e+00 1.399407e+01 3.568970e+00 9.207489e+00 6.921255e+00 7.508517e+00 6.044488e+00 3.487899e+00 3.338757e-03 4.206408e-02 9.412552e-02 1.271284e-01 1.502898e-01 1.506807e-01 1.513099e-01 9.503732e-02 1.629951e-01 1.464325e-01 1.862573e-01 1.026641e-01 9.874679e-02 3.754082e-05 7.528992e-03 1.536242e-02 1.574641e-02 2.108291e-02 2.214326e-02 2.622862e-02 2.213001e-02 2.502213e-02 2.098333e-02 2.677462e-02 1.737601e-02 1.284453e-02 3.730629e-06
<GCONST> -7.259474e+00
<MIXTURE> 6 7.541476e-02
<MEAN> 39
 -1.868742e+00 1.596708e+01 3.599136e-01 -3.164537e+00 -5.659438e+00 -4.116769e+00 -9.845626e+00 1.839475e-01 -1.521870e+00 -4.915201e+00 5.955451e+00 -3.856076e+00 8.476363e-01 -3.678339e-01 3.559130e-01 -8.632144e-02 2.356658e-01 4.894267e-02 1.406658e-01 -3.420060e-02 -4.124861e-03 -1.059802e-01 -2.846846e-01 5.447263e-02 -1.622190e-01 1.521610e-02 1.298458e-01 -1.392082e-01 3.990231e-02 -6.005172e-02 9.357909e-02 -6.580527e-02 6.039651e-02 3.847145e-03 7.134740e-02 1.224297e-01 -1.131348e-01 1.003310e-01 -3.578477e-03
<VARIANCE> 39
 7.997487e+00 2.327852e+01 7.855820e+00 9.725721e+00 1.643848e+01 1.226491e+01 1.107192e+01 1.367443e+01 2.127534e+01 2.000522e+01 9.199795e+00 5.449469e+00 5.485687e-03 3.154318e-01 1.435013e-01 2.246429e-01 3.561143e-01 3.801763e-01 3.521370e-01 5.399627e-01 4.707121e-01 6.921119e-01 4.232758e-01 5.237418e-01 4.585966e-01 1.428417e-04 6.071851e-02 3.998218e-02 4.645161e-02 6.484580e-02 7.227857e-02 6.108209e-02 5.730024e-02 7.765998e-02 9.622931e-02 7.690166e-02 6.839509e-02 7.086210e-02 1.959071e-05
<GCONST> 3.207965e+01
<MIXTURE> 7 5.863130e-02
<MEAN> 39
 -9.503034e-01 1.346031e+01 -5.337000e+00 -3.470292e+00 -8.927423e+00 -9.379108e+00 -3.685394e+00 -1.927382e+00 -4.907035e+00 -3.169138e+00 -7.590343e+00 -1.087077e+00 8.358461e-01 -4.937353e-01 -8.011516e-02 3.917971e-02 3.045113e-01 -5.130963e-02 -2.590550e-03 -1.059482e-01 -4.009966e-01 -4.886236e-01 -9.812076e-01 -1.408857e+00 -6.531784e-01 2.791792e-02 2.016701e-01 -2.956003e-02 3.754747e-01 4.512127e-01 6.063417e-01 5.594063e-01 3.634457e-01 4.688396e-01 6.304432e-01 6.947944e-01 8.136460e-01 5.920852e-01 -1.350049e-02
<VARIANCE> 39
 1.397513e+01 4.117413e+01 1.299617e+01 2.455222e+01 1.393806e+01 1.871717e+01 2.208616e+01 1.567111e+01 3.350817e+01 2.683195e+01 3.912764e+01 3.744133e+01 1.406060e-02 8.778789e-01 7.691482e-01 6.461461e-01 1.082719e+00 1.122566e+00 9.740523e-01 1.330804e+00 1.345919e+00 1.120999e+00 1.373454e+00 3.097495e+00 4.011829e+00 4.709468e-04 1.742533e-01 1.474744e-01 1.692251e-01 1.541409e-01 1.536614e-01 2.481959e-01 2.711721e-01 2.193708e-01 3.050571e-01 2.712497e-01 5.022169e-01 4.860949e-01 3.065989e-04
<GCONST> 7.485971e+01
<MIXTURE> 8 9.913117e-02
<MEAN> 39
 -1.662582e+00 1.194887e+01 -5.186025e+00 -1.797893e+00 -7.924414e+00 -7.737272e+00 -3.292034e+00 -3.399120e+00 -4.298140e+00 -2.098273e+00 -7.050876e+00 3.695459e+00 8.523729e-01 -6.580917e-01 -7.823991e-01 -9.106570e-01 -4.536288e-01 -9.621986e-01 -1.215969e+00 -1.560897e+00 -1.614836e+00 -1.294555e+00 -1.272121e+00 -9.534525e-01 -6.044649e-01 2.230637e-02 2.903785e-01 1.277485e-01 2.635524e-01 1.475426e-01 3.368806e-01 3.192487e-01 3.747152e-01 3.918979e-01 3.974662e-01 3.739176e-01 3.979359e-01 1.335683e-01 -6.244910e-03
<VARIANCE> 39
 1.306337e+01 2.288513e+01 1.615714e+01 1.392276e+01 8.578511e+00 1.267150e+01 1.886033e+01 2.922719e+01 1.790993e+01 2.159622e+01 1.387382e+01 1.997587e+01 6.605437e-03 3.623561e-01 4.415427e-01 5.138217e-01 7.190462e-01 8.109718e-01 7.638769e-01 6.631213e-01 1.288075e+00 9.427450e-01 1.428585e+00 1.898880e+00 1.913114e+00 1.278234e-04 5.682779e-02 7.573752e-02 8.352555e-02 1.307478e-01 1.101795e-01 1.378838e-01 2.288067e-01 1.979776e-01 1.937712e-01 2.543952e-01 2.012109e-01 2.204674e-01 2.592488e-05
<GCONST> 5.558231e+01
<MIXTURE> 9 4.957787e-02
<MEAN> 39
 -6.027362e+00 1.474849e+01 2.558125e+00 -6.355045e-01 -6.109704e+00 -3.468975e+00 -8.405406e+00 1.066422e-01 1.069911e+00 -8.818565e+00 5.336193e+00 -3.025309e+00 9.233103e-01 2.555838e-03 6.575927e-02 -4.781666e-02 6.814290e-02 8.323988e-02 -1.787941e-02 -7.916118e-03 4.429733e-02 -6.442917e-02 1.759901e-01 -3.004280e-02 6.465156e-02 -1.278815e-04 3.082173e-02 -4.557590e-02 -1.003928e-02 -4.228537e-02 5.727059e-02 -2.638774e-02 2.196819e-02 -6.900687e-02 -2.388221e-02 7.956214e-02 4.268752e-02 7.014257e-02 -1.374973e-03
<VARIANCE> 39
 1.480983e+01 2.595160e+01 7.650987e+00 7.635581e+00 6.971676e+00 9.166524e+00 5.003426e+00 2.187986e+01 5.262293e+00 1.786288e+01 8.546662e+00 7.712742e+00 5.390143e-03 8.698950e-02 9.040598e-02 8.728105e-02 8.913753e-02 2.083153e-01 1.532240e-01 1.109571e-01 1.697947e-01 2.455599e-01 1.547694e-01 9.370517e-02 2.540994e-01 3.754082e-05 1.146587e-02 2.181735e-02 2.775936e-02 1.197797e-02 3.201165e-02 2.559855e-02 2.036442e-02 4.043876e-02 4.010982e-02 3.865333e-02 2.994862e-02 5.589255e-02 3.730629e-06
<GCONST> 3.870445e+00
<MIXTURE> 10 7.467669e-02
<MEAN> 39
 -1.671475e+00 1.895176e+01 2.455673e-01 -2.118026e+00 -4.333421e+00 -4.640864e+00 -1.261550e+01 2.141932e+00 -3.700593e+00 -1.690931e+00 3.455880e+00 -3.928647e+00 8.202321e-01 -9.359262e-02 1.408466e-02 -1.214472e-01 -1.313011e-01 1.032083e-01 -9.641453e-02 1.068581e-01 -2.369956e-01 1.414325e-02 -1.446783e-01 3.515236e-02 8.835129e-02 3.415730e-03 7.771231e-03 -4.033152e-04 -7.868147e-04 -3.401190e-02 -2.015025e-02 -7.848526e-03 5.000296e-02 4.623027e-02 -3.923136e-04 -1.593859e-02 2.093784e-02 2.706193e-02 -1.210332e-03
<VARIANCE> 39
 8.578202e-01 8.281428e+00 3.170234e+00 4.327077e+00 1.176639e+01 1.345039e+01 8.886853e+00 6.868691e+00 2.537509e+01 1.556416e+01 7.367963e+00 9.529788e+00 1.336862e-03 4.523234e-02 6.190580e-02 6.438567e-02 9.096822e-02 1.000136e-01 1.133321e-01 1.491405e-01 1.675989e-01 2.779846e-01 2.051143e-01 1.850575e-01 1.538976e-01 3.754082e-05 7.696841e-03 1.617780e-02 1.313407e-02 2.257314e-02 2.381221e-02 2.700057e-02 3.492993e-02 2.785121e-02 6.802128e-02 2.935364e-02 3.056176e-02 3.113745e-02 3.730629e-06
<GCONST> -3.826817e+00
<MIXTURE> 11 7.642548e-02
<MEAN> 39
 -1.670488e+00 1.612839e+01 3.317157e-01 -3.642936e+00 -4.958140e+00 -4.638017e+00 -9.917482e+00 -2.728414e-01 -1.032003e+00 -5.489799e+00 6.467344e+00 -3.668248e+00 8.547813e-01 -2.291165e-01 3.622109e-01 -1.275297e-01 2.648230e-01 5.847840e-02 1.227117e-01 -3.594269e-02 -4.103246e-02 -2.639020e-01 -3.589197e-01 -1.142320e-02 -2.518343e-01 1.162827e-02 8.610795e-02 -1.392201e-01 5.137824e-02 -8.013313e-02 6.993062e-02 -3.214335e-02 6.101793e-02 1.722695e-02 8.919891e-02 1.337186e-01 -1.003168e-01 1.315739e-01 -2.358315e-03
<VARIANCE> 39
 6.651704e+00 1.844453e+01 8.159366e+00 1.317475e+01 1.705796e+01 1.054737e+01 9.117568e+00 1.441425e+01 1.898891e+01 2.294093e+01 8.904914e+00 6.088351e+00 5.569391e-03 1.977324e-01 1.571790e-01 2.061969e-01 3.676457e-01 4.017698e-01 3.898897e-01 5.342612e-01 4.363123e-01 6.605681e-01 4.356065e-01 5.882609e-01 5.567276e-01 1.115413e-04 3.517314e-02 4.346020e-02 4.029730e-02 6.465302e-02 7.109769e-02 5.583578e-02 5.915197e-02 7.427309e-02 8.842522e-02 8.035830e-02 6.784464e-02 7.950740e-02 1.902219e-05
<GCONST> 3.086118e+01
<MIXTURE> 12 3.850346e-02
<MEAN> 39
 -1.607375e+00 1.706609e+01 9.080887e-01 -3.433866e+00 -9.229449e+00 -4.909852e+00 -1.369954e+01 3.582480e+00 -9.515277e-01 -5.328168e+00 3.716719e+00 -7.250751e+00 8.184719e-01 -4.195096e-01 -1.717124e-01 -1.027306e-01 -1.794547e-01 -2.120901e-01 -7.043993e-01 -6.001574e-01 -5.182942e-01 -2.649643e-01 -5.197830e-01 -1.930134e-01 -6.911682e-01 9.886299e-03 7.089839e-02 -1.248157e-01 -7.630415e-03 4.746087e-02 9.883068e-02 6.667464e-02 7.813068e-02 -2.404540e-01 -8.479623e-02 1.816085e-01 4.031185e-02 1.470703e-01 -9.183240e-04
<VARIANCE> 39
 2.459918e+00 2.271359e+01 9.134787e+00 9.102859e+00 1.353291e+01 2.677968e+01 2.236431e+01 1.008088e+01 1.162913e+01 4.851279e+01 7.617812e+00 5.892539e+00 3.524941e-03 6.946772e-02 3.205979e-01 3.140735e-01 2.195190e-01 3.201919e-01 2.819736e-01 8.575804e-01 1.353482e+00 1.381132e+00 4.027284e-01 9.432243e-01 6.816214e-01 7.777160e-05 1.791498e-02 5.927145e-02 7.314514e-02 6.438648e-02 4.160538e-02 7.577563e-02 1.720329e-01 1.666329e-01 1.615463e-01 1.275098e-01 8.127512e-02 6.865923e-02 6.348364e-06
<GCONST> 3.414300e+01
<MIXTURE> 13 9.299491e-02
<MEAN> 39
 -8.609065e-01 1.250895e+01 -1.966464e+00 -3.011281e+00 -5.417248e+00 -3.392884e+00 -8.551552e+00 -5.392674e-01 -2.250144e+00 -2.990499e+00 2.374876e+00 -3.214455e+00 8.620942e-01 -4.370516e-01 3.570560e-01 4.113892e-02 2.679966e-01 1.202881e-02 1.657979e-01 4.129969e-01 -4.509276e-01 -1.448550e-01 -5.375981e-02 2.814803e-01 3.570178e-01 2.155967e-02 2.067878e-01 -2.693027e-01 1.154867e-01 1.790906e-01 2.097104e-01 8.168864e-02 3.601991e-01 1.034375e-01 2.628221e-01 2.658940e-01 -9.180970e-02 2.961623e-01 -9.236300e-03
<VARIANCE> 39
 1.218681e+01 4.617662e+01 2.809599e+01 1.987105e+01 2.670219e+01 3.953441e+01 3.307516e+01 4.169807e+01 3.707806e+01 3.597879e+01 3.937366e+01 2.889129e+01 5.031724e-03 4.946589e-01 1.024101e+00 1.225337e+00 1.236827e+00 1.971337e+00 1.734942e+00 1.759144e+00 2.716848e+00 2.546197e+00 2.240962e+00 1.846622e+00 2.355712e+00 2.204636e-04 7.280505e-02 2.038382e-01 1.690485e-01 3.073222e-01 3.090285e-01 3.245493e-01 3.040313e-01 5.863308e-01 4.814262e-01 2.642115e-01 3.403937e-01 2.488123e-01 1.050560e-04
<GCONST> 7.990456e+01
<STATE> 5
<NUMMIXES> 13
<MIXTURE> 1 6.399336e-02
<MEAN> 39
 -1.462653e+00 1.199370e+01 -6.183347e+00 -2.889742e+00 -9.514353e+00 -8.647409e+00 -5.443110e+00 -4.020231e+00 -5.193065e+00 -4.856905e+00 -7.244851e+00 -2.269859e-01 8.737110e-01 3.335473e-01 4.257898e-01 4.787566e-01 5.559064e-01 6.792138e-01 8.271613e-01 6.027294e-01 6.676940e-01 7.295836e-01 5.466008e-01 5.602900e-01 3.885727e-01 3.335448e-03 1.481130e-01 2.187661e-01 2.994366e-01 2.931933e-01 3.828692e-01 3.657242e-01 4.779182e-01 4.001049e-01 3.471956e-01 4.012040e-01 3.868032e-01 2.579627e-01 -1.794811e-03
<VARIANCE> 39
 1.268880e+01 2.336387e+01 1.205032e+01 1.416523e+01 1.302642e+01 1.838649e+01 1.840828e+01 2.655800e+01 2.261628e+01 2.560666e+01 1.988852e+01 3.359535e+01 8.115449e-03 1.163073e-01 2.202115e-01 2.089726e-01 4.313300e-01 3.577123e-01 5.847232e-01 6.417093e-01 4.387147e-01 4.063900e-01 6.000113e-01 5.407796e-01 5.245495e-01 5.775112e-05 1.828958e-02 3.963343e-02 4.075846e-02 7.374006e-02 6.427208e-02 1.018821e-01 7.262881e-02 8.077472e-02 1.252327e-01 1.100309e-01 1.283571e-01 1.150529e-01 6.582961e-06
<GCONST> 3.726316e+01
<MIXTURE> 2 4.254467e-02
<MEAN> 39
 -1.326436e+00 1.045675e+01 -5.468524e+00 -9.658889e-01 -5.688933e+00 -4.492265e+00 -1.256999e+00 -3.296385e+00 6.509244e-01 1.789058e+00 2.967183e+00 9.200902e+00 8.763499e-01 3.584537e-02 4.236081e-01 6.278323e-01 8.714791e-01 4.412792e-01 6.072506e-01 3.230532e-01 3.503338e-01 6.248623e-01 7.074098e-01 1.196068e+00 1.274290e+00 1.633022e-02 1.772231e-01 5.570315e-02 4.929613e-02 -6.090413e-02 -1.660368e-02 -6.631518e-02 2.307781e-01 3.479207e-01 1.029117e-01 -2.792938e-03 -1.937459e-01 -5.194132e-01 -5.779150e-03
<VARIANCE> 39
 1.913053e+01 4.168246e+01 2.154534e+01 1.547978e+01 2.477602e+01 2.419332e+01 2.420479e+01 2.187626e+01 3.766988e+01 4.762955e+01 8.984808e+01 7.080699e+01 9.180303e-03 6.273782e-01 1.009988e+00 9.601579e-01 1.089047e+00 1.599148e+00 2.180428e+00 2.723555e+00 1.600701e+00 2.358269e+00 2.469412e+00 1.941728e+00 3.312765e+00 1.192700e-04 6.487214e-02 9.087555e-02 1.022979e-01 1.114612e-01 1.786868e-01 1.436972e-01 2.018862e-01 2.384807e-01 1.973973e-01 2.658663e-01 6.431811e-01 4.765421e-01 5.133561e-05
<GCONST> 7.498459e+01
<MIXTURE> 3 1.039528e-01
<MEAN> 39
 -6.750482e-01 1.280326e+01 -5.569365e+00 -9.451636e-01 -7.048403e+00 -7.335992e+00 -3.148833e+00 -3.804419e+00 -3.454005e+00 -2.931157e+00 -5.997841e+00 2.276329e+00 8.703275e-01 2.985809e-01 4.648432e-01 4.587637e-01 6.288986e-01 6.979961e-01 6.286569e-01 6.959177e-01 6.691582e-01 6.200271e-01 5.444818e-01 5.357803e-01 3.506213e-01 4.361210e-04 -1.299851e-02 -1.003483e-02 1.879258e-02 -2.909999e-02 1.215749e-02 -4.726020e-02 5.459388e-02 1.433439e-02 -2.511393e-02 3.537541e-02 -1.535045e-02 -4.226619e-02 -1.232311e-03
<VARIANCE> 39
 1.594376e+01 1.931352e+01 9.699601e+00 1.566623e+01 1.135062e+01 1.982009e+01 1.425453e+01 2.614184e+01 1.921168e+01 1.865208e+01 1.438766e+01 2.354216e+01 9.035579e-03 7.724240e-02 1.595742e-01 2.402236e-01 2.893481e-01 3.492398e-01 4.468820e-01 4.517860e-01 4.475521e-01 3.759652e-01 4.713781e-01 4.693832e-01 3.904631e-01 3.754082e-05 1.464003e-02 2.985012e-02 4.410220e-02 5.906498e-02 7.160651e-02 7.637503e-02 7.057615e-02 8.511761e-02 8.315398e-02 6.790797e-02 7.490885e-02 7.601852e-02 3.730629e-06
<GCONST> 2.977856e+01
<MIXTURE> 4 8.722630e-02
<MEAN> 39
 -1.464500e+00 1.496042e+01 -2.177760e+00 -1.960906e+00 -4.728034e+00 -6.501947e+00 -5.264894e+00 -6.363907e-01 -2.321104e+00 -2.571036e+00 -9.023003e-01 -1.999497e-01 8.433611e-01 2.280601e-02 3.755333e-02 -5.373575e-02 -7.457304e-02 7.292917e-02 1.125297e-02 1.189640e-01 -8.379760e-02 8.529870e-02 -8.071611e-03 -3.758489e-02 3.081822e-02 -2.316164e-04 -8.405079e-04 -4.613003e-02 -1.975357e-02 -4.133650e-02 2.200036e-03 -5.121604e-02 -2.472066e-02 -3.782794e-02 -2.780901e-02 2.376617e-02 -3.313206e-03 -4.698563e-02 -9.606495e-04
<VARIANCE> 39
 8.237047e+00 2.027987e+01 1.621353e+01 1.237888e+01 1.589876e+01 2.387388e+01 2.896670e+01 2.026417e+01 2.033358e+01 3.015306e+01 3.630371e+01 3.006896e+01 9.814302e-03 4.831686e-02 7.904906e-02 9.163564e-02 1.724539e-01 1.794779e-01 2.418814e-01 2.190099e-01 2.213192e-01 2.431032e-01 2.554543e-01 2.219077e-01 2.795886e-01 3.754082e-05 6.807238e-03 1.405728e-02 2.022992e-02 2.512465e-02 3.630522e-02 4.018623e-02 3.381687e-02 5.134964e-02 5.167456e-02 4.067474e-02 3.405511e-02 4.664513e-02 3.730629e-06
<GCONST> 1.673976e+01
<MIXTURE> 5 8.327336e-02
<MEAN> 39
 -4.454218e-01 1.347953e+01 -1.668140e+00 -7.700325e-01 -4.391549e+00 -4.266181e+00 -3.272816e+00 4.429279e-01 -3.566931e+00 -9.075158e-01 -1.449616e+00 1.796199e+00 8.936359e-01 1.745233e-01 2.097403e-01 2.094798e-01 4.568805e-01 2.711199e-01 8.026009e-02 4.027576e-01 2.598384e-01 3.829407e-01 2.828690e-01 1.668157e-01 3.956088e-01 8.084687e-03 -1.988160e-02 -1.623088e-01 -1.203851e-01 -1.329806e-01 -1.057130e-01 -1.284505e-01 -1.479406e-01 -1.135217e-01 -5.447665e-03 -2.781136e-02 -6.258150e-02 -1.475105e-01 -3.295612e-03
<VARIANCE> 39
 1.423551e+01 3.189450e+01 9.352072e+00 1.193625e+01 1.633336e+01 2.549992e+01 2.689785e+01 2.416057e+01 1.902524e+01 2.394090e+01 3.552559e+01 3.564005e+01 3.745206e-03 1.838767e-01 3.920276e-01 5.128107e-01 4.201691e-01 7.043228e-01 7.822152e-01 9.571054e-01 8.963162e-01 8.544426e-01 8.739833e-01 9.226955e-01 8.619766e-01 6.970327e-05 4.521222e-02 7.592103e-02 1.001644e-01 9.324393e-02 1.463507e-01 1.320273e-01 1.794101e-01 1.897443e-01 1.892619e-01 1.785162e-01 2.213585e-01 1.402569e-01 1.048354e-05
<GCONST> 5.169022e+01
<MIXTURE> 6 4.232478e-02
<MEAN> 39
 -2.560596e+00 1.043393e+01 -7.657708e+00 -3.682824e+00 -1.031060e+01 -1.085623e+01 -6.655079e+00 -6.641751e+00 -7.192109e+00 -5.004364e+00 -7.827676e+00 1.812295e+00 8.876331e-01 -2.169069e-02 -1.614607e-01 -2.140653e-01 -7.395060e-02 -3.199072e-01 -2.646337e-01 -3.290815e-01 -4.687931e-01 -2.455728e-01 -4.984134e-01 -1.124644e-01 -3.868083e-02 9.738017e-03 2.835944e-01 3.052465e-01 4.334918e-01 3.750502e-01 5.727168e-01 6.385515e-01 6.782547e-01 6.656607e-01 6.160017e-01 4.976109e-01 4.915303e-01 2.543816e-01 -3.976536e-03
<VARIANCE> 39
 1.482189e+01 2.593471e+01 2.163039e+01 1.516546e+01 1.204187e+01 1.966466e+01 1.591795e+01 2.350788e+01 2.156665e+01 2.316835e+01 1.999333e+01 2.956191e+01 6.616566e-03 2.120470e-01 3.069805e-01 4.772463e-01 5.286282e-01 5.936121e-01 6.009063e-01 7.929068e-01 9.649664e-01 6.264904e-01 8.681142e-01 7.250808e-01 9.955391e-01 7.108101e-05 4.040237e-02 6.082878e-02 5.713294e-02 1.179885e-01 9.678187e-02 1.208632e-01 1.533884e-01 1.638922e-01 1.550731e-01 1.880735e-01 2.266241e-01 1.882853e-01 1.011033e-05
<GCONST> 4.916648e+01
<MIXTURE> 7 9.047859e-02
<MEAN> 39
 -1.330717e+00 1.411370e+01 -3.278034e+00 -1.903014e+00 -4.221074e+00 -8.224850e+00 -3.986242e+00 -7.527958e-01 -3.435523e+00 -1.869670e+00 -2.985941e+00 1.438174e+00 8.559949e-01 1.238958e-02 -7.306157e-03 -9.313041e-02 -1.052728e-01 7.778855e-05 -3.840797e-02 9.797827e-02 -1.167204e-01 1.457425e-02 -7.529000e-02 -6.334902e-02 1.597129e-02 3.332966e-05 5.111261e-03 -3.070722e-02 -1.579966e-02 -3.788214e-02 3.870702e-03 -2.187365e-02 -1.741275e-02 -2.695319e-02 -1.775007e-02 2.071866e-02 1.721556e-03 -3.029335e-02 -1.040630e-03
<VARIANCE> 39
 7.007185e+00 1.432128e+01 1.423503e+01 1.259164e+01 1.764422e+01 1.982646e+01 2.742547e+01 1.913044e+01 2.322474e+01 2.467475e+01 3.116243e+01 2.718332e+01 5.886569e-03 3.773126e-02 8.257545e-02 7.752382e-02 1.713810e-01 1.724534e-01 2.015392e-01 2.191274e-01 1.924364e-01 2.133631e-01 1.842159e-01 2.106267e-01 2.398369e-01 3.754082e-05 5.605174e-03 1.086573e-02 1.546782e-02 2.155479e-02 2.912008e-02 2.974488e-02 2.876715e-02 3.885221e-02 3.853485e-02 3.308981e-02 2.719748e-02 4.080104e-02 3.730629e-06
<GCONST> 1.099513e+01
<MIXTURE> 8 1.075341e-01
<MEAN> 39
 2.208373e-01 1.426525e+01 -3.869761e+00 3.526466e-01 -5.287279e+00 -5.611938e+00 -7.977801e-01 -1.222951e+00 -1.644784e+00 -2.109280e+00 -5.160505e+00 2.588362e+00 8.711468e-01 -9.095877e-02 -2.462562e-01 -4.205213e-01 -2.779494e-01 -4.230968e-01 -4.440922e-01 -2.846969e-01 -4.931778e-01 -3.906443e-01 -3.362711e-01 -3.107213e-01 -4.115295e-01 1.333952e-03 -1.001749e-01 -1.588820e-01 -2.062518e-01 -2.531367e-01 -2.526576e-01 -2.390153e-01 -2.417682e-01 -2.219508e-01 -2.110282e-01 -2.047269e-01 -1.594514e-01 -1.951902e-01 -1.024608e-03
<VARIANCE> 39
 1.701692e+01 2.055629e+01 1.156791e+01 1.332541e+01 1.274324e+01 2.276252e+01 1.391478e+01 2.695917e+01 1.701434e+01 2.098294e+01 1.408448e+01 2.471932e+01 7.113704e-03 7.931599e-02 1.998968e-01 2.728124e-01 3.549404e-01 3.658772e-01 4.170498e-01 5.378982e-01 4.344339e-01 5.026599e-01 6.146257e-01 5.297891e-01 4.407186e-01 3.754082e-05 1.420308e-02 3.857640e-02 4.521112e-02 4.922067e-02 6.497978e-02 9.422247e-02 1.086093e-01 7.933903e-02 7.827370e-02 8.117951e-02 8.278791e-02 8.604483e-02 3.730629e-06
<GCONST> 3.235344e+01
<MIXTURE> 9 8.489431e-02
<MEAN> 39
 -7.604426e-01 1.295096e+01 -1.513726e+00 -1.211667e+00 -4.174158e+00 -2.940013e+00 -5.221909e+00 -2.572910e-01 -4.448485e+00 -2.017568e+00 5.425882e-01 2.955978e-01 8.913054e-01 8.413429e-02 1.146675e-01 1.608102e-01 3.082218e-01 1.686008e-01 -4.889598e-02 3.058683e-01 1.648596e-01 4.210250e-01 7.626224e-02 2.546909e-02 2.370870e-01 8.288437e-03 1.026615e-02 -9.418069e-02 -4.964847e-02 -4.778370e-02 -4.163971e-02 -1.333682e-01 -1.150008e-01 -7.290939e-03 1.501124e-01 6.430085e-02 -5.642872e-02 -1.367171e-01 -3.031278e-03
<VARIANCE> 39
 1.063147e+01 3.195774e+01 1.268202e+01 1.051303e+01 2.199287e+01 3.338633e+01 3.044036e+01 2.591534e+01 2.167890e+01 2.650119e+01 3.927258e+01 3.101039e+01 3.663864e-03 1.769266e-01 4.179853e-01 5.884185e-01 5.416257e-01 8.173203e-01 8.554348e-01 1.032192e+00 9.895335e-01 1.014944e+00 8.950816e-01 9.794006e-01 8.270531e-01 5.567003e-05 3.720989e-02 6.791130e-02 8.868657e-02 9.904987e-02 1.664481e-01 1.372789e-01 1.647896e-01 1.962236e-01 2.186402e-01 1.484156e-01 2.118242e-01 1.393610e-01 9.962831e-06
<GCONST> 5.293624e+01
<MIXTURE> 10 4.812470e-02
<MEAN> 39
 -9.130198e-01 1.574958e+01 -7.360771e-01 -1.080172e+00 -8.044101e+00 -6.961358e+00 -8.152460e+00 -4.274669e-01 1.818877e+00 -3.921064e+00 1.442587e+00 -3.316443e+00 8.607761e-01 -1.634866e-01 2.406489e-01 -1.565911e-01 -7.299184e-02 -2.092476e-01 3.883115e-03 -4.328750e-01 -3.443991e-01 -5.306367e-02 7.962071e-02 -1.138088e-01 -6.027088e-01 1.297249e-02 9.802030e-02 -2.632290e-01 -3.844841e-02 -2.555710e-01 1.594667e-01 1.162203e-01 1.409931e-01 -8.761527e-02 -1.117516e-01 -2.325934e-02 -2.302709e-02 1.496813e-01 -5.465308e-03
<VARIANCE> 39
 1.233885e+01 2.967165e+01 2.509578e+01 3.142827e+01 2.463008e+01 3.039412e+01 5.383699e+01 3.453867e+01 4.132072e+01 5.858712e+01 5.607376e+01 4.421771e+01 5.584798e-03 2.599325e-01 6.773018e-01 6.291680e-01 9.534854e-01 1.111410e+00 1.062945e+00 9.813815e-01 1.494972e+00 1.191910e+00 1.884400e+00 1.283644e+00 1.616767e+00 1.602361e-04 7.751997e-02 8.562887e-02 2.306866e-01 2.594731e-01 2.221881e-01 2.132231e-01 1.951477e-01 3.269354e-01 3.422302e-01 3.114396e-01 2.494350e-01 2.573718e-01 5.036412e-05
<GCONST> 7.140599e+01
<MIXTURE> 11 5.286298e-02
<MEAN> 39
 -2.019820e+00 1.136291e+01 -5.957304e+00 -2.632439e+00 -9.201231e+00 -1.040666e+01 -6.320594e+00 -4.851451e+00 -5.786452e+00 -4.000751e+00 -7.259871e+00 9.786184e-01 8.908736e-01 -2.410281e-02 -7.751717e-02 -2.099330e-01 -1.169536e-01 -2.105972e-01 -1.890486e-01 -1.721819e-01 -1.732275e-01 -1.985612e-01 -2.539428e-01 5.713405e-02 -1.605154e-01 2.913189e-03 1.661648e-01 2.558841e-01 3.543373e-01 2.689053e-01 4.138609e-01 4.548697e-01 5.054461e-01 4.711578e-01 4.348241e-01 3.364518e-01 2.901931e-01 2.487718e-01 -2.115685e-03
<VARIANCE> 39
 1.677087e+01 2.173834e+01 1.318965e+01 1.219546e+01 1.306268e+01 1.850548e+01 2.549592e+01 2.206632e+01 1.417864e+01 2.572048e+01 2.243674e+01 3.219064e+01 4.031098e-03 1.166221e-01 1.452227e-01 2.164364e-01 2.745969e-01 2.731034e-01 3.496976e-01 4.310213e-01 5.367157e-01 2.931301e-01 3.931364e-01 4.954888e-01 4.400886e-01 5.001827e-05 1.591088e-02 3.385603e-02 4.308727e-02 6.357524e-02 6.291033e-02 6.021255e-02 8.301449e-02 7.847782e-02 8.571052e-02 8.158117e-02 7.672134e-02 9.746163e-02 5.956302e-06
<GCONST> 3.121803e+01
<MIXTURE> 12 1.034658e-01
<MEAN> 39
 -6.765608e-01 1.257402e+01 -5.594879e+00 -1.930715e+00 -8.478337e+00 -8.650965e+00 -3.983979e+00 -2.885984e+00 -4.426916e+00 -4.131239e+00 -6.555131e+00 7.399186e-01 8.652548e-01 -1.723192e-01 -3.713108e-01 -6.009411e-01 -5.239195e-01 -6.038262e-01 -6.715235e-01 -5.892727e-01 -5.930181e-01 -4.466819e-01 -5.218970e-01 -4.312305e-01 -4.568547e-01 7.883283e-04 5.366915e-02 9.515217e-02 1.106167e-01 9.107888e-02 1.507235e-01 1.678543e-01 1.547891e-01 1.735149e-01 2.021646e-01 9.399963e-02 1.035981e-01 9.837875e-02 -1.226644e-03
<VARIANCE> 39
 1.284928e+01 1.713814e+01 1.069800e+01 1.421114e+01 1.368284e+01 1.948079e+01 1.973977e+01 2.532670e+01 2.083206e+01 2.661595e+01 1.617095e+01 2.834397e+01 7.969975e-03 9.066375e-02 1.915240e-01 2.925994e-01 3.878487e-01 4.645515e-01 4.930800e-01 6.048099e-01 3.959655e-01 5.231879e-01 4.768911e-01 5.793039e-01 6.055233e-01 3.754082e-05 1.288062e-02 3.124923e-02 3.551961e-02 4.888206e-02 5.719064e-02 7.487833e-02 7.727813e-02 7.886940e-02 7.218453e-02 9.384239e-02 7.042652e-02 8.136281e-02 3.730629e-06
<GCONST> 3.236810e+01
<MIXTURE> 13 8.932012e-02
<MEAN> 39
 1.089942e+00 1.277854e+01 -2.056230e+00 1.922081e+00 -3.778492e+00 -4.699429e+00 -6.351565e+00 2.834546e+00 -6.584390e+00 2.513738e+00 -5.054593e+00 1.959364e+00 8.997929e-01 1.235670e-01 9.922920e-02 7.758410e-02 1.229683e-01 1.245297e-01 -4.119477e-02 1.093222e-01 2.472665e-02 2.448032e-01 6.475472e-02 -4.223468e-03 -1.602791e-02 -1.791968e-04 -1.546409e-02 -5.340623e-02 -9.886683e-03 -6.447250e-02 -9.732527e-02 -3.124185e-02 -4.692807e-02 -1.366243e-03 8.328050e-02 -5.894016e-02 3.684384e-02 -1.093245e-01 -1.358164e-03
<VARIANCE> 39
 5.464077e+00 8.986586e+00 4.624664e+00 1.469960e+01 5.407398e+00 1.982078e+01 2.018935e+01 2.860718e+01 1.751827e+01 1.256831e+01 2.542474e+01 3.245391e+01 2.284388e-03 7.739170e-02 1.186520e-01 2.346257e-01 2.687892e-01 2.457419e-01 3.381432e-01 3.499097e-01 5.522174e-01 3.166881e-01 3.975864e-01 2.775739e-01 4.259492e-01 3.754082e-05 1.030317e-02 2.118834e-02 4.404537e-02 5.094450e-02 4.832768e-02 5.554554e-02 7.962301e-02 7.339579e-02 6.686775e-02 7.944027e-02 8.534028e-02 9.265646e-02 3.730629e-06
<GCONST> 2.270046e+01
<STATE> 6
<NUMMIXES> 13
<MIXTURE> 1 1.069818e-01
<MEAN> 39
 -1.327836e+00 1.278244e+00 -1.128459e+00 -8.267344e-01 -8.877819e-01 -1.315295e+00 -1.053539e+00 -1.235357e+00 -1.224418e+00 -9.104981e-01 -7.978379e-01 1.074312e-02 9.716719e-01 3.410331e-01 4.284221e-01 5.096668e-01 6.106648e-01 6.672621e-01 4.956125e-01 5.434176e-01 5.206670e-01 6.033962e-01 5.161484e-01 3.542660e-01 3.620527e-01 -2.231913e-03 1.917610e-02 -4.283018e-03 -3.649957e-02 -3.307695e-02 -6.648558e-02 1.496741e-04 -2.450541e-02 -3.567095e-02 -5.134409e-03 -7.906965e-03 1.396509e-02 2.654815e-02 -9.877684e-04
<VARIANCE> 39
 3.216148e+00 3.838279e+00 7.047038e+00 7.282074e+00 6.107534e+00 6.954501e+00 1.070532e+01 7.458316e+00 9.761040e+00 9.290933e+00 1.881570e+01 1.589971e+01 8.178990e-04 1.456665e-01 2.209776e-01 4.406275e-01 4.160728e-01 6.220143e-01 6.014637e-01 8.991148e-01 9.518256e-01 5.478591e-01 6.168848e-01 6.348196e-01 5.483391e-01 3.754082e-05 2.037471e-02 3.709693e-02 5.361123e-02 6.638119e-02 9.500863e-02 8.424129e-02 1.254963e-01 1.197312e-01 7.825471e-02 8.010627e-02 1.177064e-01 8.446425e-02 3.730629e-06
<GCONST> 2.672147e+01
<MIXTURE> 2 7.738324e-02
<MEAN> 39
 7.887046e-01 1.369617e+01 -3.745068e+00 1.148439e+00 -6.093030e+00 -4.993322e+00 -1.307986e+00 -1.482442e+00 -1.808252e+00 -7.055980e-01 -3.435887e+00 3.316445e+00 8.955119e-01 3.537327e-01 4.349600e-01 5.693801e-01 7.248498e-01 8.529881e-01 6.855814e-01 8.471622e-01 6.569369e-01 7.459050e-01 8.024442e-01 6.556941e-01 3.658864e-01 5.052766e-05 -1.407401e-01 -2.038276e-01 -2.335067e-01 -3.564028e-01 -2.279511e-01 -3.575943e-01 -2.553351e-01 -3.198060e-01 -2.432341e-01 -2.004675e-01 -1.449943e-01 -2.238532e-01 -1.494853e-03
<VARIANCE> 39
 1.543896e+01 3.010340e+01 1.309905e+01 1.446190e+01 1.043236e+01 2.042526e+01 1.229059e+01 2.946390e+01 2.323271e+01 2.409385e+01 3.372665e+01 4.406671e+01 5.056769e-03 1.851866e-01 2.149394e-01 2.879299e-01 3.851561e-01 5.539476e-01 7.543749e-01 5.364086e-01 5.341154e-01 6.883410e-01 7.288455e-01 7.013639e-01 6.570814e-01 4.266270e-05 3.220227e-02 4.448567e-02 6.035103e-02 8.375155e-02 1.058903e-01 1.491642e-01 1.161862e-01 1.243097e-01 1.201783e-01 1.694760e-01 1.317280e-01 1.964217e-01 3.730629e-06
<GCONST> 4.332018e+01
<MIXTURE> 3 8.839261e-02
<MEAN> 39
 -2.336857e+00 -7.567545e-01 -3.834311e+00 -2.967211e+00 -3.840146e+00 -3.885544e+00 -4.446474e+00 -4.465140e+00 -3.662374e+00 -3.465008e+00 -3.099215e+00 -1.428469e+00 9.723874e-01 1.372376e-01 -3.384748e-02 -2.007842e-02 3.555119e-02 6.964671e-02 -4.593121e-02 1.136752e-02 1.940392e-03 -7.488438e-02 -1.129783e-01 -5.384676e-02 -1.022158e-01 -1.931327e-03 1.551827e-01 2.955319e-01 3.486339e-01 2.874818e-01 3.941775e-01 3.623466e-01 4.006095e-01 4.417178e-01 3.578955e-01 3.515039e-01 2.316638e-01 2.256394e-01 -1.049439e-03
<VARIANCE> 39
 3.417486e+00 2.505052e+00 6.346460e+00 7.311380e+00 1.056938e+01 5.445119e+00 7.857635e+00 7.080245e+00 1.015799e+01 9.362966e+00 1.589573e+01 1.436409e+01 8.514774e-04 1.515515e-01 2.275845e-01 4.135613e-01 3.353502e-01 7.743478e-01 5.955014e-01 5.624390e-01 6.703798e-01 5.906208e-01 5.486539e-01 9.415929e-01 4.961734e-01 3.754082e-05 2.255408e-02 4.476261e-02 6.987176e-02 6.219207e-02 1.254322e-01 6.541362e-02 9.017331e-02 1.072993e-01 9.400608e-02 7.737026e-02 1.467532e-01 9.697171e-02 3.730629e-06
<GCONST> 2.602765e+01
<MIXTURE> 4 1.084294e-01
<MEAN> 39
 -9.453585e-01 1.459673e+01 -1.350488e+00 -1.451338e+00 -5.159329e+00 -5.128023e+00 -7.881576e+00 -5.983546e-01 -2.463238e+00 -3.077474e+00 1.392158e+00 -2.022605e+00 8.806478e-01 2.523271e-02 1.949967e-02 1.363869e-04 7.947016e-03 4.016567e-02 -3.938290e-02 -1.177651e-01 -6.841765e-02 2.081715e-01 -2.269643e-02 -3.410948e-02 -2.414463e-01 -5.384964e-04 -2.684968e-03 -5.668816e-02 3.102867e-02 -5.145535e-02 6.158293e-02 -3.848894e-02 4.865764e-02 -3.224852e-02 5.802011e-02 6.550176e-02 4.019386e-02 9.897652e-03 -1.595697e-03
<VARIANCE> 39
 9.874226e+00 4.069553e+01 1.548192e+01 1.403305e+01 2.368928e+01 2.467021e+01 2.571894e+01 2.855492e+01 2.351600e+01 2.897353e+01 3.833179e+01 2.208161e+01 4.360886e-03 7.981319e-02 1.993790e-01 3.026665e-01 3.551385e-01 4.464390e-01 5.199929e-01 5.823511e-01 4.993438e-01 5.344370e-01 4.126799e-01 4.828665e-01 4.138035e-01 4.167038e-05 1.877227e-02 3.874697e-02 5.023946e-02 5.928307e-02 8.864120e-02 9.725507e-02 9.321229e-02 1.182337e-01 1.213525e-01 8.395134e-02 9.270557e-02 1.077344e-01 3.730629e-06
<GCONST> 3.758387e+01
<MIXTURE> 5 9.141261e-02
<MEAN> 39
 -2.163179e+00 2.088830e+00 -1.873086e+00 -2.252663e+00 -2.877272e+00 -2.663566e+00 -2.653666e+00 -8.529611e-01 -1.119560e+00 -2.275627e+00 -8.230735e-01 4.270670e-02 9.790225e-01 3.749473e-02 -5.032364e-02 -3.700614e-02 -3.228416e-02 2.055885e-02 -1.096225e-02 -8.157158e-02 -2.852039e-02 3.005515e-02 5.465251e-03 -2.396505e-02 -3.652744e-02 -9.079750e-04 1.810429e-02 2.288054e-02 4.415273e-02 -1.433275e-03 1.030547e-02 1.371317e-02 3.208337e-02 6.051032e-02 2.250991e-02 -1.724175e-04 -1.397270e-02 -2.037566e-03 -7.267508e-04
<VARIANCE> 39
 3.374191e+00 3.712758e+00 5.511120e+00 6.201677e+00 4.252866e+00 3.895000e+00 8.941272e+00 8.436361e+00 7.649385e+00 1.217298e+01 1.179480e+01 8.634089e+00 8.178990e-04 3.873947e-02 6.640241e-02 1.100116e-01 1.291782e-01 1.813027e-01 1.444125e-01 2.220747e-01 2.056521e-01 1.948633e-01 2.498655e-01 1.712078e-01 2.129777e-01 3.754082e-05 5.217005e-03 8.944394e-03 1.784905e-02 1.770691e-02 3.081131e-02 2.281654e-02 2.959814e-02 3.172404e-02 3.734532e-02 3.945110e-02 2.917628e-02 3.926219e-02 3.730629e-06
<GCONST> -4.607851e+00
<MIXTURE> 6 2.822710e-02
<MEAN> 39
 -1.501196e-01 2.258262e+00 1.613315e-01 8.936929e-01 1.309250e+00 9.043726e-01 5.351893e-01 1.739529e-01 4.245986e-01 3.605848e-01 -3.386904e-01 3.867591e-01 9.711859e-01 1.220325e-01 -1.859430e-02 -2.642858e-02 -3.187709e-02 -1.734695e-02 1.161182e-01 -8.007618e-02 -8.588228e-02 1.780700e-01 3.943434e-02 1.617199e-01 1.086623e-01 -1.363526e-03 -1.575700e-01 -3.256363e-01 -4.004579e-01 -3.631987e-01 -4.934472e-01 -4.550439e-01 -4.375818e-01 -4.354813e-01 -3.280852e-01 -3.042295e-01 -2.481975e-01 -2.333549e-01 -7.389176e-04
<VARIANCE> 39
 3.380871e+00 3.632838e+00 6.960664e+00 5.940721e+00 6.841273e+00 7.523647e+00 6.584846e+00 7.077825e+00 1.044079e+01 8.624485e+00 1.438437e+01 7.017520e+00 8.178990e-04 1.356236e-01 4.426412e-01 5.319025e-01 5.956475e-01 7.148877e-01 6.247033e-01 7.760996e-01 9.086649e-01 7.397026e-01 5.431480e-01 1.595894e+00 6.022253e-01 4.102809e-05 1.698145e-02 5.500268e-02 5.450963e-02 7.281691e-02 7.976704e-02 8.111288e-02 1.010988e-01 1.464866e-01 1.489296e-01 1.030549e-01 1.737966e-01 8.953433e-02 3.730629e-06
<GCONST> 2.892893e+01
<MIXTURE> 7 1.113216e-01
<MEAN> 39
 -1.243695e+00 1.468174e+01 -1.459113e+00 -1.749168e+00 -4.749935e+00 -5.643121e+00 -7.651951e+00 -1.310298e+00 -2.603826e+00 -3.119951e+00 1.310798e+00 -1.469971e+00 8.813766e-01 2.781677e-02 -4.930105e-03 -1.306616e-03 -3.378024e-02 4.380497e-02 -4.859532e-02 -8.770324e-02 -3.326291e-02 1.736963e-01 -7.816732e-03 -3.822454e-02 -2.272819e-01 -1.019353e-03 2.321084e-03 -5.405234e-02 3.581495e-02 -4.540731e-02 2.949341e-02 -4.597038e-02 5.553720e-02 -5.051023e-03 6.011347e-02 5.416840e-02 3.125368e-02 -1.323398e-02 -1.670055e-03
<VARIANCE> 39
 1.018696e+01 4.479037e+01 1.658544e+01 1.336924e+01 2.112807e+01 2.285002e+01 2.425580e+01 2.547901e+01 2.394963e+01 2.801333e+01 3.845491e+01 2.279386e+01 4.594762e-03 8.295307e-02 1.709753e-01 2.584803e-01 3.274849e-01 3.973696e-01 4.268786e-01 5.115380e-01 4.581183e-01 4.694206e-01 3.856758e-01 4.341097e-01 3.987434e-01 4.147981e-05 1.840462e-02 3.497321e-02 4.424988e-02 5.582082e-02 8.156676e-02 8.186738e-02 8.015046e-02 9.705140e-02 1.099376e-01 8.120912e-02 8.644763e-02 1.023777e-01 3.730629e-06
<GCONST> 3.504436e+01
<MIXTURE> 8 7.377372e-02
<MEAN> 39
 -2.083209e+00 1.263285e+01 -1.756530e+00 -2.304899e+00 -6.363935e+00 -3.892287e+00 -4.911015e+00 -1.865815e+00 2.562694e+00 -8.669742e-01 5.467821e+00 2.269532e+00 8.789918e-01 -9.990812e-03 1.349507e-01 5.850982e-03 -6.546032e-02 4.224824e-03 -7.465285e-03 1.019668e-01 -8.016546e-02 3.850395e-01 3.940401e-01 3.114088e-01 -6.160789e-02 1.059154e-02 7.109058e-02 -1.030358e-01 -2.115065e-02 -1.713942e-01 7.168983e-02 -8.557046e-02 8.394776e-03 9.240188e-02 -5.399688e-02 -1.335189e-01 -2.368861e-01 -1.647749e-01 -4.154124e-03
<VARIANCE> 39
 1.452907e+01 4.806021e+01 3.962594e+01 2.348792e+01 2.125904e+01 3.069928e+01 5.471143e+01 3.646988e+01 4.664809e+01 9.883495e+01 4.904236e+01 9.860569e+01 7.930959e-03 4.289486e-01 7.673232e-01 7.981849e-01 1.231821e+00 1.298031e+00 1.360010e+00 1.384207e+00 1.491216e+00 1.588461e+00 1.890682e+00 1.825364e+00 1.630332e+00 9.464318e-05 6.676747e-02 9.895091e-02 1.976812e-01 1.946162e-01 2.549038e-01 1.715045e-01 2.870822e-01 2.855234e-01 2.927344e-01 3.372705e-01 2.612806e-01 3.465724e-01 2.532674e-05
<GCONST> 7.510426e+01
<MIXTURE> 9 9.575901e-02
<MEAN> 39
 -1.070476e+00 2.732307e+00 -4.881640e-01 4.138097e-01 -2.729352e-01 1.486734e-01 -5.138298e-01 3.087642e-01 -5.427122e-01 -3.784642e-01 -5.497661e-01 1.009995e+00 9.665366e-01 9.512668e-02 3.281749e-03 6.418993e-02 4.626381e-03 -5.732131e-02 1.269704e-02 1.475473e-01 -1.768262e-02 4.693091e-02 -4.790103e-02 1.382773e-02 -8.346310e-02 -1.518564e-03 -2.147769e-02 -6.065712e-02 -4.044103e-02 -7.521676e-02 -8.291791e-02 -7.947309e-02 -4.730422e-02 -5.829783e-02 -3.234243e-02 -3.831111e-02 -4.073362e-02 -4.537087e-02 -7.971011e-04
<VARIANCE> 39
 2.946370e+00 3.369059e+00 3.870173e+00 4.432571e+00 5.249019e+00 5.294237e+00 1.203158e+01 6.862501e+00 5.862010e+00 7.697797e+00 1.372359e+01 9.476858e+00 8.178990e-04 1.052760e-01 1.390905e-01 1.924015e-01 2.806912e-01 2.338739e-01 3.414564e-01 3.360740e-01 3.233479e-01 3.788343e-01 2.679535e-01 2.819155e-01 2.721899e-01 3.754082e-05 1.210491e-02 1.721402e-02 2.232166e-02 2.779803e-02 4.103766e-02 4.409258e-02 5.107592e-02 3.251277e-02 4.132583e-02 4.928318e-02 4.133536e-02 4.854093e-02 3.730629e-06
<GCONST> 5.703865e+00
<MIXTURE> 10 8.672955e-02
<MEAN> 39
 -1.074244e+00 1.480211e+00 -1.823425e+00 -4.419868e-01 -8.994593e-01 -7.246141e-01 -9.667206e-01 -1.733910e+00 -9.258803e-01 -8.922490e-01 -1.338143e+00 5.283663e-01 9.693705e-01 -1.811079e-01 -5.710270e-01 -7.571728e-01 -6.656659e-01 -7.183855e-01 -7.510162e-01 -7.521333e-01 -8.336449e-01 -6.415779e-01 -6.796798e-01 -4.749868e-01 -5.633159e-01 -8.152317e-04 -1.633500e-02 -1.277787e-02 2.431835e-02 -3.797596e-02 -3.038400e-02 -9.529979e-02 -3.834577e-02 7.367102e-02 -9.358285e-02 -3.436497e-02 -3.335923e-02 -6.173338e-02 -9.313928e-04
<VARIANCE> 39
 3.810072e+00 3.810149e+00 6.357714e+00 6.851597e+00 8.919708e+00 6.423849e+00 1.007418e+01 8.854591e+00 7.362665e+00 9.370422e+00 1.540997e+01 1.204510e+01 8.178990e-04 1.543512e-01 2.076524e-01 2.315191e-01 3.712821e-01 6.531074e-01 4.634737e-01 6.501645e-01 7.769550e-01 6.807324e-01 5.246953e-01 1.027182e+00 6.256114e-01 3.754082e-05 1.582422e-02 3.511101e-02 6.595726e-02 6.428237e-02 1.142589e-01 8.142415e-02 8.655237e-02 1.420228e-01 7.724530e-02 7.727192e-02 1.437375e-01 7.670080e-02 3.730629e-06
<GCONST> 2.541817e+01
<MIXTURE> 11 2.822710e-02
<MEAN> 39
 -1.501196e-01 2.258262e+00 1.613315e-01 8.936929e-01 1.309250e+00 9.043726e-01 5.351893e-01 1.739529e-01 4.245986e-01 3.605848e-01 -3.386904e-01 3.867591e-01 9.711859e-01 1.220325e-01 -1.859430e-02 -2.642858e-02 -3.187709e-02 -1.734695e-02 1.161182e-01 -8.007618e-02 -8.588228e-02 1.780700e-01 3.943434e-02 1.617199e-01 1.086623e-01 -1.363526e-03 -1.575700e-01 -3.256363e-01 -4.004579e-01 -3.631987e-01 -4.934472e-01 -4.550439e-01 -4.375818e-01 -4.354813e-01 -3.280852e-01 -3.042295e-01 -2.481975e-01 -2.333549e-01 -7.389176e-04
<VARIANCE> 39
 3.380871e+00 3.632838e+00 6.960664e+00 5.940721e+00 6.841273e+00 7.523647e+00 6.584846e+00 7.077825e+00 1.044079e+01 8.624485e+00 1.438437e+01 7.017520e+00 8.178990e-04 1.356236e-01 4.426412e-01 5.319025e-01 5.956475e-01 7.148877e-01 6.247033e-01 7.760996e-01 9.086649e-01 7.397026e-01 5.431480e-01 1.595894e+00 6.022253e-01 4.102809e-05 1.698145e-02 5.500268e-02 5.450963e-02 7.281691e-02 7.976704e-02 8.111288e-02 1.010988e-01 1.464866e-01 1.489296e-01 1.030549e-01 1.737966e-01 8.953433e-02 3.730629e-06
<GCONST> 2.892893e+01
<MIXTURE> 12 4.748436e-02
<MEAN> 39
 2.634919e-01 1.436608e+01 -2.701223e+00 1.414413e+00 -5.536357e+00 -5.295807e+00 -1.952728e+00 -2.724604e-01 -2.791202e+00 1.355735e+00 -2.888665e+00 4.685099e+00 9.028841e-01 -2.073433e-01 -2.506244e-01 -3.670740e-01 -4.210046e-01 -2.022993e-01 -4.405378e-01 -2.734364e-01 -3.112347e-01 -1.481464e-01 -4.665451e-02 -2.702136e-01 -3.274629e-01 2.199762e-03 -2.697113e-01 -3.228937e-01 -4.039054e-01 -5.392515e-01 -3.873957e-01 -5.093061e-01 -3.287356e-01 -4.824152e-01 -2.956840e-01 -4.200486e-01 -3.484284e-01 -4.209047e-01 -1.923149e-03
<VARIANCE> 39
 1.551897e+01 2.998457e+01 9.397781e+00 1.241226e+01 1.168458e+01 1.970408e+01 1.108997e+01 2.574517e+01 2.109206e+01 1.342512e+01 3.811262e+01 3.820385e+01 4.296075e-03 1.658409e-01 1.554611e-01 2.451343e-01 3.510004e-01 3.554693e-01 5.215635e-01 3.617808e-01 5.563967e-01 5.177301e-01 7.655810e-01 7.658649e-01 9.675327e-01 3.754082e-05 2.521120e-02 4.625981e-02 4.205684e-02 5.300671e-02 6.373163e-02 1.182645e-01 1.153849e-01 1.317580e-01 1.243959e-01 1.460232e-01 8.656409e-02 1.504659e-01 7.393307e-06
<GCONST> 3.823917e+01
<MIXTURE> 13 5.587694e-02
<MEAN> 39
 -2.237103e-01 1.043431e+01 -5.972781e+00 -2.219820e+00 -9.985677e+00 -8.189929e+00 -4.020021e+00 -3.026303e+00 -4.356316e+00 -5.848767e+00 -7.673223e+00 1.980053e-01 8.894200e-01 3.235574e-01 3.414806e-01 3.207605e-01 6.372508e-01 5.694375e-01 6.532344e-01 7.658074e-01 3.850255e-01 7.042214e-01 4.704598e-01 5.261899e-01 4.834696e-01 -6.282349e-04 9.251544e-02 8.439813e-02 1.632233e-01 1.489622e-01 4.310275e-01 2.963919e-01 2.718882e-01 1.492170e-01 2.945627e-01 3.991284e-01 2.772922e-01 3.820105e-02 -1.417988e-03
<VARIANCE> 39
 1.566738e+01 2.981032e+01 2.272273e+01 1.636164e+01 1.725889e+01 2.258694e+01 2.460053e+01 2.774443e+01 2.567322e+01 3.603992e+01 2.699897e+01 3.057570e+01 4.863476e-03 2.112948e-01 3.468808e-01 6.205982e-01 5.084609e-01 8.442793e-01 7.101986e-01 9.286519e-01 1.263811e+00 8.457231e-01 9.882910e-01 7.804443e-01 1.069853e+00 3.754082e-05 2.486593e-02 5.612051e-02 1.418858e-01 8.669978e-02 1.106572e-01 1.262947e-01 1.809924e-01 2.627739e-01 1.936209e-01 1.869188e-01 2.426231e-01 1.723665e-01 4.800825e-06
<GCONST> 5.275682e+01
<STATE> 7
<NUMMIXES> 13
<MIXTURE> 1 7.328141e-02
<MEAN> 39
 9.145036e-01 1.167028e+01 -7.798548e+00 -1.670097e+00 -8.087060e+00 -6.848943e+00 -3.845160e+00 -6.388113e+00 -2.176733e+00 -4.540985e+00 -3.498775e+00 6.086724e-01 8.484079e-01 4.755061e-01 2.397794e-01 -3.852161e-02 4.626549e-01 5.939898e-01 6.385821e-01 -7.277296e-02 -4.522152e-02 7.275160e-01 4.718664e-01 7.083878e-02 -2.651632e-01 -2.699347e-03 1.374479e-01 2.711745e-02 2.324630e-01 7.391400e-02 2.596240e-01 1.065666e-01 1.803249e-01 3.066878e-01 7.389792e-02 8.924423e-02 4.181924e-02 1.961157e-01 -1.718485e-03
<VARIANCE> 39
 2.501222e+01 3.915179e+01 3.016106e+01 1.456927e+01 1.868481e+01 2.211223e+01 1.943796e+01 1.352874e+01 2.011368e+01 2.391997e+01 3.616420e+01 5.942362e+01 1.218936e-02 2.047766e-01 2.965346e-01 1.165688e+00 7.912655e-01 9.885988e-01 8.379461e-01 1.327419e+00 1.583369e+00 1.261002e+00 1.449116e+00 1.019366e+00 1.478578e+00 6.895882e-05 3.912846e-02 5.488076e-02 1.577090e-01 1.681204e-01 1.929237e-01 1.410512e-01 1.460005e-01 1.498746e-01 2.182298e-01 2.573056e-01 2.107345e-01 2.485573e-01 1.157921e-05
<GCONST> 6.039544e+01
<MIXTURE> 2 5.752527e-02
<MEAN> 39
 -4.665620e+00 1.277790e+01 -8.243534e+00 -3.197280e+00 -6.680982e+00 -6.986891e+00 -1.224526e+00 -1.422579e+00 5.083596e+00 6.553716e+00 1.084352e+01 1.822230e+01 8.747916e-01 -2.252269e-02 -9.505183e-02 3.341407e-02 -1.593559e-01 1.077622e-01 4.140947e-02 5.237227e-02 -1.382166e-02 1.795223e-02 1.754196e-01 -3.177418e-03 7.353346e-02 1.953173e-03 7.475382e-02 7.390546e-02 1.639858e-01 -1.570369e-02 1.168430e-01 8.682077e-02 8.463407e-02 -2.958998e-02 -8.480892e-02 3.547469e-02 -1.349109e-01 -1.336331e-01 -2.183848e-03
<VARIANCE> 39
 2.115100e+01 3.860831e+01 2.775671e+01 1.066189e+01 1.394007e+01 1.354190e+01 1.336216e+01 8.180340e+00 3.713129e+01 5.674009e+01 3.161773e+01 1.249627e+01 5.189782e-03 1.549735e-01 2.445827e-01 5.046195e-01 6.207291e-01 9.950611e-01 8.235453e-01 3.958510e-01 2.177568e-01 3.480493e-01 6.130353e-01 4.196445e-01 5.883407e-01 3.754082e-05 2.244286e-02 3.794066e-02 5.855295e-02 1.067886e-01 1.451564e-01 1.097640e-01 7.781435e-02 4.247125e-02 8.403035e-02 1.004090e-01 6.830513e-02 9.885406e-02 4.690197e-06
<GCONST> 3.812298e+01
<MIXTURE> 3 1.116509e-02
<MEAN> 39
 -3.361073e+00 1.494084e+01 2.487257e+00 -3.714749e+00 -6.382840e+00 -1.229185e+01 -1.509071e+01 -3.925776e+00 -1.458325e+00 -2.274632e+00 7.323678e+00 -6.323159e+00 9.064485e-01 5.887718e-02 1.141349e-01 3.610198e-01 1.614179e-01 8.180444e-01 3.116766e-01 6.854806e-01 8.288177e-02 4.059919e-01 5.025612e-01 9.163959e-01 1.220279e+00 5.825589e-03 2.473722e-02 -8.236872e-02 -1.287279e-01 -2.847389e-01 9.960687e-02 2.450694e-01 2.083537e-01 1.551372e-01 -7.970529e-02 1.877245e-02 -2.000692e-01 1.166398e-01 -6.193381e-04
<VARIANCE> 39
 1.367942e+00 3.409591e+01 3.517573e+00 7.485729e+00 3.847027e+00 8.928521e+00 4.627251e+01 1.206483e+01 9.865309e+00 1.817182e+01 9.188330e+00 5.537178e+00 3.333176e-03 4.436469e-02 3.291521e-01 2.797138e-01 2.981738e-01 2.291686e-01 1.960837e-01 4.034908e-01 7.360179e-01 3.969808e-01 1.392578e-01 2.661541e-01 3.835310e-01 4.761748e-05 9.629372e-03 2.387692e-02 2.434746e-02 7.582910e-02 4.437947e-02 5.985702e-02 1.742392e-01 8.685958e-02 3.325295e-02 4.631963e-02 1.011983e-01 1.221571e-01 5.677719e-06
<GCONST> 1.816768e+01
<MIXTURE> 4 1.078409e-01
<MEAN> 39
 -7.738478e-01 1.692135e+01 3.069004e-01 -1.117017e+00 -3.484609e+00 -2.502038e+00 -9.094434e+00 3.040676e-01 8.828659e-01 -6.320212e+00 6.743576e+00 -4.279474e+00 8.491231e-01 5.552290e-02 -7.696553e-02 6.355225e-02 -8.556014e-02 2.345574e-01 -2.515830e-01 1.180175e-01 6.031230e-02 1.282869e-01 2.207292e-01 -2.135764e-02 2.023731e-01 -3.931378e-03 5.288631e-03 -8.595726e-02 1.068391e-02 -3.016182e-02 8.596328e-03 -1.461454e-02 -2.053023e-02 1.427063e-03 -1.144703e-02 1.236956e-01 -1.166987e-01 6.263755e-02 -1.247903e-03
<VARIANCE> 39
 8.842379e+00 2.463046e+01 1.309614e+01 1.171831e+01 1.091858e+01 1.101177e+01 1.593452e+01 7.867472e+00 1.117936e+01 2.237616e+01 9.720547e+00 1.494100e+01 3.026482e-03 4.116510e-01 3.982374e-01 2.997467e-01 3.345706e-01 2.771094e-01 3.382519e-01 4.180730e-01 2.684059e-01 3.505290e-01 4.037591e-01 2.864465e-01 2.783201e-01 4.195142e-05 8.772480e-02 7.819773e-02 4.816270e-02 8.185029e-02 5.197806e-02 7.704735e-02 6.760578e-02 5.774628e-02 5.217307e-02 1.203436e-01 5.586948e-02 8.307648e-02 4.689481e-06
<GCONST> 2.889119e+01
<MIXTURE> 5 8.408408e-02
<MEAN> 39
 3.097977e+00 1.374893e+01 -1.481268e+00 7.883139e-01 -4.141936e+00 -3.949387e+00 -2.293777e+00 2.095784e+00 -8.394333e-01 1.995347e+00 -2.262368e+00 -1.258033e+00 8.163505e-01 3.874762e-01 -2.722786e-01 -6.387311e-01 7.424339e-02 3.572049e-01 2.342158e-02 -3.496709e-01 -3.602891e-01 3.996044e-02 2.614326e-01 -3.895146e-01 -3.490925e-01 -2.760027e-03 -2.015997e-02 -6.301346e-02 -2.378011e-01 -9.487680e-02 -3.084783e-02 -1.314256e-01 -1.756502e-01 -2.944732e-01 3.066690e-02 -1.790553e-01 -1.418193e-01 2.030205e-03 6.887457e-04
<VARIANCE> 39
 9.907564e+00 2.981543e+01 9.506890e+00 8.678750e+00 1.590895e+01 2.790614e+01 2.463902e+01 1.844128e+01 1.506535e+01 5.614220e+01 3.235234e+01 1.010982e+01 8.070760e-03 2.346856e-01 6.465704e-01 1.066591e+00 7.895272e-01 1.264366e+00 1.670133e+00 1.286578e+00 1.295135e+00 1.386026e+00 1.771278e+00 1.858560e+00 1.350787e+00 4.233997e-05 4.017618e-02 1.334250e-01 1.929890e-01 1.133627e-01 1.867999e-01 3.368798e-01 2.876108e-01 2.857793e-01 2.416043e-01 3.029462e-01 2.593640e-01 2.599899e-01 4.013385e-06
<GCONST> 6.060096e+01
<MIXTURE> 6 6.802937e-02
<MEAN> 39
 5.540604e-01 1.501054e+01 -6.621233e+00 -2.084951e-01 -6.039316e+00 -8.071021e+00 -5.115578e+00 -1.650916e+00 -4.275340e+00 5.623884e-01 -6.802825e+00 1.355242e+00 8.807931e-01 -2.262412e-01 -6.510419e-03 -8.132473e-02 -2.516426e-01 2.066236e-01 -2.367289e-01 5.293794e-01 4.860489e-02 6.696846e-01 -2.483342e-01 2.358355e-01 -5.178745e-01 -1.217476e-03 -9.730641e-02 -1.390623e-01 1.251137e-01 -3.842837e-01 1.055993e-01 -2.784466e-01 2.328899e-01 -1.250972e-01 1.059230e-01 -1.969210e-01 1.278781e-01 -1.866323e-01 -1.080130e-03
<VARIANCE> 39
 8.149619e+00 3.204313e+01 1.096175e+01 1.839432e+01 1.503214e+01 1.615495e+01 1.674973e+01 2.255359e+01 1.826321e+01 2.507264e+01 2.115196e+01 2.763800e+01 4.692705e-03 1.508135e-01 2.341344e-01 3.070502e-01 3.563965e-01 5.237660e-01 7.185178e-01 8.184088e-01 5.641983e-01 6.754099e-01 5.383000e-01 1.059117e+00 7.026171e-01 3.754082e-05 2.277060e-02 5.100583e-02 5.316911e-02 9.258856e-02 1.459320e-01 1.078355e-01 1.517371e-01 9.071446e-02 1.242853e-01 7.749286e-02 1.333869e-01 1.125109e-01 4.361978e-06
<GCONST> 4.061394e+01
<MIXTURE> 7 8.105636e-02
<MEAN> 39
 -2.174092e+00 1.702475e+01 8.008210e-01 -2.929954e+00 -5.788753e+00 -4.282232e+00 -1.055289e+01 1.983345e+00 -2.646041e+00 -3.073668e+00 4.253459e+00 -4.910319e+00 8.668661e-01 2.627547e-03 -1.475810e-01 2.197607e-01 -3.226250e-01 2.697271e-01 -1.535621e-01 5.814531e-02 -2.284422e-01 5.111408e-01 -5.969797e-02 2.105142e-01 -1.253285e-01 -5.504572e-04 6.799726e-03 -1.506244e-01 6.414045e-02 -1.776145e-01 2.636609e-01 -3.143153e-02 6.345610e-02 -1.473186e-01 1.147041e-01 3.127841e-02 -9.198380e-02 7.947219e-03 -2.771407e-03
<VARIANCE> 39
 5.927905e+00 2.835766e+01 1.045875e+01 2.237429e+01 1.276025e+01 2.034246e+01 2.148082e+01 1.438554e+01 2.021530e+01 1.528817e+01 1.528385e+01 8.569058e+00 4.903079e-03 1.561023e-01 2.216933e-01 3.943326e-01 7.195282e-01 2.903320e-01 4.769024e-01 5.926789e-01 5.469676e-01 6.386929e-01 6.291691e-01 3.481040e-01 4.066667e-01 5.992041e-05 4.976441e-02 5.139517e-02 9.162942e-02 1.073608e-01 7.992864e-02 1.833715e-01 1.351506e-01 8.258920e-02 1.474615e-01 8.837940e-02 8.113706e-02 1.136825e-01 8.529686e-06
<GCONST> 3.851731e+01
<MIXTURE> 8 9.167799e-02
<MEAN> 39
 -3.966477e+00 1.471458e+01 1.259940e+00 -3.491688e+00 -5.688750e+00 -5.392128e+00 -1.211200e+01 -5.319744e+00 3.723711e+00 -7.826087e+00 5.422341e+00 -7.271491e+00 9.001831e-01 -1.510978e-01 -7.546909e-03 6.346671e-02 -2.878208e-01 6.982715e-02 -2.178974e-01 1.431565e-01 2.079338e-01 -1.458517e-01 3.193110e-01 -1.248492e-01 -1.254787e-01 2.730963e-03 3.813552e-02 -9.090681e-02 -8.689954e-03 -4.247514e-02 -2.283335e-02 -4.350882e-02 1.532810e-01 1.607388e-01 -1.157417e-01 -6.688127e-03 -9.819105e-02 1.934050e-01 -1.572446e-03
<VARIANCE> 39
 7.665020e+00 1.585490e+01 1.298990e+01 9.142135e+00 1.679045e+01 1.997622e+01 2.714346e+01 1.665974e+01 3.305350e+01 3.271484e+01 2.388281e+01 1.994591e+01 2.630538e-03 7.613636e-02 2.399610e-01 3.171427e-01 4.160878e-01 5.565792e-01 6.272355e-01 6.460259e-01 1.111118e+00 5.835123e-01 6.603070e-01 6.522315e-01 4.598848e-01 3.754082e-05 1.459386e-02 4.516016e-02 6.181685e-02 7.821288e-02 1.150402e-01 1.288245e-01 1.261844e-01 1.545012e-01 1.088269e-01 9.745061e-02 1.430840e-01 7.444826e-02 4.347849e-06
<GCONST> 3.839569e+01
<MIXTURE> 9 1.282203e-01
<MEAN> 39
 9.117833e-01 7.139210e+00 -4.252736e-01 -9.430032e-02 -1.220470e+00 -4.621171e+00 -2.088889e+00 -9.477521e-01 1.058519e-01 7.348694e-01 -6.790314e-01 5.891933e-01 9.017525e-01 2.771424e-01 -2.982089e-02 -2.034613e-02 2.879674e-01 -5.295437e-02 6.563410e-02 -1.137425e-01 -9.259018e-02 1.510610e-01 4.354439e-01 2.519207e-01 -4.202184e-02 -8.650362e-03 3.799576e-02 -4.554613e-02 -1.203276e-01 -4.709370e-02 -8.381063e-02 5.050755e-02 -5.784531e-02 -9.402889e-03 -1.085269e-01 -7.696548e-02 1.256212e-02 -3.791876e-02 -1.722930e-03
<VARIANCE> 39
 7.572192e+00 3.489934e+01 1.170024e+01 1.653277e+01 1.477833e+01 2.010540e+01 2.326989e+01 1.432537e+01 1.557634e+01 3.136491e+01 1.678679e+01 9.181374e+00 2.414548e-03 2.114288e-01 2.808552e-01 4.731294e-01 6.114058e-01 6.580828e-01 9.391254e-01 1.087301e+00 1.011214e+00 1.148272e+00 1.025253e+00 9.282537e-01 7.898161e-01 3.754082e-05 4.148582e-02 6.760127e-02 1.125320e-01 1.203623e-01 1.161286e-01 1.794673e-01 2.237460e-01 2.067434e-01 1.915390e-01 2.658429e-01 1.659276e-01 1.460467e-01 3.730629e-06
<GCONST> 4.811848e+01
<MIXTURE> 10 7.114691e-02
<MEAN> 39
 2.069997e+00 1.382924e+01 -5.619174e+00 4.171356e-01 -5.183242e+00 -5.348253e+00 -2.568241e+00 -6.731042e-01 3.060892e+00 1.665117e+00 4.995801e-01 3.509389e+00 8.824902e-01 -1.980042e-02 -1.796181e-01 -2.219125e-01 -4.123604e-01 -4.969541e-02 -1.759673e-01 3.380414e-02 -6.266908e-02 1.558251e-01 1.534380e-01 3.251408e-01 4.410939e-01 6.947448e-03 -1.403815e-01 -2.724403e-01 1.473291e-02 -3.891860e-01 -2.209287e-01 -1.904843e-01 -2.636473e-01 -1.749131e-01 -2.910332e-01 -4.269937e-01 -5.394589e-02 -1.917914e-01 -2.967395e-03
<VARIANCE> 39
 2.158390e+01 2.513832e+01 3.496610e+01 2.578249e+01 2.769914e+01 3.042747e+01 2.899987e+01 3.477863e+01 4.640315e+01 5.526847e+01 1.010026e+02 8.185092e+01 4.504444e-03 6.367292e-01 9.263483e-01 1.133610e+00 1.359692e+00 2.017355e+00 2.051835e+00 1.739328e+00 1.958327e+00 2.548474e+00 2.039724e+00 2.680340e+00 1.852091e+00 9.429362e-05 5.221770e-02 1.028735e-01 1.900753e-01 1.880490e-01 2.432948e-01 3.809629e-01 2.654618e-01 3.905061e-01 3.343436e-01 3.565700e-01 4.324055e-01 5.070083e-01 1.626346e-05
